double weightsOne[98][784] = {{0.730613,0.851863,0.770043,0.143681,0.215674,0.187963,0.905179,0.755181,0.988952,0.070620,0.573748,0.028108,0.644811,0.706160,0.608509,0.539201,0.739921,0.152867,0.387799,0.204443,0.861751,0.053957,0.027375,0.829493,0.638325,0.919492,0.394055,0.193396,0.094302,0.089816,0.722953,0.321604,0.460585,0.450954,0.080576,0.010623,0.868576,0.205167,0.683408,0.882624,0.414628,0.882924,0.810928,0.393260,0.058593,0.459137,0.771254,0.068439,0.486334,0.724687,0.650064,0.820643,0.436842,0.135807,0.125950,0.204291,0.392926,0.346843,0.054018,0.340342,0.413587,0.429012,0.027424,0.224356,0.337810,0.673407,0.161555,0.331380,0.173814,0.482986,0.035653,1.012194,0.513449,0.741095,0.149968,-0.033434,0.967252,0.792982,0.107935,0.006837,0.346002,0.774468,0.228492,0.472121,0.970458,0.148778,0.011383,0.476977,0.668158,0.569424,0.364698,0.465235,0.523558,0.414101,-0.063616,0.978757,0.666021,1.474329,1.159450,1.089863,1.612102,0.932212,0.489741,-0.144239,0.613170,-0.406218,-0.240383,0.125569,0.232666,0.631683,0.079096,0.014954,0.782159,0.102115,0.859004,0.194906,0.644671,1.156354,0.756983,0.766989,0.802258,0.736856,1.450470,0.559793,0.554324,1.290940,0.814052,2.076459,1.551824,1.587137,1.272290,0.681004,0.402928,0.575824,0.076631,0.431234,0.295745,0.595648,0.465993,0.642260,0.499680,0.453108,0.574541,0.944255,0.546600,0.612713,1.555133,1.519355,0.654305,0.708800,0.859470,-0.436666,0.034579,-0.751950,0.436665,1.989567,2.015454,2.185431,2.277691,1.605201,-0.021530,0.431004,0.540688,0.704371,0.170111,0.088192,0.892495,0.807730,0.204443,0.882870,0.863732,1.098650,1.134880,0.735405,1.787677,1.128930,-0.332118,-0.158098,-0.988773,-1.677186,-2.455745,-1.332848,-0.785112,0.408273,-0.177562,0.775586,2.029984,1.245194,0.922874,0.429921,0.879624,0.530752,-0.088924,0.327640,0.271665,0.157338,0.387402,0.393987,0.780884,1.070724,0.882994,1.793289,1.940891,0.255632,-1.323588,-1.776687,-2.162181,-3.170794,-2.342895,-2.312462,-1.319029,-0.753904,-0.158246,0.950022,1.595725,1.798499,0.045950,0.024901,0.110163,-0.595744,-1.288642,-0.248069,0.079973,0.081671,0.474380,0.520108,0.439678,0.861438,1.482647,2.249978,0.822597,-0.943544,-2.370450,-2.150271,-1.592724,-2.108909,-2.733734,-2.230847,-2.273435,0.808525,1.054078,2.304569,1.598897,1.629632,-0.779823,-1.440709,-1.849865,-2.226467,-2.291549,-0.840481,0.560226,0.510539,0.595477,0.119012,0.504641,0.894740,0.736990,0.702939,-1.283166,-3.482786,-3.534942,-2.076532,-2.777916,-3.790105,-3.107106,-3.826517,-3.193585,1.866330,3.625580,2.447633,1.535445,1.084219,-1.205066,-2.280044,-2.746643,-2.400562,-2.319375,-1.091456,-0.074307,0.822758,0.817316,0.304811,0.056202,0.809220,0.206075,-0.591863,-3.367482,-3.509155,-3.272278,-3.165485,-4.199737,-4.603713,-3.450573,-4.032339,-2.184808,2.683982,3.857703,2.168781,0.535804,0.023020,-0.651799,-2.222332,-1.569606,-2.152005,-1.429088,-0.467955,-0.172783,0.332050,0.557024,0.239231,0.212870,0.013663,-0.649520,-2.188730,-3.736431,-2.784960,-2.664104,-2.622542,-2.622488,-1.042553,-0.388402,-2.738417,-0.089782,1.419425,2.161630,0.563204,0.193038,-0.761739,-1.613079,-2.095825,-1.300767,-0.728176,-1.299254,-0.623332,0.106628,0.535385,0.396619,0.380471,-0.083170,-0.166182,-1.230962,-1.900027,-2.489970,-1.466363,-0.312976,0.544699,0.920856,1.384013,1.032963,-0.742970,-1.063739,0.414708,1.110806,0.268063,-0.617486,-1.952933,-1.726765,-1.491289,-0.213642,0.254273,0.179038,0.925171,0.183130,0.926095,0.016388,0.769884,0.486953,0.754141,-0.814702,-0.293121,-0.155876,0.505397,1.256976,1.618691,2.675192,3.147494,0.758172,-1.082837,-1.240093,-1.571950,-1.094693,-0.269735,-0.568772,-2.505424,-1.740550,-0.750174,0.226283,0.741086,0.893636,1.200720,1.064795,0.999153,0.466292,0.051568,0.349434,0.378529,0.699134,1.012392,1.159718,2.185281,2.491411,2.512914,2.046466,1.743324,0.040682,-1.224791,-1.265938,-1.305856,-0.788794,-0.209390,-0.425010,-0.512017,-0.586121,1.294063,0.647546,1.030826,0.860800,0.526674,0.095865,0.621350,0.493912,0.246949,0.072587,0.689909,0.927912,1.769430,1.716252,3.122438,2.223273,2.214512,0.173894,1.262630,0.259232,-0.513864,-0.902400,-0.485244,0.653307,-0.199395,-0.583633,0.266073,0.436539,1.049214,1.011719,0.773402,1.222662,1.377832,0.592446,0.364553,0.147954,0.851092,0.347315,0.301411,0.948078,2.121418,2.183682,2.105242,1.751363,0.716026,0.709867,0.672894,-0.242698,0.681020,0.371182,0.114241,0.421034,0.156443,1.211712,1.997646,1.465862,2.146879,2.019174,1.098556,1.119453,0.694086,0.591251,0.587416,0.375713,0.009385,0.432778,0.967292,1.992959,1.705905,0.821536,0.766416,0.661718,-0.647195,-0.209706,-0.751349,-0.304193,-0.355255,0.248998,0.172259,0.928770,0.710274,1.716558,1.242940,0.845096,1.361951,1.941886,0.200314,0.385098,0.389595,0.513920,0.476893,0.833522,0.930113,0.845886,1.524081,1.743677,1.993136,0.281298,0.993790,0.950075,0.135255,-0.490937,-0.784055,-0.900843,-0.888124,-1.175577,-0.192299,2.030578,1.899264,2.069719,0.620072,-0.085814,0.674884,1.274919,0.590684,0.386798,0.815712,0.297821,0.481159,0.628712,0.464309,0.801908,0.915803,2.054611,1.433965,0.075430,-0.461225,-0.000252,0.836928,-0.253511,-0.058523,-1.215951,-0.609030,0.125047,1.977386,2.282632,1.913672,0.753728,-0.291757,0.507756,1.041486,0.738071,-0.106723,0.623610,0.575805,0.844467,0.105716,0.212226,0.354595,0.680895,1.093366,2.238327,1.052090,0.765013,0.198274,0.150573,0.805373,0.560403,0.934802,-0.378276,-0.259051,0.304943,0.744738,0.742437,1.865985,1.417289,0.124809,1.061208,1.015588,-0.336168,-0.042390,0.999384,0.413317,0.741627,0.289285,0.140202,0.820663,0.408978,1.630710,1.548351,1.897496,1.731679,-0.179488,0.483911,0.386291,1.070363,-0.752898,-1.004697,-1.628608,-0.669316,-1.094612,0.278121,1.220189,1.238642,1.050289,-0.284101,-0.147504,0.060254,-0.255579,0.425695,0.083279,0.523868,0.402203,0.923338,0.875423,0.705838,1.029999,1.546740,1.916052,0.954209,0.292938,-0.028828,-0.111750,-0.448718,-1.569234,-2.818485,-2.016345,-1.818818,-0.192831,-0.627242,0.087833,0.657591,1.196198,0.280606,0.450324,-0.191338,0.101617,0.071251,0.731386,0.431236,0.554521,0.683035,0.249092,0.706799,1.161745,1.398617,1.862464,1.291545,0.811468,-0.245373,-0.219896,0.765705,-0.411119,-1.717890,-1.548415,-0.769374,-0.562246,-0.969966,-0.470002,0.965253,1.036491,-0.072032,0.226104,-0.209475,-0.458159,0.140483,0.474372,0.659367,0.496811,0.833094,0.202155,0.612338,0.909453,0.491902,0.494938,0.868774,0.066483,-0.299226,0.249596,-0.402732,-0.371209,-1.119387,-1.281784,-0.995788,-0.938219,-0.704367,-0.586972,0.356218,-0.128448,-0.430774,-0.065075,0.168367,-0.008131,0.487257,0.209662,0.964487,0.263771,0.505142,0.132084,0.352463,0.428783,0.171563,0.554613,0.144788,-0.369398,-0.815287,-0.157616,-0.151103,-1.216066,-1.317191,-1.932951,-1.395701,-0.561657,-0.513051,-0.806836,-0.313850,0.061418,-0.385094,0.632186,0.703997,0.788026,0.363874,0.642111,0.833249,0.169805,0.937376,0.280923,0.877529,0.008271,0.945210,0.273293,0.118290,0.585972,-0.345481,-0.396965,-0.395007,-0.007839,0.317016,-0.689450,-0.201091,-0.817204,-0.106722,-0.140607,0.618346,-0.222791,0.484751,0.142069,0.397450,0.058957,0.800256,0.060884,0.256203,0.243751,0.544603,0.399823,0.415998,0.556993,0.260323,0.186834,0.550700,0.764319,0.472718,0.938056,0.302772,0.860387,0.934066,0.549933,0.427082,0.587084,0.524308,0.218202,0.845162,0.148035,0.692509,0.465689,0.112777,0.970323,0.313913,0.069338,0.861629,0.697195},{0.888913,0.712180,0.066256,0.975097,0.506729,0.123295,0.181555,0.155400,0.670248,0.669729,0.980132,0.799890,0.548260,0.719238,0.063723,0.333872,0.695212,0.808283,0.240699,0.040071,0.617054,0.665426,0.568804,0.054323,0.486892,0.593493,0.345622,0.519456,0.269326,0.019501,0.827479,0.553667,0.448012,0.476958,0.873041,-0.020929,0.633751,0.199337,0.809437,0.876004,0.346256,-0.136591,0.433570,0.023592,0.218341,0.594243,0.159894,0.757863,0.252179,0.075971,0.772088,0.792505,0.956389,0.936003,0.656941,0.793451,0.149541,0.293741,0.195715,0.069582,0.458113,0.511922,0.319712,0.410685,0.100653,-0.061219,-0.474113,0.572355,0.308618,-0.225334,-0.473279,-0.308768,-0.276043,-0.434899,-0.369416,0.265147,0.321088,0.349079,0.093738,0.878226,0.876117,0.263039,0.911985,0.825922,0.142033,0.599200,0.772301,0.832810,0.743300,0.656017,0.556582,0.586616,-0.193302,-0.178252,-0.879139,-0.773340,-0.231817,-1.091332,0.162590,0.880873,0.306973,0.347705,0.749869,0.298695,0.514611,0.001753,0.732692,0.615200,0.407463,0.339160,0.486909,0.685904,0.767815,0.688894,0.850490,0.824972,0.464578,0.462643,0.606832,1.046236,0.679287,0.021284,-0.199465,0.627300,0.183542,1.497315,0.175243,0.969299,0.918712,1.541518,1.666287,1.229750,1.062410,0.520660,1.148372,0.500130,0.962207,0.866307,0.360073,0.232380,0.710074,0.118015,0.449568,0.460149,0.525932,1.010003,1.211869,1.023042,0.878011,0.320854,0.283138,1.386705,1.271007,1.043010,0.868951,1.403346,1.241360,0.914881,0.916217,1.111963,0.227289,1.034631,0.855922,1.504976,0.576850,0.637785,-0.060707,0.288221,0.781030,0.219092,0.795088,1.154554,0.932031,1.542913,1.178587,0.894980,0.322585,0.203780,1.032088,0.504635,0.023579,1.356147,0.423240,0.347486,-0.622256,0.009059,1.116105,1.319716,1.739594,1.832994,1.190146,1.306334,0.233826,0.527968,0.758561,0.917021,0.320109,0.792325,0.495803,0.637783,1.243343,1.032900,0.975656,0.551589,-0.495541,0.385266,-0.366572,-1.067898,-0.580384,0.859974,1.543415,1.279893,-0.197547,1.274844,1.479217,2.168660,1.493513,0.901547,1.114403,1.205354,0.043207,0.234379,0.671030,0.624951,0.242744,0.758928,-0.037906,0.336505,0.728517,1.035599,0.432082,-0.159368,-0.525085,-0.326901,-0.397401,0.108042,0.357829,1.071543,1.857551,2.110987,1.483246,2.688203,3.143558,2.113758,1.654078,0.429804,1.239361,-0.239628,0.874408,0.582926,0.874478,0.180768,0.458205,-0.043037,-0.016939,0.468051,0.360031,0.151122,-0.381819,-0.246585,-0.967115,0.227858,-0.224332,0.210280,1.160497,2.265245,1.196009,2.121705,2.923554,3.280195,3.329055,2.457897,0.995898,-0.013290,0.943746,0.275100,0.606527,0.586756,0.831725,0.162619,0.875210,0.834553,0.024458,0.314642,-0.418687,-0.809698,-1.025283,-0.699608,-0.357494,-0.061303,-1.940640,0.034889,0.702057,0.543841,0.787164,3.146309,2.222560,2.599282,1.547095,1.013973,0.031190,0.857673,0.273379,0.270506,0.578784,0.387678,0.134581,0.081835,0.714469,0.483819,0.365488,0.067493,0.276945,-0.264593,-0.119929,-0.464529,-0.389835,-0.490059,0.301808,1.269683,1.905449,-0.699612,0.074776,1.864756,1.764930,1.774040,1.093271,1.155857,1.354879,-0.447062,-0.715908,-1.204187,-0.498180,0.428639,1.073500,0.376999,0.346416,0.841113,0.059813,0.154773,0.482577,0.233943,0.700666,0.877061,0.972793,1.591647,1.701513,1.951028,2.992588,1.458389,0.731715,1.172404,0.633296,1.194285,1.909398,0.442921,0.856405,-0.567022,-0.275279,-0.619095,-0.078469,0.682300,0.130541,0.966378,0.373058,0.552028,0.569523,0.635479,0.507344,1.348686,0.783693,2.452059,1.948448,1.832408,1.233071,2.804731,2.246655,0.241168,0.052232,-0.171287,1.061462,2.905695,1.834082,0.226188,-0.082705,-0.208676,-0.311203,-0.416127,-0.576482,0.330966,0.686037,0.505531,0.172160,0.073691,0.241897,0.206976,1.596086,1.873400,0.600059,1.330287,2.651275,2.344117,1.013611,0.858751,1.115652,-0.757692,-1.641148,-0.653471,0.267113,2.331208,2.026583,-0.082540,0.409424,0.811606,-0.225434,-0.072331,0.155338,0.412522,0.581768,0.640592,0.626682,0.386733,0.764566,0.204225,2.008079,1.071855,0.116673,2.062418,1.463667,1.169126,-0.249095,0.868718,0.878383,-1.212706,-0.701481,-0.232195,1.000748,0.672741,0.337278,0.115425,1.087783,0.989311,0.627835,0.112776,-0.173912,0.098241,0.135799,0.545092,0.246254,0.429174,1.017821,0.944207,1.002949,0.534017,0.823376,-0.076336,0.668659,-0.423551,-0.103309,0.707967,-0.772929,-0.176442,-0.042807,-0.017043,-1.087514,-0.312095,-0.083991,0.843412,0.908983,1.746292,1.020406,0.914763,0.692733,0.084752,-0.031237,0.613776,0.417493,0.396987,1.041473,0.522787,0.903525,0.700055,0.106364,-0.365461,-0.409825,-1.484080,-1.182530,-1.548383,-1.872490,-1.184326,-0.157599,0.103033,0.165185,-0.103853,0.710382,0.843519,-0.009621,1.536344,1.245757,0.039867,-0.420538,-0.611188,-0.112508,0.803426,0.986755,0.771203,0.050695,1.014218,1.272451,1.276542,0.445414,-0.569241,-0.798728,-1.493258,-1.003116,-0.976414,-1.696577,-1.273007,-0.085017,0.289644,0.078624,0.713855,0.196414,1.130040,1.208813,0.913282,0.504009,-0.570988,-1.109403,-0.358562,0.325540,0.717433,0.900052,0.230720,0.770566,1.119000,1.360257,1.555873,0.389507,-0.843223,-0.827891,-1.113623,-1.389944,-1.041750,-1.508193,-0.979191,-0.471474,0.004397,1.805985,0.405569,0.560397,0.317005,0.153996,1.028216,-0.081752,-0.769144,-0.115070,0.498545,-0.034986,0.282803,0.119449,0.823145,-0.011551,0.895973,1.322605,1.655150,1.090848,-0.682367,-0.307055,-1.440332,-1.072068,-0.052895,-0.528889,-0.585613,-0.330343,-0.221829,1.397105,0.931804,1.392819,0.815827,0.741894,0.366355,-0.066325,-0.435670,0.373793,0.851290,0.031490,0.707297,0.532914,0.115176,0.703155,0.471619,1.609258,2.046943,1.110863,-0.689579,-0.329308,-0.141537,-0.059610,-0.135276,-0.419699,-0.600807,0.557482,0.830949,1.064001,-0.535237,0.406550,0.701684,0.818587,0.667670,0.159437,0.286726,0.402462,0.674845,0.587677,0.796899,0.077242,0.688467,0.512693,0.786036,1.044998,1.700345,1.660134,0.660939,0.145564,0.536059,0.042732,0.157655,-1.172701,-0.003923,0.692258,1.270431,0.427821,1.076014,0.920658,0.912379,0.355057,1.101673,0.777918,1.061864,0.502553,0.416468,0.280078,0.098666,0.792749,0.857326,0.571776,0.993895,1.527217,1.699755,1.969038,0.941232,0.754201,1.307057,1.818865,2.601261,0.873914,1.472601,0.162278,-0.106870,0.238269,0.994388,0.284983,-0.013915,0.570130,0.828900,0.606050,0.179999,0.295442,0.149690,0.255679,0.291147,0.028016,0.922330,0.418880,1.084552,1.519278,2.055455,2.385776,1.829536,1.561517,2.025922,1.959978,1.554471,1.101441,2.082384,-0.059772,-0.228517,-0.484676,-0.095666,-0.721631,-0.043185,0.153768,0.456948,0.786947,0.627225,0.549033,0.280687,0.022652,0.948881,0.514206,0.826289,0.363915,0.377455,0.161120,0.402596,1.222996,1.764161,1.958467,1.130579,1.475746,1.048828,0.815932,0.076835,-0.371770,-0.473314,0.166412,-0.644099,0.165214,0.618168,0.665097,0.757108,0.444499,1.165079,0.377814,0.079851,0.473847,0.279855,0.526872,0.542711,0.634205,0.213916,0.601227,0.501348,0.805020,0.972901,0.071605,0.417575,0.693470,0.157546,0.365661,0.586769,0.729294,0.104107,0.102968,-0.186792,0.122378,0.147405,0.892230,0.205859,0.426924,0.450506,0.794458,0.188391,0.926176,0.928007,0.854793,0.044832,0.762017,0.652181,0.645344,0.809137,0.983969,0.638687,0.857046,0.333579,0.464771,0.404012,0.478507,0.366546,0.245732,0.580739,0.577071,0.376533,0.764418,0.667744,0.037201,0.915435,0.033692,0.556815,0.676595,0.031281,0.583819,0.433149},{0.793695,0.198706,0.386670,0.525346,0.766594,0.275735,0.936003,0.233406,0.482742,0.881680,0.028809,0.701621,0.401878,0.455694,0.381970,0.166875,0.153111,0.602710,0.235511,0.272774,0.212958,0.159703,0.747429,0.010590,0.712027,0.925443,0.460585,0.443648,0.884762,0.423444,0.623188,0.870815,0.203955,0.626392,0.642004,0.577731,0.696431,0.022626,0.447627,0.878507,0.684952,0.058943,0.118950,0.523017,0.917650,0.983975,0.272907,0.042047,0.710182,0.634587,0.160192,0.851619,0.058321,0.956206,0.125980,0.273965,0.615314,0.463332,0.119053,0.604785,0.132023,0.067263,0.785985,0.176226,0.815962,-0.068866,0.158184,0.697453,-0.069261,0.245489,0.230020,0.316220,-0.324226,-0.222847,-0.298758,-0.233206,0.458187,0.017389,0.925679,0.224800,0.281075,0.899106,0.337046,0.902554,0.801904,0.114658,0.248665,0.814605,0.156794,0.681986,0.959238,0.261629,0.412987,0.537839,0.111472,0.099373,0.867725,0.192945,0.008753,0.519486,0.455608,0.080992,0.469911,-0.398870,0.165443,0.269645,0.683706,-0.069595,0.627609,0.021405,0.986571,0.002014,0.873012,0.251503,0.410810,0.748613,0.778195,1.101098,0.437723,0.491781,1.511674,0.744591,0.964980,1.893541,0.906186,1.230513,-0.132588,0.594965,-0.263566,0.292381,-0.087674,-0.180958,-0.914210,-0.637756,-0.793087,-0.675047,0.271155,0.196643,0.343478,0.097230,0.771477,0.994018,0.898862,0.080057,0.887134,0.255072,0.667263,0.904164,1.034110,1.059058,0.866060,1.494161,1.952176,1.489824,-0.197491,-0.342092,0.054355,-0.345259,-0.950542,-1.480645,-1.522885,-0.955492,-1.753804,-1.788816,-0.359609,0.687530,0.032842,0.436509,0.694632,0.363079,0.321401,0.584221,0.265461,0.080334,0.065514,0.296255,0.596690,0.436804,1.484897,2.480138,2.633751,2.176811,2.366133,1.992421,2.849192,2.060463,1.239638,0.785944,-0.694115,-0.564417,-0.662524,-1.357435,-0.668786,0.384937,0.762328,0.729393,0.390912,0.267438,0.982074,0.447193,0.969922,-0.244473,0.184912,0.130314,1.177446,1.142269,1.317796,2.126802,2.719441,2.322256,2.184831,3.859873,2.868612,2.742701,1.765076,0.566615,1.161405,0.050191,-0.843835,-0.609888,-0.219583,-0.015688,0.438886,0.140033,0.232185,0.186974,0.296382,0.415909,0.117864,0.271231,0.308087,0.859194,1.837768,1.714283,1.543891,0.938848,1.502714,0.959853,2.232145,2.765670,3.117922,1.782304,2.498710,1.062550,1.491208,0.689761,0.733048,0.189606,0.772197,-0.047725,0.892484,1.016707,0.779839,0.238538,0.864076,0.465584,0.463212,0.174568,1.594288,1.183821,1.183533,1.399418,0.367528,0.231457,1.065613,1.253208,1.384944,0.281834,0.574316,1.098989,1.293414,1.237024,1.094130,1.759059,0.732392,1.010394,0.298508,0.946826,0.807266,0.474122,0.064028,0.364743,0.241690,1.259856,0.662158,1.278415,1.461606,0.689818,0.302950,-0.077162,-0.059690,-1.040517,-1.254194,-0.256214,0.459103,-1.229615,0.060972,0.007864,0.294713,0.513366,0.941083,1.163735,1.789666,1.854433,0.943599,1.005769,1.088756,0.462543,0.294656,0.967323,0.260043,1.172150,1.763493,1.470337,1.511445,0.764945,0.274357,-0.048557,-1.085603,-0.481357,-1.267425,0.825302,-0.085771,-1.554785,-0.412640,1.354426,1.134606,0.549055,2.063137,1.169740,1.471575,0.763481,0.254003,0.237923,0.242340,0.151207,0.222297,0.820662,0.560216,0.713064,1.287955,1.979160,0.752178,0.203744,-0.734264,-0.491558,-0.240084,-0.795245,-1.195785,0.410521,0.471718,-0.847744,-0.224697,1.129083,1.341081,0.385379,1.596444,0.753765,1.146630,0.396676,0.605035,1.127187,0.609720,0.747083,0.868770,0.617719,0.269183,0.320264,1.363938,1.235695,0.154999,-0.261103,-0.405647,-0.107548,0.138668,-0.484255,-0.400977,0.764362,0.188086,-0.680369,0.018922,-0.376354,0.833559,0.115323,0.665247,-0.055959,0.393461,-0.593621,-0.028737,0.073519,0.566236,0.432840,0.839753,0.940673,0.768054,0.584938,0.818909,-0.451084,-0.756095,-0.613325,-0.680781,-0.475386,0.175428,-0.822241,-0.724438,-0.182499,-0.159669,-1.296539,-1.683990,-0.122340,0.541139,-0.132991,0.092167,-0.725174,-1.217682,-1.338593,-0.204605,-0.070257,0.421910,0.833731,0.975212,0.259816,0.203808,0.803632,0.097495,-0.000756,-1.522996,-1.533122,-1.680791,-1.232436,-0.422018,0.159082,0.424245,0.326084,-0.888206,-1.216612,-1.711870,1.004259,0.456591,-0.699724,0.274224,-0.288490,0.043542,-0.366006,0.408894,0.533621,0.352742,0.923439,0.454207,0.387107,0.674962,0.919366,0.507717,-0.917634,-1.174479,-1.838678,-1.293802,-1.097246,0.034505,-0.471697,0.397656,-0.065893,-1.603061,-1.650994,-0.666148,1.290898,0.084137,-0.857210,0.315584,-0.052635,0.181120,0.359487,0.332752,-0.044006,0.338289,0.923957,0.225745,0.147015,1.010421,0.446757,0.455182,-0.164040,-1.108433,-1.219783,-0.997845,-0.748113,-1.104594,-0.000797,-0.685683,-1.713007,-2.741532,-1.567440,0.399688,0.693440,0.762505,-0.260351,-0.391481,0.443992,0.250845,0.306189,0.315140,0.583120,0.790582,0.161941,0.856807,0.686911,0.894376,0.927738,-0.246581,0.128604,0.043128,-1.010681,-0.522747,-1.245629,-0.638171,-1.151850,-2.258423,-3.368447,-2.645545,-0.608129,-0.818149,0.336866,0.735018,1.061104,0.233681,0.862864,1.093303,-0.274609,-0.166751,-0.106108,0.782690,0.842534,0.567736,0.212928,0.472366,0.368889,-0.078718,0.835277,0.301277,-0.421780,-0.045428,-1.124581,-0.586893,-1.750775,-1.880478,-2.416855,-1.908938,-1.782797,-0.717049,0.368776,1.168921,1.016101,0.578723,0.031876,-0.160345,0.058842,0.094592,-0.055812,0.142714,0.384382,0.673421,0.560900,0.468894,0.267141,0.341632,0.373885,0.164178,0.193076,-0.214769,-1.129913,-1.415858,-2.826313,-2.926904,-1.478289,-1.287668,-1.054761,-0.829681,-0.574048,-0.628165,-0.198249,0.255968,0.010363,-0.527871,0.311341,-0.169910,0.569113,0.079686,0.371136,0.141758,0.400796,0.754754,0.290158,0.383510,0.325189,0.308950,-0.593477,-1.106842,-0.676965,-1.827648,-1.846875,-1.632679,-1.681470,-0.880542,-0.034295,-0.155936,-1.240613,-1.117334,-0.680500,-0.124837,-0.673776,-0.456565,-0.410827,-0.210373,0.690217,0.971430,0.639363,0.490005,0.419019,0.009669,0.810087,0.254912,0.467717,-0.300191,0.595135,-0.176914,-0.101028,-0.447955,-0.464951,0.143163,0.092621,0.342866,0.425835,-0.055324,-0.963336,-0.175954,-0.192225,-0.120136,0.011702,0.365059,0.076723,0.610923,0.569491,0.383490,0.822932,0.737754,0.333293,0.174725,0.538356,0.139074,0.551478,0.578046,0.635471,0.739486,1.136399,1.221423,1.941984,1.536739,1.470445,1.424704,0.776559,0.716221,-0.044886,-0.744956,0.286430,-0.567888,0.008834,0.935619,0.518021,0.080277,0.253178,0.105422,0.706076,0.635304,0.083651,0.334651,0.537659,0.729210,0.715238,0.716103,1.436476,1.415348,1.671889,1.478900,1.668907,1.034872,1.582009,1.820003,1.092784,0.866866,1.040148,0.226053,0.058653,0.407730,0.786988,0.741789,0.770169,0.640485,0.742486,0.550970,0.612018,0.886319,0.039125,0.493129,0.407575,0.738645,0.799304,1.023509,0.916202,1.810917,1.238736,1.818777,1.189630,2.092798,1.932513,1.316822,1.365405,1.729666,1.147758,1.577911,2.170437,1.843773,1.204228,0.753456,0.072209,0.349863,0.123796,0.455937,0.382885,0.583148,0.566759,0.116184,0.706930,0.500233,0.120782,1.111632,0.738896,1.041230,1.228105,1.323891,1.540157,1.021473,1.195827,1.883510,1.766170,1.154790,1.700876,1.132188,1.434900,1.069460,0.683571,0.927238,0.543379,0.005066,0.251015,0.537309,0.048952,0.573901,0.805292,0.234931,0.447218,0.189093,0.680349,0.997910,0.373083,0.841571,0.844870,0.658031,0.498136,0.150810,0.514121,0.999681,0.483629,0.771770,0.970458,0.261743,0.394407,0.881769,0.757251,0.326127,0.828013,0.827052,0.644063,0.811121,0.781213},{0.979949,0.987884,0.858303,0.944853,0.950621,0.560533,0.079073,0.288430,0.434980,0.962004,0.109592,0.095553,0.499888,0.682229,0.752281,0.502487,0.627155,0.277108,0.305857,0.632862,0.864711,0.672720,0.811853,0.983856,0.363292,0.047792,0.497787,0.220771,0.582415,0.157140,0.199469,0.036195,0.345408,0.327768,-0.034887,0.037977,0.039903,0.313957,0.059604,0.591041,0.162872,0.593354,0.726939,0.236407,0.730725,-0.017577,0.197640,0.620876,0.700929,0.115185,0.734015,0.763543,0.852351,0.648732,0.832423,0.779107,0.296854,0.616993,0.696158,0.860958,0.096805,0.885755,0.364598,-0.112503,0.444837,-0.034670,-0.422727,-0.167044,0.430341,-0.055664,0.119799,0.587394,0.774675,0.424137,0.149351,0.553727,0.474247,0.104602,-0.125324,0.388819,0.236689,0.931303,0.913968,0.002655,0.454146,0.963927,0.290628,0.893712,0.355567,0.601999,0.778257,0.219901,-0.180207,0.029895,-0.171756,-0.511587,0.307043,0.489593,0.284808,0.968546,1.263477,0.997430,0.384272,0.579064,0.674215,0.668333,0.920327,-0.238763,0.440779,0.013884,0.964128,0.595630,0.107242,0.042665,0.938475,0.310371,0.096895,0.978993,0.345580,0.874348,0.387008,0.031187,-0.351587,0.401298,-0.082755,1.434448,1.254753,1.270419,1.448572,0.843323,1.140422,0.583877,0.965745,1.063105,0.579993,1.222448,0.794220,-0.160554,0.105115,0.178853,0.081606,0.669149,0.814447,0.247539,0.545493,1.126221,1.223319,1.258837,1.112420,0.085001,0.469655,0.130145,-0.004523,-0.143425,-0.203596,0.473084,0.194135,-0.114374,0.774415,-0.186870,0.136880,0.913834,1.755537,2.407665,0.655118,0.700791,0.886699,0.487581,0.989013,0.464858,0.209273,1.068734,1.179680,1.524094,1.031990,1.141673,0.653071,0.751683,1.046489,0.531912,-1.677606,-1.089977,-0.854429,-1.313907,-1.054179,-1.424082,0.868633,0.343758,1.885539,0.975189,0.970747,2.544570,1.705822,1.135277,0.981779,0.771605,0.922391,0.659808,0.422566,0.918587,0.565848,1.485920,0.891796,0.156894,-0.486265,0.400547,-0.271852,-1.025831,-1.010493,-0.720711,0.458192,-0.901117,-1.524656,-0.026682,0.204514,0.463734,1.705225,0.142834,0.851806,0.668736,1.170963,1.152566,0.863062,0.552580,0.051820,0.104898,0.065898,0.754125,1.146087,0.866363,-0.447411,-0.180873,-0.246310,-0.202359,0.023109,-0.058339,-0.906206,0.863284,0.474702,-0.295012,-0.286114,2.178249,1.744224,2.140684,1.499475,0.250503,-0.033415,-0.980595,0.703468,2.007578,0.458570,0.337216,0.838954,0.658456,0.590180,0.220771,0.198565,0.636989,-0.811492,-0.998393,-0.867634,0.194014,-0.008773,0.248847,0.551927,0.703576,1.418762,2.050985,2.264175,1.792660,1.886457,1.663419,0.130641,0.316555,0.663950,0.238361,0.774281,1.641396,1.044882,0.848414,0.089663,0.747835,0.510861,0.209558,0.387037,-0.551350,-1.395352,-0.727496,-0.106092,-0.842075,-1.426316,-0.345742,0.236341,0.525578,1.708362,4.019869,2.750439,1.561179,1.325828,0.456728,0.350661,-0.237521,-0.817938,-1.142093,0.258490,2.554700,0.914391,0.483591,0.563524,0.555008,-0.028041,0.738750,-0.603446,-0.855573,-0.721829,-1.333771,-1.449695,-2.598825,-1.256928,0.680349,1.958021,-0.597028,1.035057,2.762075,2.509580,1.413645,1.084647,0.730275,-0.076928,-2.432552,-2.928224,-2.158699,-0.932961,0.789108,0.781957,0.016315,0.358074,0.512805,0.258568,0.370410,0.102670,-1.442093,-0.751161,-0.498916,-0.496130,0.052086,1.095898,1.765780,2.993334,1.733160,1.202929,1.610560,0.963942,-0.478005,1.449119,0.289967,-0.899259,-1.882592,-3.080168,-3.268340,-1.924055,0.938253,0.565673,0.606978,0.787957,0.827838,0.142055,0.505129,0.031810,0.030941,-0.695772,0.317630,1.113309,0.852681,0.154613,2.400932,2.010081,0.578428,1.110610,0.189919,1.416850,2.384705,1.973857,-0.702497,-1.350796,-0.855721,-2.311511,-1.562244,-0.967092,1.050446,0.416263,0.143134,0.982430,0.417559,0.628095,0.224455,0.750829,0.991254,-0.718647,0.106716,0.531455,1.250307,0.447914,0.228661,1.212504,0.230247,0.432103,0.552668,1.677425,1.847441,1.227481,-0.039586,0.000477,0.877958,0.068553,0.064856,-0.368309,1.066624,0.207699,0.539177,0.880508,0.711289,0.942474,0.473936,1.270967,1.213957,0.471135,1.357945,0.336341,0.959730,0.087690,0.677671,1.067782,1.103906,1.856179,1.775906,2.300775,-0.062845,-0.575867,-0.177179,0.979588,0.897914,1.133781,0.365739,0.607441,0.929636,1.189343,0.386654,0.955229,0.509525,0.339671,0.392142,1.598450,1.230016,0.197973,-0.175816,-0.606332,-1.281986,-0.936021,-0.223620,0.363449,1.234801,2.545573,0.993905,-1.070765,-0.963178,0.169489,0.837903,1.088844,1.970880,1.653935,1.070078,0.838116,1.178238,0.218986,0.529006,0.215735,0.806507,0.395695,0.771932,2.032043,0.694677,0.119698,-0.814787,-1.330635,-2.671549,-3.099408,-2.530114,-1.650973,0.288954,1.862237,1.581880,-0.473526,-1.355549,-0.379581,0.329927,0.685867,1.379287,0.907764,0.604138,0.368711,0.257497,0.242166,0.041699,0.848750,0.743309,0.246773,1.196228,2.192894,1.665418,0.620278,-0.557868,-0.544254,-1.961635,-2.399612,-1.307537,-0.502463,0.848676,1.894102,1.232424,-0.117687,0.340393,0.051824,0.193878,0.422947,1.507311,0.765162,0.345858,0.543164,1.202315,0.261183,0.193663,0.159337,0.609363,0.813371,2.047155,2.394981,1.861018,1.144745,0.097928,-0.625570,-0.902521,-1.614359,-0.417782,-0.513291,0.738426,0.135607,0.746370,1.357800,-0.124603,-0.128890,-0.240267,0.654672,0.897544,0.490982,0.686173,0.251323,0.677830,0.127434,0.684348,0.032105,0.375225,0.859177,1.263427,2.358697,1.655666,1.783683,-0.305300,0.729759,-0.003533,-0.452105,1.132708,-0.578604,-0.447295,0.059952,-0.499976,1.621680,0.602822,1.349840,0.824768,0.746839,0.862383,1.022892,0.368441,0.551698,0.513927,0.166696,0.525834,0.637928,0.447093,0.907815,1.478291,2.067091,2.265014,1.552015,0.025881,0.058656,0.311165,-0.292356,0.176956,-0.518678,-0.597218,0.579529,0.053205,0.914571,0.239543,0.851832,1.823487,1.341001,1.852836,0.761099,0.751972,0.799510,1.056730,0.280266,0.084262,0.603687,0.021790,0.584131,0.634915,1.391506,2.071087,1.362554,0.425470,-0.315757,0.413660,0.031411,-0.357024,-1.381842,-1.067344,-0.535048,-0.490692,-0.312226,0.868431,2.065311,2.125069,1.374308,1.761507,1.193940,0.829832,0.600208,0.953043,0.711912,0.580676,0.363933,0.920408,0.567880,0.942708,1.288021,1.923147,2.338515,1.377269,-0.260384,0.743945,1.367884,0.696441,0.329379,-0.422769,-0.087932,-0.999982,-0.130359,1.492772,0.657797,0.665014,1.210956,0.533594,0.942556,0.507166,0.865391,0.578911,0.840974,0.957732,0.912503,0.194647,0.091672,0.800789,1.462186,1.299680,2.380770,2.346682,1.455492,2.016452,1.457205,0.803619,0.677998,0.758951,0.409485,-0.363036,-0.410115,0.576726,-0.293394,0.552389,0.171980,0.595180,1.039245,0.638413,0.750907,0.171757,0.729783,0.371349,0.673544,0.395825,0.528138,0.198918,0.680009,0.693376,0.974491,1.481390,1.228872,1.863612,1.857968,0.862486,0.375745,0.949577,-0.209275,0.377760,-0.158483,-0.146573,-0.301064,0.079251,0.497074,0.176960,0.183293,0.239161,0.905523,0.396645,0.676301,0.912961,0.710471,0.821558,0.074465,0.765680,0.215067,0.220113,0.297541,0.860759,0.591377,0.785482,-0.160443,-0.128109,0.618043,0.012066,0.422552,-0.276561,-0.036561,0.433797,-0.112755,-0.110576,0.334591,-0.031522,0.621501,0.386233,0.082339,0.579516,0.253731,0.645680,0.991363,0.594378,0.751305,0.223762,0.952879,0.897824,0.449392,0.754030,0.902524,0.455978,0.488145,0.274928,0.273005,0.475391,0.151078,0.021285,0.390414,0.366672,0.198354,0.583901,-0.006208,0.932777,0.851617,0.981988,0.553636,0.323740,0.951323,0.549333},{0.929868,0.914304,0.133457,0.807642,0.742637,0.707266,0.078158,0.949828,0.545305,0.136906,0.700034,0.080233,0.976248,0.899510,0.482711,0.447554,0.702994,0.355480,0.035737,0.899564,0.640828,0.779748,0.692221,0.214637,0.625080,0.688742,0.428938,0.466964,0.920316,0.328257,0.889859,0.080477,0.686636,0.421249,0.748443,0.616247,0.800302,0.447962,0.440139,0.688731,0.710003,0.784996,0.033277,0.120091,0.227220,0.154114,0.442219,0.060784,0.376549,0.339817,0.319726,0.592639,0.551592,0.155339,0.007233,0.647145,0.085513,0.361797,0.261940,0.364269,0.179846,0.272212,0.098640,0.070991,0.725296,0.573654,0.424057,0.196380,0.796003,0.500784,0.426800,0.372770,0.005932,0.642595,-0.089782,-0.051508,0.142771,-0.132630,0.444516,0.009267,0.995830,0.891598,0.203253,0.975860,0.956542,0.355083,0.929960,0.014843,0.453408,0.229082,0.294067,0.360674,0.662646,0.244264,0.008026,0.607237,0.638822,1.182977,0.961658,0.565570,0.510756,0.909889,1.039380,0.641649,0.245009,0.708166,0.228481,0.153591,0.064660,0.157979,0.845813,0.491501,0.302377,0.848140,0.232276,0.647292,0.345599,0.502276,0.370959,0.894707,1.099557,0.832378,0.862548,1.147970,0.755114,1.296351,1.150244,1.155744,1.299115,1.019380,1.354185,0.316713,0.740505,0.464864,0.620040,0.248355,0.987641,0.210053,0.728899,0.268723,0.829279,0.358440,0.207617,0.902137,0.370807,1.183266,1.070177,1.732415,1.221831,0.859325,0.665628,0.700802,1.131315,0.229971,0.046714,1.136972,0.645757,0.489375,0.351037,0.494699,-0.523950,-0.099873,0.417321,0.964062,0.260168,0.720627,0.350787,0.326169,0.967620,0.895199,0.443385,0.803855,1.008114,0.919477,1.161179,1.452396,1.072115,0.515498,0.957061,-0.083840,-0.859603,0.516132,0.048447,0.386196,-0.059267,-0.629324,-0.143883,-0.158687,1.069937,-0.097062,0.051466,0.930172,1.260251,0.500803,0.661782,0.446648,0.465560,0.063287,0.066019,1.072871,1.003914,1.071362,0.985782,0.509573,0.136721,-0.473093,-0.287991,-0.403576,-0.240351,0.671815,1.800343,-0.114501,-0.247718,-0.521956,-0.239920,-0.436947,0.410817,-0.131545,0.081266,0.033433,0.851984,0.566010,0.404593,0.883103,0.008087,0.003470,0.247759,0.585389,0.284726,0.632414,-0.379284,-0.926663,-0.447488,-0.051782,0.231094,1.088049,-0.335434,1.116375,0.965001,-0.155665,-0.042720,0.750371,-0.184184,1.012298,0.461470,0.138552,-0.158718,-1.126752,0.162454,0.909963,0.779923,0.688080,0.580157,0.360089,0.151122,0.107164,0.211360,0.080644,-0.847506,-0.975106,-1.447234,-0.208050,0.875766,0.063529,0.306217,1.154989,1.062990,1.800728,0.596446,0.194097,0.514080,0.389723,0.558699,0.248590,0.364692,0.165293,0.449013,1.862673,0.275438,0.241472,0.792749,0.006429,0.431734,-0.291892,-0.153902,0.092034,-0.468741,-0.083758,-0.606128,-0.673280,-0.909077,-0.292527,0.435350,-0.265518,-0.305995,1.859273,1.537910,0.939958,0.706048,0.682404,0.792843,-0.112660,-0.318712,-0.590159,0.276865,1.957928,0.781213,0.551699,0.890439,0.003430,0.562199,0.384329,-0.045154,-0.312465,-0.787575,-0.802543,-1.140735,-2.040645,-0.743366,-0.003592,1.071827,-1.369750,-0.440597,1.050189,1.912514,1.681421,0.884147,1.347066,0.335664,-0.904346,-1.572378,-1.880035,-0.388837,1.243655,1.073757,0.364073,0.659749,0.547397,-0.049739,0.158309,0.124842,-0.222524,-0.900626,-0.673833,-0.619191,-0.072752,1.090270,1.586312,2.539490,0.689578,-0.046380,0.303840,0.724668,0.262931,0.670651,1.134443,-0.390007,-1.868814,-2.406510,-2.109276,-0.974646,0.651958,0.495723,0.405280,0.956145,0.573995,0.216277,-0.090810,0.211697,-0.818592,-0.377503,0.462818,0.510971,0.474991,0.274508,2.475272,2.642015,1.649898,1.295472,0.084433,1.411524,1.735121,1.701218,0.219122,-0.187737,-0.480813,-1.699428,-1.912806,-0.195272,0.220907,0.793834,0.421796,0.071457,0.344214,0.742371,0.950222,1.353220,0.342313,0.286090,0.827280,0.989198,0.609317,0.709487,1.754644,1.051833,0.275146,0.732171,0.840365,0.653026,1.761130,1.605304,0.684282,-0.215986,0.177711,-0.346315,-1.001699,0.547531,0.360146,0.270177,0.788952,0.645009,0.558367,0.871525,0.881752,0.653126,0.303589,0.111572,1.322401,0.816362,1.067298,1.171714,1.231393,1.768478,0.799238,0.651426,0.283712,1.829209,0.474973,-0.031017,0.513451,0.762005,0.931692,0.582874,0.362154,0.601914,1.258200,0.384717,0.322238,0.379894,0.147452,0.989745,0.332261,1.009259,1.445778,1.040584,-0.158547,-0.279797,-0.063167,0.610202,0.635086,0.401260,1.855902,0.865770,0.409920,-0.319907,0.173455,0.935853,1.570152,1.118737,1.932441,1.810747,1.267351,1.096253,1.709019,0.988582,0.258258,0.218848,0.657369,1.000081,0.998084,1.961655,0.831980,1.110217,-0.212521,-0.975890,-2.123436,-1.986221,-1.482927,-0.227708,0.788084,0.583834,0.709216,-0.152597,-0.042478,0.935125,0.821419,0.380539,1.352436,0.744029,0.915586,1.109837,1.030978,0.395847,0.632149,0.252388,0.352153,0.070828,0.944353,2.218967,1.976973,1.646292,0.232826,-0.286008,-0.702147,-1.205933,-1.564161,-0.285832,0.691269,1.667171,0.990247,1.202016,0.586444,0.634319,1.087469,1.104318,1.177601,1.456330,0.428415,1.298599,0.618452,0.177584,0.996915,0.056001,0.057833,0.515549,1.804128,2.309635,2.138758,1.206607,0.429273,0.527390,-0.357227,-0.843049,-0.001643,-0.209901,0.262585,0.315531,1.129850,2.174289,0.995655,0.941376,0.637412,0.568601,0.896703,1.337441,0.699130,0.927266,0.954087,0.274257,0.284631,0.675802,0.106540,0.578785,1.759341,2.620846,2.288617,1.064264,0.635797,0.346035,-0.533165,-0.816921,0.240762,0.050356,-0.996471,-0.436016,0.537894,1.432780,1.159489,0.885151,0.890398,0.931475,0.820221,1.087533,0.421990,1.248148,0.810581,0.373124,0.652760,0.983581,0.144727,0.909009,1.591948,2.384644,1.704640,0.468580,0.090026,-0.370962,-0.590344,-0.650982,-0.404359,-0.392526,-0.391648,0.320768,0.418374,0.798694,0.513618,1.492538,2.326485,1.386223,0.928982,0.888705,1.534563,1.232944,0.259191,0.431305,0.366375,0.620289,0.172246,0.179622,0.846339,2.019568,1.405742,0.663808,0.265963,-0.340140,0.371476,0.628757,0.828670,-0.639042,-0.713961,-0.444692,0.039882,-0.520665,0.235894,1.032371,1.345529,1.965172,1.682530,1.749688,0.893520,0.484418,0.164896,0.598019,0.649159,0.245888,0.676321,0.109386,0.865843,1.401841,1.401749,0.846687,0.147083,-0.141356,0.525051,0.698190,1.530131,0.144382,-0.217488,-0.726035,-0.896544,-0.020135,0.711076,1.220627,0.879907,1.804627,1.734897,0.863527,0.457261,0.587286,0.806105,0.277437,0.529893,0.314493,0.171972,1.000000,0.378989,0.646274,0.948200,1.401591,1.878426,1.959851,1.419999,1.616863,0.306699,0.467091,0.874007,-0.019690,-0.765244,-0.005751,0.639662,0.201141,0.080704,1.531221,1.719793,1.492062,1.194602,0.460926,0.413087,0.091825,0.956267,0.093936,0.023469,0.737120,-0.007283,0.469144,0.662380,1.153718,1.507278,1.303269,1.864443,1.622525,0.992092,0.563632,0.367333,-0.095434,0.893149,0.332984,-0.221253,-0.252647,0.303881,0.129968,0.604665,0.549253,0.816793,0.554470,0.389890,0.128669,0.759056,0.147862,0.871151,0.972991,0.529800,0.741710,0.574142,1.039672,-0.041394,-0.013320,0.383721,0.785887,-0.061209,0.829422,0.165069,0.875488,0.480557,-0.192457,0.102998,0.652934,0.164401,-0.032845,0.724961,0.798100,0.514884,0.498703,0.037782,0.639882,0.555925,0.999939,0.514817,0.659261,0.968566,0.882748,0.904599,0.172397,0.943065,0.368367,0.160005,0.576201,0.880827,0.425317,0.316642,0.438786,0.922660,0.665018,-0.040019,0.588080,0.583471,0.548160,0.115770,0.064592,0.960207,0.435743,0.113529,0.531236,0.188147},{0.197882,0.595782,0.514969,0.736686,0.680074,0.885067,0.082217,0.801904,0.966796,0.228370,0.490555,0.115513,0.846058,0.783412,0.125614,0.376507,0.163640,0.770196,0.784600,0.525895,0.588519,0.120640,0.125431,0.523789,0.941496,0.797174,0.563616,0.784692,0.497238,0.921293,0.397015,0.926908,0.364086,0.777815,0.403294,0.897940,0.348748,-0.000484,0.916751,0.772328,-0.027113,0.121680,0.083218,0.519831,0.501449,0.327167,0.972347,0.441203,0.341014,0.745416,0.765038,0.327097,0.597766,0.932279,0.938139,0.046388,0.382488,0.775597,0.739372,0.877438,0.499619,0.649722,0.225472,0.242510,0.227348,0.576533,0.136783,0.752943,0.585423,0.235636,0.400081,0.518776,0.681262,0.545825,0.643581,0.643457,0.493232,0.761176,0.467498,0.387461,0.505417,0.220008,0.040956,0.845424,0.645253,0.060793,0.505020,0.191015,0.300923,0.280415,0.417317,-0.038925,0.137671,0.330680,0.328091,-0.217300,0.254167,-0.658676,-0.238243,0.172535,-0.078225,0.399510,1.397648,1.465412,0.814959,0.346191,0.493720,0.630869,0.533036,0.188683,0.899504,0.732017,0.237495,0.611866,0.616535,0.320218,0.277401,0.098074,0.095993,-0.052759,-0.494325,-0.002001,0.111783,0.410266,0.027617,-0.428639,-1.322507,-0.346545,0.484672,1.440556,0.995825,1.083196,0.145395,0.745828,0.865308,0.576817,0.971297,0.301106,0.304619,0.444014,0.119205,0.528825,0.333811,0.288519,0.258094,0.947224,0.855296,0.550461,0.324488,0.415053,0.003049,-0.008903,-0.246223,-0.876109,-0.427635,-0.036736,0.634265,0.941862,0.419996,-0.215506,0.160037,0.069833,1.180253,1.734717,1.020183,1.179648,0.102452,0.018232,0.318766,0.870540,0.553047,0.720272,0.256144,1.188447,0.930524,0.337177,0.655450,0.685289,0.481386,0.626515,0.294549,0.392121,0.415347,-0.149664,1.632985,1.447672,0.608297,0.025404,-0.010738,-0.462598,0.924227,1.332557,2.326158,1.615566,0.581900,0.523388,0.925016,0.561487,0.496989,0.808244,0.167926,0.750681,0.514863,0.271599,0.545254,0.545916,0.643918,1.745138,0.997112,0.746321,0.456743,0.593915,1.304075,2.512975,0.929494,0.024221,1.022543,0.298832,-0.250169,1.075200,2.049335,1.381585,0.955284,0.316954,0.229713,0.835786,0.710509,0.610140,0.534367,0.820971,0.449900,0.405599,0.548802,0.802067,0.621977,1.976555,0.299620,-0.341390,0.431843,-0.164250,-0.718278,-0.579838,-1.052932,0.186687,-0.108496,0.195635,-0.747447,-0.101552,2.079276,1.903483,0.589319,0.290971,0.739128,1.033005,0.893467,1.028846,0.987267,0.255716,0.445735,0.910340,1.228682,0.267602,1.235832,1.923150,0.735484,-0.833124,-1.559074,-1.315887,-2.829822,-2.754743,-1.426465,-1.724451,-0.383033,-0.957458,-0.356717,-1.307182,1.359496,1.588354,0.117243,0.338829,0.273537,0.224698,0.620837,1.052688,0.851029,0.448133,0.046587,0.046883,1.213331,1.099488,1.548737,2.453543,1.125772,-0.500058,-1.606165,-2.631570,-1.750787,-2.335509,-2.560167,-2.484213,-0.441211,-0.277984,-1.596144,-1.835567,0.322848,1.288082,0.891895,0.928366,0.873379,0.389089,0.216147,0.702487,0.243878,0.940476,0.461140,0.751468,0.842461,1.387492,1.971357,1.418172,0.080604,-1.693201,-1.552872,-0.800253,-0.775833,-0.828778,-0.320960,-1.754824,-1.756161,-1.796643,-2.144664,-2.018728,-0.875784,0.645167,0.702020,0.274896,0.730644,0.490817,0.875812,0.595009,1.251259,1.008322,1.441645,1.589846,1.425036,1.494044,2.116906,1.553310,-0.871824,-1.611627,-1.691041,-0.853509,-0.649888,0.483986,-0.180749,-0.067473,-0.022051,-0.343663,-0.668582,-2.189056,-1.576127,0.220886,0.526456,0.084197,0.864772,0.245598,0.491045,0.403086,1.841789,1.976925,1.345604,1.512051,0.916664,0.834061,0.258932,-0.150780,-1.462259,-1.513413,-0.727953,-1.074716,-0.798552,0.283213,0.774013,1.149505,1.370983,1.156679,-0.159818,-1.244573,-1.208699,0.313005,0.461426,0.913244,0.763811,0.138754,0.271705,0.341465,1.440203,1.426325,1.564771,1.050252,1.502966,1.309593,0.174414,-0.808737,-1.577947,-1.395492,-1.679080,-1.218016,-0.012357,-0.036911,0.610723,1.721174,1.472629,2.008235,1.524318,0.405188,-0.193829,0.281029,0.863944,0.899338,0.691388,0.361863,0.197273,0.377480,0.452651,1.242375,0.797519,1.215045,1.044217,1.297368,1.137699,0.665335,0.031485,-1.578035,-2.089848,-1.153107,-0.206775,1.192020,1.560176,1.912284,1.512113,2.317296,1.716178,1.327131,0.348246,0.442563,0.567581,0.281106,0.931181,0.998229,0.795448,1.061347,0.775878,0.360185,-0.422364,-0.273659,-0.073461,-0.456642,0.421950,-0.129643,-0.462273,-1.906083,-2.679575,-0.937010,-0.399886,1.775454,1.733182,1.136877,1.146139,1.711962,1.156862,1.035080,0.251750,0.574405,0.659942,0.449964,0.607410,0.368881,0.466282,0.542271,0.067921,-1.140336,-0.784526,-1.501711,-1.830383,-2.275384,-1.995299,-2.007579,-2.773565,-2.767374,-2.398249,-0.480155,-0.042148,1.568427,2.283387,1.367796,0.966216,0.094492,0.145511,-0.026499,-0.235473,0.206786,0.419722,0.440978,0.367351,0.895993,0.399964,0.563522,1.035549,-0.577598,-0.809171,-1.474108,-2.341904,-2.661333,-2.462922,-2.903166,-3.903793,-3.744836,-1.920174,0.203826,-0.158806,0.387031,1.819430,0.899405,0.849136,0.495470,-1.007865,-0.330379,0.876880,0.757500,0.608496,0.293395,0.617450,0.260689,0.373214,0.815440,0.495412,-0.939103,-0.996190,-2.126865,-2.451687,-2.426338,-2.408546,-3.374591,-3.846037,-3.483873,-2.018046,-0.902827,-0.245066,0.475176,0.467771,0.292992,0.602215,-0.508898,-0.936235,0.321465,0.530721,0.099859,0.242223,0.863704,0.531968,0.253548,0.331996,0.703970,0.307247,-0.666638,-0.652978,-2.155497,-1.311652,-1.585463,-2.394095,-2.845128,-3.522157,-2.918297,-2.117867,-0.838325,0.901268,0.634435,0.890236,-0.323522,-0.424989,-1.142390,-0.544353,0.546614,0.111148,0.817360,0.359880,0.094516,0.556902,0.141547,0.392119,-0.045707,0.666072,-0.024659,-1.543464,-2.215970,-2.086013,-1.885637,-1.535797,-0.827962,-1.618936,-1.535092,-0.278704,0.289134,1.283660,0.379062,0.296362,0.102244,-0.283697,0.441487,-0.155345,0.623607,0.110318,0.770667,0.782186,0.425581,0.626453,0.891537,0.844733,0.967124,1.111256,0.044128,-0.623809,-1.135152,-1.560938,-0.946789,-0.764606,0.259548,0.603214,0.065222,1.270429,1.899625,0.887861,0.057563,0.218890,0.119170,0.195279,0.400300,0.029280,0.829461,0.041615,0.693549,0.172200,0.354503,0.811579,0.098270,0.909779,0.970996,1.178805,0.404614,1.349445,0.046721,-0.132849,-0.076145,0.415325,1.360301,0.927741,0.462319,1.046333,1.189591,-0.017341,-0.071456,0.098821,-0.844700,-0.547302,-0.337155,0.833128,0.661419,0.779673,0.520349,0.654085,0.799005,0.618458,0.965514,0.316114,1.078061,0.572923,1.492278,1.206209,1.309079,1.573995,1.426931,1.295522,1.818166,1.551437,1.323828,0.866883,0.489522,0.345241,0.467016,-0.128473,0.255964,0.266324,0.610958,0.917064,0.552803,0.084984,0.015013,0.842423,0.332438,0.656545,0.176122,0.010766,0.232786,0.574224,1.157583,1.153117,1.234702,1.178658,1.697935,1.712515,1.130495,1.621479,1.489198,1.918145,1.749402,1.236746,1.023485,1.552099,0.569344,0.568306,0.801172,0.869199,0.603148,0.701389,0.210395,0.174505,0.890378,0.894192,0.000397,0.113468,0.624928,0.601090,0.571170,0.235264,0.594142,1.298176,0.961404,1.217348,0.611541,0.308451,1.113908,0.996340,0.680519,0.868458,0.914289,0.716325,1.331643,0.613386,0.213939,0.084129,0.386077,0.673818,0.647969,0.785638,0.041292,0.221015,0.483749,0.863674,0.998383,0.934568,0.114353,0.082386,0.757409,0.339725,0.660017,0.733578,0.154413,0.273054,1.034591,0.932927,0.646750,0.761901,0.668407,0.748569,0.352854,0.735038,0.259513,0.350268,0.082729,0.968810,0.308512,0.321940,0.415815},{0.535783,0.058382,0.080935,0.028809,0.278817,0.327464,0.046815,0.009095,0.112339,0.279031,0.509476,0.647603,0.181453,0.922164,0.602374,0.556322,0.114353,0.486648,0.812189,0.263710,0.858455,0.024628,0.780023,0.937040,0.141362,0.167638,0.674337,0.387677,0.078158,0.422712,0.917753,0.016266,0.961608,0.927683,0.545304,0.842096,0.723795,0.022502,0.949124,0.317881,0.370521,0.843983,0.662359,0.306946,0.375565,0.484606,0.307389,-0.047570,0.718661,-0.035361,0.061487,0.503952,0.786065,0.375103,0.094241,0.600360,0.223701,0.031800,0.764183,0.024293,0.590503,0.197235,0.907498,0.140392,0.030295,0.844946,0.459469,0.724016,0.283822,-0.252787,0.322503,0.311088,0.491629,-0.053176,0.139688,0.083869,-0.255309,0.380896,0.382239,0.151630,0.529840,0.889889,0.663411,0.433515,0.460036,0.043123,0.785943,0.141103,0.644027,0.853565,0.230316,0.722436,0.052692,0.953937,0.972188,0.713016,0.278731,-0.179352,0.348244,0.048925,-0.698210,-0.843401,-1.166796,-1.796499,-0.796424,-0.724705,-0.475963,0.051702,0.769572,0.492025,0.584127,0.002136,0.763939,0.061129,0.065828,0.916727,0.410126,0.185851,0.608326,0.503803,0.133121,1.023751,0.947168,1.166322,0.578712,-0.035394,-0.636669,-0.396933,-1.530366,-1.443402,-1.633641,-2.334400,-1.698372,-1.625835,-1.005890,-0.396806,0.144176,0.593128,0.264241,0.771235,0.097171,0.524186,0.817560,0.615910,-0.068061,0.296811,-0.740208,-0.005924,-0.381005,0.974877,0.695848,2.169561,1.812146,1.841566,0.824394,1.123755,0.459185,-0.785152,-1.245343,-1.347942,-0.979397,-1.386869,-2.219615,-1.968357,-1.092828,0.176533,0.554790,0.419500,0.240486,0.078036,0.600330,0.250655,0.563955,0.307359,-0.103037,0.519467,0.040856,0.336708,0.968319,1.671639,2.594160,2.142729,2.618556,3.712490,3.038403,3.403577,1.370268,0.664878,-0.622050,-0.367084,-1.287877,-1.824127,-1.817265,0.004429,0.520527,0.055597,0.683859,0.775759,0.254818,0.690363,0.738852,0.576962,0.565144,0.002517,0.937582,0.555267,2.081257,2.636506,2.495633,3.550298,3.381093,3.919925,4.312696,2.656968,2.558785,1.478244,0.589382,0.220827,0.003084,-1.180101,-1.554980,-0.962410,-0.002240,0.179234,0.792627,0.478630,0.859177,0.698832,0.989197,0.263951,0.773499,0.774848,1.695667,1.277235,2.386063,1.378154,1.901112,2.188209,4.193326,3.497356,2.956481,1.418120,0.637601,0.533203,0.967964,0.458964,0.012031,0.489436,-1.273086,-1.088192,0.526538,0.718915,0.967467,0.196754,0.198238,1.082528,0.617453,-0.005310,0.988503,1.301744,2.043451,1.747272,2.639027,1.098537,2.084954,1.835844,3.331698,2.960812,1.439774,1.385754,1.131826,-0.107197,1.026656,0.588927,0.943678,0.685379,-0.412101,-0.794415,0.238446,0.926385,0.017243,0.918797,0.691792,0.337700,-0.141017,0.734705,1.327604,1.105098,1.234183,1.155499,1.694821,1.228578,0.450304,0.106081,0.239028,-0.334998,0.656205,1.592544,1.416234,0.660622,1.584733,2.329550,1.292108,0.775670,0.225858,-1.245767,-0.176063,0.481588,0.463698,0.446033,0.703811,0.201472,0.652454,0.965065,1.076659,1.195416,0.344580,-0.616863,-1.342862,-0.738836,-1.979517,-1.761379,-0.759306,-1.285727,-0.569250,0.803879,1.430433,0.911033,2.297945,2.001613,1.648972,1.584243,0.028143,0.189498,0.727787,0.279382,0.996307,0.153234,0.143829,0.418878,0.841049,1.136178,-0.203669,-0.822123,-1.616946,-2.140180,-2.110972,-2.727527,-4.508370,-2.784094,-1.409630,-2.214721,-0.406480,1.004314,0.748777,1.853440,2.168457,2.336850,2.454801,1.726784,0.846031,0.800927,0.370366,0.473549,0.796350,0.566129,0.209678,0.858616,0.712952,0.205469,-1.627281,-1.329127,-2.167259,-2.047345,0.048275,-2.082080,-2.406071,-0.593530,-0.636726,-1.000030,0.076646,1.201505,0.862302,1.256546,0.998595,1.289233,0.549847,0.873607,0.779490,1.420323,0.854131,0.433382,0.937009,0.236420,0.323684,0.261127,-0.695539,-1.292362,-0.391581,0.476771,-1.143136,-1.573445,0.130696,0.113271,-0.667115,0.151906,-0.564610,-1.634289,-0.022783,1.221274,0.146767,0.355293,0.838899,-0.606404,0.116768,0.500335,0.909244,1.433898,1.281397,0.181442,0.657988,0.885070,0.854965,0.114007,0.102811,0.280901,0.959926,0.641075,1.069807,0.506461,0.329535,-0.676747,-1.200360,-1.253006,-2.321046,-1.153781,-0.621059,1.119880,-0.003872,0.376163,-0.147978,-0.554744,-1.252909,0.130483,1.171839,1.098407,1.141281,0.733400,0.509232,0.587996,0.048420,-0.202084,0.130325,0.729359,0.875710,0.394029,0.606732,1.000001,0.459498,-0.473719,-0.447293,-1.828485,-1.571845,-1.220052,0.871319,1.518056,0.302138,-1.071656,-0.140169,-1.321265,0.038908,0.360891,0.844473,1.911980,1.012631,0.619835,0.419752,0.593070,0.424058,0.316715,0.493708,1.078741,1.473660,0.910907,0.943336,1.271862,1.727503,1.712353,0.720806,-0.471585,-1.340061,-0.310404,0.944904,-0.098398,-0.767569,-0.990862,-0.000166,0.035270,-0.147584,0.233194,2.134113,2.538392,0.424157,0.065472,0.627979,0.352886,0.308675,-0.399802,-0.035137,0.529458,1.407129,0.691746,0.963658,1.549474,2.429223,2.258991,0.851137,-0.509268,-0.816910,-0.955029,-0.574195,-0.837085,-1.060140,-0.757826,0.210038,-0.412503,0.005037,0.645684,1.558406,1.072362,1.087386,0.551641,0.306742,0.609638,0.366573,-0.038021,-0.000421,-0.270580,0.575924,0.994633,0.936912,1.482140,1.175621,0.652350,0.646668,-0.069998,-0.568535,-0.882172,-0.988839,-1.565175,-0.716062,-0.252178,-0.818117,-0.723576,0.587418,0.917982,1.435562,1.180953,0.858157,0.235285,0.100436,0.598193,0.033578,0.216973,0.341361,0.925946,-0.137888,0.637160,0.256925,-0.327367,-0.038282,-0.057016,-0.391809,-0.108809,-1.181077,-1.373892,-1.824114,-2.180873,-1.631302,-0.251981,-0.566374,-0.493080,0.465813,0.729071,1.366673,1.127718,0.866406,0.680227,0.277139,0.461306,0.339809,0.105827,0.519418,-0.205042,0.406622,0.180599,-0.844141,0.697424,-0.547242,-0.783355,-1.663970,-1.778955,-2.608097,-1.339930,-1.794942,-2.785156,-1.532271,-1.248644,-1.352399,-0.111164,0.246274,0.624781,1.455697,0.814746,0.314876,0.531755,0.718711,0.171453,0.981269,0.625740,-0.006553,0.123211,0.246849,1.322497,1.546633,1.581380,1.134954,0.874481,0.335384,-0.787843,-1.046885,-1.779044,-1.012603,-0.763637,-0.752995,-0.725666,-0.237597,0.083760,0.996850,0.828650,0.863631,0.643464,0.239980,0.696585,0.467513,0.748039,0.081606,0.356997,-0.379489,-0.509652,-0.399603,0.874979,2.140261,1.202858,0.980261,1.245995,0.999202,-0.518278,-0.690576,-0.585812,-0.462390,-0.151029,-0.996877,-0.779076,0.235638,1.267337,1.715533,1.169426,0.364267,0.837899,0.672955,0.658956,0.048708,0.183264,0.498457,0.295681,0.269199,0.076749,-0.784921,0.071865,0.591700,-0.523481,0.564251,0.329962,-0.431213,-0.682881,-0.097984,0.634556,-0.478473,-0.143189,0.226117,0.823077,0.979611,1.585329,1.588216,0.586711,0.670528,0.303114,0.915140,0.327006,0.286416,0.859828,0.995953,0.844499,0.362115,0.173070,0.151120,0.568072,0.572521,0.316616,0.525281,0.249167,0.372684,0.775628,1.106812,0.583052,1.284386,0.477481,1.233853,1.464693,0.827536,1.336651,0.579586,0.071735,0.916528,0.179018,0.636132,0.981170,0.832972,0.839869,0.760643,0.788509,0.993674,0.083197,0.884015,1.240916,1.412083,1.455986,1.534475,1.487059,0.945063,1.521151,1.069810,1.604769,1.634269,1.189559,0.562945,0.605686,0.243741,0.641428,0.568234,0.170242,0.099643,0.215369,0.431257,0.412305,0.129490,0.857784,0.950957,0.585101,0.198950,0.536546,0.304332,0.250351,0.672974,0.750593,0.849311,0.083567,0.245568,0.219290,0.140826,0.187046,0.379027,0.028129,0.749334,0.168140,0.730001,0.280504,0.354801,0.610311,0.689169,0.080630,0.463607,0.843104},{0.017548,0.361370,0.809961,0.279611,0.158269,0.957518,0.859218,0.941069,0.779626,0.177160,0.248115,0.734031,0.202324,0.365640,0.328501,0.771599,0.107639,0.128544,0.403729,0.788781,0.829768,0.135441,0.381024,0.310221,0.563463,0.065462,0.121433,0.726066,0.719077,0.445967,0.267983,0.932035,0.635151,0.683091,0.740131,0.456432,-0.116250,0.430190,0.220839,0.294303,0.709094,-0.023318,0.564238,0.062082,0.127345,0.359246,0.918126,0.749373,0.564342,0.775923,0.493576,0.834010,0.390149,0.444044,0.251595,0.012543,0.404798,0.024628,0.810022,0.915189,0.528031,0.466360,0.000855,0.508957,0.522254,-0.099202,-0.195671,0.084094,0.108408,-0.100644,-0.656617,-0.298149,0.162940,-0.276499,-0.270691,-0.162522,-0.246236,0.181730,0.413946,0.147011,0.794092,0.032685,0.832301,0.986236,0.069094,0.078585,0.099338,0.915013,0.226235,0.168362,-0.113953,-0.075330,-0.538644,-0.806525,-1.068678,-1.191800,-1.113671,-0.764060,-1.056094,-0.714337,-0.714793,-0.145984,-0.419960,-0.606573,0.119556,0.172437,0.786399,0.296320,0.233508,0.758395,0.592101,0.254433,0.930326,0.331309,0.330241,0.761060,0.545832,-0.014911,0.268928,-0.432836,-0.742746,-0.714777,-1.373576,-0.188561,-0.275278,-0.266592,-0.352898,-1.060881,-0.236431,-0.200611,-0.232887,-0.584971,-0.014208,0.011023,-0.069228,0.238753,0.446410,0.619519,0.573218,0.967639,0.075014,0.190374,0.777490,0.606508,0.190085,0.415194,-0.100658,-0.031864,-0.632473,-0.503658,-0.220129,0.144682,-0.307606,-0.411643,-0.830465,-1.100241,-0.458373,-0.323786,-0.807237,-0.789089,-0.837727,-0.285591,0.350978,0.531001,0.444630,0.971307,0.051976,-0.004332,0.565538,0.300638,0.505832,0.714957,-0.091619,0.369177,0.610202,0.528468,1.244910,0.216479,0.200039,-0.340754,-0.664086,-1.434855,-1.770871,-1.525548,-1.638774,-1.328428,-0.771430,-0.068677,-0.346258,-0.174857,1.551472,2.066548,1.778342,1.174150,0.978198,0.876568,0.728629,0.546523,0.803112,0.522188,-0.368889,0.386266,1.544417,2.233814,1.633499,1.069455,-0.036000,-0.541966,-1.342000,-1.271243,-2.058483,-2.854330,-2.014561,-0.086101,0.998680,0.592654,0.033538,1.082287,1.952710,3.444308,2.905393,1.143143,0.620318,0.319217,0.845058,0.901993,0.997721,0.962866,-0.045720,1.525946,2.062322,3.436768,1.735610,1.535309,0.267068,-0.207365,0.126662,-1.058834,-2.591042,-2.053734,-0.085706,0.382735,1.643250,2.272459,1.171016,0.992053,3.570620,3.931267,4.184766,1.910958,0.903503,0.586490,0.957823,0.795478,0.322563,0.671081,0.110419,1.249988,1.767200,2.096076,2.145792,1.152540,1.012357,2.015620,0.981649,-0.544169,-3.613050,-2.448950,0.480181,2.239486,1.444991,1.564966,1.311479,2.065702,2.972884,4.100865,3.249467,1.729684,1.096470,0.589992,0.018769,0.578994,0.612928,0.892170,0.642910,1.262572,0.729324,1.678947,1.700674,2.122895,2.955669,2.256459,1.720600,1.071318,-1.945179,-1.125747,0.098129,1.615184,1.637541,2.296416,1.782863,2.110015,2.435864,1.739883,1.956300,0.992257,1.181350,0.115823,0.091464,0.829414,1.163702,0.663008,1.052805,0.027769,0.638584,0.655250,1.433463,2.656944,3.208369,2.778514,1.965387,1.281003,-0.871713,-0.490900,-0.486274,-0.388709,0.971490,0.711948,0.563150,0.517488,1.549496,0.912141,0.638910,1.623901,1.030259,0.840980,0.829585,0.848377,0.299909,0.591679,0.815051,0.419268,0.698321,1.443153,2.726503,1.506027,2.434406,2.781150,1.068269,0.844949,-1.370769,-1.019976,-0.709603,-1.876487,-0.227160,0.623332,1.356787,1.156207,1.429945,0.163962,0.341760,1.559778,0.816248,0.452419,0.949400,0.900473,0.941771,0.997108,0.825456,0.603705,0.657230,1.341535,0.812614,1.218945,1.187642,2.115508,0.974865,-2.266842,-3.378482,-1.695567,-2.542084,-1.600318,-1.344261,0.995616,2.198262,0.794517,0.590032,0.369835,0.122403,1.218758,0.310135,0.705790,0.922941,0.240450,1.037194,0.432096,0.271484,1.410289,-0.364877,0.285122,0.029697,1.265846,1.109505,1.547850,1.039437,-1.502971,-2.357358,-2.546725,-2.451065,-0.349480,0.872391,0.562053,1.078709,0.505995,0.669143,0.597174,-0.082651,0.387928,0.640888,0.331928,0.559472,0.087222,0.525520,0.488708,0.782390,0.757897,-0.285800,0.985217,-0.089190,1.327370,0.028957,-0.472803,-0.599308,-0.786869,-1.546911,-1.739505,-0.997267,0.545622,0.264663,0.630690,0.074256,1.003620,0.424201,0.368991,0.423865,0.353843,0.568253,0.156056,0.836543,0.168100,0.827956,0.294638,-0.269235,0.303330,-0.006892,1.157237,2.489452,1.448033,-0.724059,-1.779740,0.111920,-1.219160,-1.817784,-1.575442,-0.874821,-0.200495,-0.634961,-0.914735,0.578269,0.813962,0.432072,0.779830,0.329289,0.228719,0.261778,0.873648,0.485305,0.653813,0.816785,0.427198,0.411406,-0.198664,0.309018,-0.260056,0.722459,1.145557,0.442648,-0.318505,-0.045650,-0.550561,-0.200972,-0.794043,-0.269887,-0.023779,-0.021291,-1.027438,-0.412849,-0.502957,-0.175858,0.161083,-0.039920,-0.105627,0.767048,0.436866,0.728385,0.921842,0.719215,0.603423,0.510350,-0.235861,-0.204707,-0.061077,-0.360995,0.030604,-0.786777,0.203068,0.643472,0.147651,-0.503024,-1.118768,-2.781267,-1.745089,-1.036942,-1.060685,-0.543750,-0.371880,-1.253952,0.100168,0.150395,-0.114533,0.910927,0.758462,0.815638,0.810938,0.742680,0.341017,-0.095892,0.196152,0.324480,-0.779215,-1.193315,-2.569977,-1.015732,-0.956780,-0.409669,-0.799230,-0.949368,-1.023564,-2.707993,-1.826894,-1.095122,-0.490391,-0.899259,-0.888086,-0.557094,0.877531,0.888515,0.136649,0.542079,0.941673,0.578295,0.830500,0.693915,-0.216040,-1.094426,-0.063029,-0.163074,-0.614337,-1.495880,-1.872389,-1.445524,-0.663742,0.929129,0.247983,-1.591377,-1.802294,-2.657445,-1.447896,-0.784042,-1.107746,-0.716383,0.376856,0.697362,0.927220,-0.265311,0.750620,0.053393,0.350169,0.729575,0.133274,0.870494,0.408146,-0.670921,0.231912,-0.626660,-0.490136,-2.207648,-1.977903,-2.360889,-1.784378,-2.017062,-0.814398,-1.367234,-1.322542,-1.925992,-0.548737,-1.140657,-0.629196,1.122636,0.582349,0.881994,0.622349,-0.198234,0.677390,0.528979,0.909970,0.128208,0.599658,0.822273,-0.065112,0.065679,-0.570200,-0.559008,-0.605831,-0.698079,-1.024025,-1.834347,-0.902142,-1.004641,0.540112,-0.047268,0.362608,1.356656,0.707522,0.860818,0.861391,1.082012,0.094452,-0.038433,0.705518,0.626601,0.703308,0.597584,0.974151,0.723746,0.876675,0.519335,0.288789,0.458667,-0.011371,0.096104,0.048374,0.179415,0.078029,0.532990,0.553267,0.760506,1.258539,2.396911,2.742497,2.575866,1.540553,1.159113,0.550169,-0.422076,-0.099781,-0.732390,-0.178070,-0.089868,0.228572,0.684271,0.146306,0.401959,0.716544,0.010409,0.050434,-0.058001,0.820603,-0.108546,0.106816,0.593952,-0.267111,0.325390,1.082232,1.756838,1.790929,2.227752,2.747955,2.285437,1.431624,1.320674,0.813361,-0.254039,-0.830862,-0.842433,-0.415780,0.134499,0.081167,0.011183,0.253304,0.449721,0.457472,0.198752,0.532932,0.318551,0.665836,0.256742,0.182405,-0.987931,-0.554807,0.023565,0.098856,0.551934,0.332392,0.299867,0.783505,1.220315,1.685012,0.822974,-0.456445,-0.542491,0.040005,0.114467,0.182256,0.186715,0.366250,0.814974,0.035646,0.857540,0.990722,0.267037,0.493942,0.892924,0.196060,-0.209012,-0.081318,-0.093657,-0.509419,-0.144530,-0.346392,0.068858,-0.041502,-0.463296,0.283229,0.606821,-0.089526,0.625079,0.435670,0.145146,-0.199458,-0.036999,0.207138,0.465499,0.953581,0.092441,0.653218,0.178777,0.057924,0.314219,0.580706,0.026246,0.401318,0.301154,0.571264,0.424832,0.302815,0.390045,0.671464,0.490552,0.383474,0.817914,0.924909,0.811861,0.803186,0.549696,0.706537,0.369954,0.124592,0.223564,0.474939,0.299265,0.103977,0.590503,0.598315},{0.164464,0.222114,0.705924,0.008515,0.166387,0.012604,0.463240,0.797296,0.275948,0.281869,0.785577,0.668630,0.457623,0.374321,0.338786,0.949461,0.268319,0.602863,0.994781,0.325510,0.235176,0.036225,0.835261,0.954344,0.181127,0.851650,0.978271,0.111240,0.891873,0.356456,0.007843,0.025117,0.238075,0.766950,0.245664,-0.049366,0.136408,0.017353,0.882698,0.851963,0.148441,-0.052922,0.790577,0.928023,0.317658,0.271841,0.962551,0.108565,0.445769,0.199560,0.724565,0.826960,0.287301,0.288583,0.617725,0.691549,0.606250,0.994049,0.313425,0.771630,0.053621,0.019584,0.770067,0.127834,0.267071,-0.027975,-0.286561,-0.051413,-0.207399,-0.452254,-0.275445,-0.017022,0.295485,0.095806,0.321973,0.559843,0.398076,0.549626,0.164078,0.681027,0.078909,0.563189,0.959838,0.798303,0.994263,0.383129,0.453627,0.526743,0.951197,0.627263,0.757358,0.389244,0.018464,-0.111757,-0.305233,-0.454975,-0.722188,-0.052204,0.224863,0.860398,0.396739,-0.158740,-0.320074,0.554019,0.147003,0.308712,0.796953,0.325697,-0.192305,0.494621,-0.009001,0.334025,0.107486,0.590991,0.060183,0.396530,0.104716,-0.013763,0.387490,-0.181079,-0.112321,-0.281274,-0.087055,0.362964,-0.328000,0.435545,0.102511,1.116421,-0.190677,0.651420,0.740892,-0.081060,0.099131,0.383408,1.111571,1.032532,0.875445,0.254388,0.790082,-0.012911,0.655538,0.500259,0.951476,0.000694,0.603996,0.372548,0.140524,-0.002735,-0.496089,0.332937,0.722321,0.550790,0.575087,0.535942,0.470550,0.667476,0.554758,0.349208,0.079943,-0.186283,1.059136,1.615926,1.629180,1.528310,0.438804,0.900817,0.504829,0.129194,0.886532,0.041810,0.815929,0.346484,-0.114822,0.078620,0.100448,-0.208686,0.310263,-0.021736,0.345579,0.398572,0.190476,-0.336084,0.423691,-0.058534,0.524860,0.914647,1.675076,1.747024,1.289760,1.920991,2.012765,1.867307,1.888810,0.931423,0.973504,0.096888,0.774529,0.512017,0.632609,0.600086,-0.491239,-0.123940,0.449595,0.647034,0.096298,0.523409,1.191314,0.106145,-0.108252,0.505759,1.476440,0.209945,0.866429,2.360204,2.713901,2.142126,1.903296,1.094730,0.765901,1.847722,1.289847,1.269917,0.608402,0.925368,0.732475,0.313776,0.861407,0.928248,0.196961,-0.696120,-0.489828,-0.243913,0.143255,0.397846,-0.008428,0.636279,0.746864,0.664614,1.506478,1.403021,0.723050,2.168090,2.568781,2.189744,1.545171,0.776071,1.846160,1.364677,2.887957,1.995002,0.724729,0.948570,0.568865,0.912667,0.766676,0.844856,-0.291597,-0.554464,-0.455510,0.110346,1.092919,0.526551,0.266267,2.185683,1.533894,1.838498,1.152584,1.015417,1.984252,1.419602,2.246363,1.285452,0.911982,1.517659,2.022661,2.055144,2.845726,2.079835,1.328320,0.523184,0.907804,0.508174,0.997876,0.224517,0.449334,-0.445367,-0.381767,0.828147,1.105437,0.873746,1.190527,1.503890,2.374737,1.964021,1.994999,2.147357,2.588416,1.517212,1.853487,0.714422,0.229833,1.259991,1.163702,1.451150,2.606116,2.872306,0.825345,0.606175,0.790124,0.112764,0.520079,0.540562,0.561309,-0.722225,0.385044,0.460320,0.403614,-0.521913,0.150100,0.975327,0.583694,0.284478,0.463090,1.156868,1.301081,0.790958,0.526482,-0.019663,-0.061243,-0.574377,-0.027587,-0.373248,0.290124,1.551176,0.455115,0.075630,0.675558,0.386278,0.955797,0.823060,0.452359,-0.490312,0.504782,0.357604,1.186663,0.296994,1.074768,0.287016,0.321343,-0.169303,-0.144998,0.053291,-0.690651,-0.077874,0.535379,0.306613,0.368712,-0.643693,-0.574429,-1.587358,-1.066823,1.043175,0.854926,0.231443,0.563463,0.167473,0.802436,0.901168,0.491945,0.337142,0.594006,1.084529,1.004384,0.613188,0.959612,0.186309,-0.504308,-0.140478,-0.170808,-1.360727,-0.920613,0.436381,0.057152,0.141678,0.892227,-0.495946,-0.127775,-1.128572,-0.341481,0.564740,1.065198,0.875746,0.457392,0.927586,0.612235,0.570981,0.525969,0.976727,0.237871,1.507659,1.550456,1.356675,0.548787,-0.790165,0.025950,-0.184532,-1.394193,-1.704757,-0.990690,0.281826,-0.266354,0.256029,0.844751,0.775977,0.643526,0.475085,0.422316,0.858630,0.154004,0.431364,0.854377,0.158589,0.356277,0.315205,1.238050,1.685892,0.996908,1.054039,0.965454,1.521604,0.588231,-0.284714,-0.285728,-1.364917,-1.804937,-0.934887,0.036002,0.332131,-0.035025,0.109346,0.564047,1.336467,1.074917,0.923113,0.831056,0.560616,1.163192,0.554636,0.582751,0.872413,0.240681,0.407936,1.014985,0.618780,1.119333,1.078252,0.692194,-0.239461,-0.619631,-0.829046,-0.805929,-1.505647,-0.274268,-0.063959,-0.173953,-0.225757,0.413905,-0.088964,1.076446,1.290754,1.185915,0.788288,0.369328,0.611268,0.125875,0.834445,0.549394,0.067134,0.538018,0.466547,0.806111,1.814311,2.432948,0.197635,-0.266765,-0.486611,-0.177995,-0.117104,-0.880856,-0.974102,0.065533,0.397772,-0.065645,-0.182175,0.431720,0.106103,0.565170,1.333979,0.535305,0.546277,1.079397,0.347579,0.962599,0.932866,0.747429,0.647359,0.353815,0.243515,0.758312,1.596420,1.554563,0.552143,-0.503008,0.594824,0.046577,0.439837,-0.580886,-0.618531,0.845113,0.409456,-0.204717,-0.145594,-0.096688,-0.056120,1.137223,0.751430,0.228378,0.692905,0.604707,0.083228,1.049719,0.919401,0.189245,0.510208,0.789502,0.228730,1.439857,1.155793,0.861742,0.615128,1.111569,0.510113,1.426705,1.528605,1.177299,0.998269,0.685175,0.141393,-0.447013,-0.386443,0.117240,-0.443693,0.219757,0.115697,0.614678,1.307946,1.547488,0.329972,0.987658,0.977034,0.984802,0.173742,0.920831,0.580002,1.510374,1.928162,0.361059,-0.460385,0.715324,1.138842,0.667098,1.985969,1.283244,1.836474,-0.012589,0.218915,0.018261,-0.409178,-0.442372,-0.400322,-1.015013,-0.145621,1.329756,1.292646,1.109907,0.149837,0.885047,0.780999,0.290353,0.804777,0.100093,0.064477,1.002559,1.550767,1.460729,0.799788,-0.241293,1.009252,0.874056,0.850019,-0.119701,0.281815,0.322305,-0.274062,-0.233389,-0.576301,-0.865950,-1.120368,0.426782,0.329138,0.813731,1.356903,0.752489,0.320337,0.876561,0.365246,0.346019,0.984313,0.219392,0.728910,0.813723,1.581639,1.268765,1.065616,0.494003,0.528440,-0.002780,0.481566,0.010082,0.122041,-0.359172,-0.872131,0.588907,0.917725,0.393698,0.213587,-0.315186,0.041055,1.007274,0.688953,0.822762,-0.014595,0.964467,0.409711,0.318827,0.049715,0.151876,0.181189,0.193579,0.668719,1.882596,1.640200,1.329302,1.466970,0.908365,0.451168,0.652854,-0.673954,0.321907,0.489732,1.182054,0.569753,-0.562004,-0.552795,-0.290069,0.342473,0.773323,0.753602,0.358403,0.696279,0.746953,0.065188,0.172124,0.364788,0.587624,0.810509,0.767903,1.038723,1.163824,0.423014,0.836034,0.885851,1.148853,0.779945,0.923266,0.712310,0.806480,0.482175,-0.114307,0.660560,0.361486,-0.095037,0.579024,0.367945,0.923078,0.260530,0.257295,0.722833,0.872365,0.536058,0.278512,0.354015,0.119226,0.662653,1.005716,0.703544,0.917686,0.168853,0.465051,1.020293,0.705387,0.935196,0.494211,0.964420,0.131112,0.343396,0.517444,1.175549,0.814420,0.804299,-0.117709,0.005593,0.689525,0.321702,0.655270,0.348917,0.774126,0.013306,0.996063,0.649922,0.198126,0.576128,0.216669,0.941527,0.414337,0.749132,0.814825,0.359540,0.751522,0.698772,0.241694,0.332910,0.414556,0.662058,0.737667,0.854073,0.947648,0.495008,0.763327,0.434177,0.662517,0.881115,0.782830,0.109226,0.185186,0.047121,0.925810,0.194708,0.278176,0.042207,0.151616,0.784509,0.005779,0.481340,0.728119,0.467304,0.091866,0.383247,0.533078,0.112189,0.821077,0.399734,0.173718,0.602057,0.604659,0.698008,0.918315,0.391307,0.923978,0.789654,0.792566,0.179388,0.956145,0.952330},{0.070070,0.641316,0.923185,0.283822,0.504624,0.669729,0.984497,0.232551,0.543596,0.047853,0.913877,0.606586,0.875831,0.880452,0.412030,0.784631,0.418439,0.724601,0.296274,0.272286,0.285928,0.874630,0.356090,0.260353,0.727592,0.607837,0.155919,0.341044,0.609516,0.896512,0.566546,0.039125,0.445936,0.432936,0.310905,0.327584,0.537888,0.395652,0.262986,0.679622,0.140235,0.875514,0.996370,0.212949,0.490517,0.195258,0.630023,0.513738,0.113826,0.642692,0.960000,0.416303,0.083254,0.872799,0.956755,0.376049,0.518265,0.150548,0.798914,0.551592,0.699881,0.037477,0.182200,0.348989,0.642613,0.748063,0.084904,0.334713,1.050844,0.235102,0.595917,1.142287,1.270296,0.042394,0.383594,-0.063020,0.768447,0.402282,0.863248,0.409456,0.375774,0.804254,0.233497,0.838435,0.735710,0.237220,0.663686,0.557604,0.957944,0.322577,0.620392,0.918542,0.653450,0.687514,0.972116,1.310494,1.695635,1.562404,1.577078,1.062940,2.022021,0.815726,0.872218,-0.040731,0.041288,-0.097450,0.093545,-0.181709,-0.055734,0.763996,0.356402,0.603595,0.113651,0.667043,0.931455,0.339959,0.117664,1.020306,1.027888,1.148150,1.885200,1.844677,1.729221,1.364452,1.800834,2.275521,1.772904,1.630167,1.394971,1.114397,0.595151,0.166238,-0.379391,0.058164,-0.823601,0.191008,0.420449,0.425236,0.185755,0.613632,0.857570,0.178564,0.821497,0.492668,0.664633,0.852543,1.224663,1.797892,1.707029,1.730859,2.036749,1.138731,0.835230,0.634775,0.862485,1.190180,0.626694,0.417291,0.271503,0.210343,0.054866,-0.029964,-0.382259,-0.061153,-0.358133,0.130980,0.597573,0.970630,0.680715,0.150914,0.157075,0.329229,1.098804,1.445806,1.332417,1.668729,1.213093,0.492944,1.535728,1.182254,0.420083,1.217361,0.539813,0.891386,-0.499703,-0.872405,0.004540,-0.778158,0.004300,-0.418650,-1.255317,-0.796401,-0.499684,-0.062638,0.871075,0.181771,0.390118,0.730458,0.311410,0.368695,1.800741,1.338988,1.286552,0.690017,-0.106775,0.400990,0.236929,-0.256964,0.838484,0.271741,0.456735,-1.297205,-0.886453,-1.128034,-1.280405,-0.623745,-0.138950,-0.278778,-0.310849,-1.022568,-0.874262,0.113762,0.646319,0.194786,0.122623,0.971227,0.250569,0.283245,1.404375,1.884616,1.223779,0.143683,-1.133626,0.034780,0.956689,0.537162,0.323008,-0.275820,-0.385112,-0.312206,-0.502619,-0.261828,0.014974,0.538444,0.509187,-0.454891,-0.928342,-2.012303,-1.187286,0.014724,0.531639,0.346287,0.950346,0.913932,0.482822,0.744316,1.304982,0.982400,-0.395924,-1.208277,-2.232925,-0.824873,-1.659090,-2.257644,-2.005071,-2.004807,-0.168581,0.788735,0.791106,0.786124,0.864169,0.883860,0.060230,-0.210249,-0.396109,-1.361194,-1.529084,0.082364,0.899080,0.738343,0.073702,0.867438,0.719743,0.645501,0.463487,-0.509956,-1.682515,-2.776578,-3.034132,-3.384577,-3.297430,-4.015516,-3.165756,-2.714725,0.170398,1.061141,0.898571,0.941233,0.180578,-0.170148,0.570477,-0.435400,-0.718080,-0.687845,-0.834679,0.285700,0.960994,0.221038,0.321635,0.826846,0.244235,0.734673,-0.224236,-0.957329,-2.299412,-3.176160,-3.602412,-4.696118,-3.595806,-2.603149,-1.607203,-1.694663,-0.156020,-0.463894,-0.007814,-0.585492,0.483814,0.522520,-0.298435,-1.376054,-0.982684,-0.363303,0.237999,0.488041,0.288957,0.477314,0.176580,0.208220,0.581294,0.249096,-0.309213,-1.635638,-3.919050,-3.807195,-4.094766,-2.672351,-1.693505,-0.678971,0.258737,-0.170005,-0.260653,-1.132439,-1.114614,-1.157846,-0.649011,-0.995595,-0.715010,-1.346785,-1.831706,-0.535348,-0.349718,1.027744,1.000199,0.413589,0.044038,-0.018997,0.908293,0.429356,-0.353754,-2.427883,-3.420157,-2.854784,-1.258019,-0.172707,-0.392035,0.726836,1.039059,0.893368,0.139041,-1.669336,-0.291330,-0.417176,-0.907604,-2.176741,-1.621463,-0.958035,-1.299467,-1.076066,0.085948,0.386615,0.717836,0.360942,0.987202,0.334624,0.274014,0.820792,-0.779307,-1.927504,-1.692545,-1.613687,-1.114350,-0.320069,0.003569,-0.006935,0.128161,1.221013,1.646287,-0.419972,-0.107915,-1.465267,-1.277870,-0.991968,-0.874818,-0.440890,-1.315735,-0.646203,0.438909,1.156873,0.524845,0.200794,0.629650,0.703290,0.613319,0.134771,0.311535,-0.211611,-0.172687,0.067720,-0.205553,0.150924,-0.101617,0.069081,1.549210,1.739328,1.580854,-0.279448,0.053783,-2.279958,-1.038207,-0.184112,0.026154,-0.446195,-0.530401,0.353847,1.252074,0.741149,0.749275,0.188188,0.489853,0.824119,0.367188,0.730677,1.527047,0.679758,-0.100201,-1.108142,-0.770806,-0.771906,-0.086420,0.101081,0.438849,1.825191,0.609004,-0.596664,-1.267515,-1.585343,-0.416098,0.473030,-0.058520,0.493009,1.149659,0.463593,1.365111,1.977325,0.794164,0.019738,0.398480,0.267384,1.036394,0.471257,2.145019,1.682697,0.269530,-0.341113,-0.826262,-1.478665,-1.319859,-1.701957,-0.434863,0.196914,-0.837657,-1.216822,-1.562077,-0.892618,-0.945113,0.127202,-0.792690,0.490300,0.857070,0.378811,1.009087,1.529846,0.329040,0.642659,0.273812,0.044740,0.942441,1.203756,1.872998,1.878782,0.106827,-0.259624,-0.157484,-0.936513,-1.653112,-2.005542,-1.430479,0.128668,-0.569122,-0.755860,0.149390,1.050623,0.624035,-0.045746,-0.820747,1.005899,1.473752,1.001846,1.010184,1.375296,0.762038,0.903631,0.951415,0.917570,0.352109,0.845853,2.551203,1.614385,0.976807,0.647297,0.688609,0.250697,-0.498766,-0.715703,-1.050151,0.325148,0.552476,1.431791,0.827052,1.910932,1.090757,0.923902,0.244201,0.989784,0.814427,1.385255,0.634727,0.950031,1.020793,0.301398,0.286508,0.009491,0.583097,1.941507,2.811127,1.297528,1.010007,0.455315,0.289845,0.795576,0.600951,0.724357,-0.655502,-0.882332,0.047672,-0.285983,0.485548,0.793897,1.612791,1.764679,1.637121,0.851643,0.403297,1.141367,0.546832,0.464944,0.130506,0.010712,0.251839,0.384349,0.879884,1.601515,1.974522,0.853261,1.745477,0.947814,-0.106140,-0.004336,0.782022,-0.780326,-0.445273,0.068003,0.340038,-0.014201,0.190681,1.322657,1.476657,1.987879,0.630439,-0.068754,0.113791,0.824575,0.753175,0.748513,0.677693,0.907773,0.247871,0.979431,0.360844,0.666820,1.260693,1.388271,1.527233,0.672909,0.567122,0.767148,0.543072,0.378232,-0.150573,-0.939026,-0.044836,0.649396,-0.082800,1.097134,1.650359,1.851252,0.819097,0.499285,0.015440,0.584169,0.968408,1.081786,0.254013,0.774773,0.344859,0.772332,0.179968,0.908580,0.961725,1.823365,0.795006,0.049036,-0.529439,0.247623,0.051841,0.656812,0.946697,0.509079,0.480630,0.055032,-0.324728,0.656152,1.460682,0.506802,-0.252184,0.180986,0.088102,0.435534,0.488119,0.583400,0.806572,0.612262,0.675405,0.460677,0.427480,0.877897,0.876991,0.502386,0.577724,0.875662,0.156721,0.653855,0.854235,0.530583,1.463256,1.143801,0.970952,0.307160,-0.217220,0.630263,0.288905,0.035369,0.191018,0.121279,0.864946,-0.034823,0.428712,0.874037,0.264821,0.336283,0.695944,0.561357,0.380262,0.428462,0.623268,0.477639,0.370438,0.095111,0.601961,0.757558,0.425359,0.992809,0.312008,0.181055,0.720171,0.439311,0.555884,0.162136,-0.014707,0.270956,0.142312,-0.191541,0.659769,0.463989,0.587292,0.717568,0.322679,0.453566,0.536363,0.235054,0.457289,0.856410,0.895669,0.245145,0.708447,0.277467,0.191494,0.476752,-0.088088,0.218831,-0.137205,-0.009717,-0.007538,0.634837,0.515974,0.173129,0.962280,0.702197,0.896304,0.235611,0.114583,0.963452,0.510422,0.587359,0.150975,0.801019,0.155950,0.693106,0.224250,0.856777,0.819971,0.232643,0.934881,0.964608,0.086178,0.712489,0.497127,0.813531,0.411657,0.675118,1.004985,0.429787,0.291381,0.335884,0.135579,0.055743,0.314521,0.595592,0.894757,0.570588,0.578478,0.859828,0.558031,0.943693},{0.525163,0.527787,0.891446,0.347606,0.852901,0.670186,0.855068,0.981597,0.284402,0.650594,0.262886,0.189428,0.929752,0.200678,0.196173,0.364452,0.202277,0.842067,0.419660,0.826350,0.796747,0.987671,0.588641,0.324381,0.820734,0.761467,0.528489,0.324503,0.551042,0.810389,0.367473,0.735221,0.881588,0.093458,0.785630,0.184220,0.954608,0.026654,0.297716,0.823055,0.182007,0.882170,0.401571,0.770253,0.639050,0.986266,0.292554,1.010786,0.219038,0.187746,0.049310,0.584399,0.237251,0.600116,0.714560,0.759789,0.965850,0.300516,0.003754,0.574297,0.915281,0.954609,0.464806,0.871270,-0.023177,0.757336,-0.081121,0.066984,0.297187,0.197408,0.705781,0.747098,-0.049315,1.011953,0.894758,1.098101,0.593349,0.462864,0.162412,0.902249,0.991395,0.111942,0.741264,0.374065,0.897336,0.610706,0.476180,0.797137,0.772714,0.380763,0.836384,0.685971,0.092167,-0.654742,-0.148502,-0.790511,-0.047790,-0.815187,-0.967027,-0.031329,0.117842,-0.053298,-0.011838,-0.026144,0.584293,0.704835,0.495490,0.644805,0.953185,0.703587,0.825446,0.568407,0.339183,0.669424,0.770257,0.636693,0.699948,0.297903,0.428675,-0.270558,-0.142568,-0.002367,-0.881724,-1.100293,-0.442212,-0.189597,0.456664,-0.205955,0.768195,-0.106598,-0.036960,0.930731,1.526289,1.668608,1.845916,1.354936,0.890978,0.912108,0.789615,0.113746,0.240883,0.326975,0.738609,0.779903,-0.025955,0.053882,0.292349,-0.215650,-0.509795,0.102312,-0.688800,1.058436,0.464082,0.772811,1.081058,1.447981,0.374970,1.079104,0.712612,1.581165,1.564357,1.423500,1.526569,0.846690,0.780308,0.178855,0.557359,0.968851,0.435255,0.447890,0.202718,0.009228,0.035402,-0.003336,-0.281851,-0.806198,-0.893071,-0.272812,0.621263,0.352804,1.038068,1.407436,1.106867,1.205902,0.957958,1.151866,0.797999,1.963882,0.977721,0.990091,1.541317,1.533158,0.458742,0.304862,0.749802,0.938465,0.122593,0.320656,0.011550,-0.206351,-0.500050,-0.263539,-1.028994,-0.343125,0.465224,0.143310,0.332891,0.683241,0.268383,0.766562,1.404740,1.851446,1.398915,1.607462,1.541975,1.377095,0.622398,1.668576,1.572042,1.230935,1.220026,0.277759,0.349321,0.610011,0.130589,0.750041,0.148399,-0.139293,-0.484707,-0.339067,-0.185365,0.250080,0.112305,0.511183,0.526432,-0.509850,0.235203,0.450981,1.001706,1.904752,1.608613,1.025522,1.730326,0.633979,0.765557,0.387348,0.509555,0.778426,0.630958,0.055651,0.187710,0.035268,0.667867,0.767267,0.576289,-0.571919,-1.287909,-1.107528,0.726333,1.412538,1.343806,-0.107163,0.843818,1.410421,1.013081,1.110197,0.466403,0.175816,-0.219693,0.323089,0.446201,0.620751,0.141608,-0.035034,-0.156172,0.307561,0.588460,-0.034717,0.440922,0.212945,0.790765,0.005343,0.605862,0.285977,-0.475889,-0.279226,0.821049,1.737251,1.872249,1.370269,1.921844,1.943848,2.114752,0.553549,-0.493780,0.638295,-0.001032,-0.330569,-0.715784,-0.492898,-1.217378,-0.429301,-0.456422,0.755981,0.977231,0.000622,0.190939,0.247561,0.301553,0.868970,0.130007,0.199968,0.538261,1.021341,1.757213,1.729877,1.943212,3.231626,2.454190,1.461781,1.029145,1.657725,0.896867,2.080182,1.158735,1.204568,-0.287601,-0.556628,0.880488,1.509686,0.985337,1.310267,0.932506,0.629204,0.863993,0.357576,0.297342,0.705438,0.156538,0.579808,0.657993,2.281990,3.423990,2.723854,2.679467,2.561159,1.998436,0.073092,0.117947,1.663945,1.577379,2.444764,1.315650,1.458516,1.102371,0.844366,1.366691,1.987061,2.944404,2.498940,1.585963,0.649506,0.852622,0.876071,0.087771,0.143731,-0.049807,0.071823,1.871907,2.769797,3.019121,2.709119,1.753462,1.854677,0.913173,0.163716,1.313458,1.833951,0.542968,2.475075,1.890790,1.646948,0.380686,1.217214,0.911691,1.864063,2.312784,1.305399,-0.516490,-0.129879,-0.069756,0.054355,0.695138,0.236340,0.144359,1.221879,1.994335,1.361418,1.655099,1.436831,1.741599,0.678068,-0.022460,0.049728,1.161325,0.771853,-0.116337,1.537014,1.552936,0.757188,-0.354385,0.562755,0.196844,0.318172,0.169101,-0.385528,-0.569625,0.249607,0.006306,0.841149,0.693003,0.061069,0.922592,0.449198,0.851898,-0.036352,0.496143,-0.158327,1.561394,0.865578,0.013608,0.157416,0.501607,0.101498,1.004542,1.580307,0.841433,0.747716,-0.476482,-1.012212,-1.085699,-1.159816,-0.715931,-0.426725,-0.522183,-0.244964,0.056129,0.661895,0.497116,0.431959,0.887540,0.356809,-0.325892,0.371183,-0.179531,0.753205,1.421697,0.809885,1.405694,1.199773,0.733469,-0.368479,0.782018,0.491662,1.067627,-0.707738,-1.847944,-2.170803,-1.389147,-1.506805,-1.438282,-0.957898,-1.508900,-1.331998,0.023038,0.546863,0.984985,0.173052,-0.048570,0.251664,-1.412305,-0.470370,0.319312,0.345535,1.088849,2.418545,1.855565,1.367381,0.924603,1.233669,1.993230,0.591746,0.658798,-0.561270,-0.262363,-0.625409,-0.269984,-0.837232,-1.430778,-0.921360,-0.665416,-0.614108,0.551861,0.044982,0.530961,0.725028,0.495234,-0.007022,-1.208239,-1.531570,-0.225076,0.120376,0.590689,2.173111,1.056621,1.546304,0.237893,1.329581,0.511223,0.248339,-0.346940,-0.483876,-0.309017,-0.145218,0.200963,-1.296053,-0.998915,-0.214242,-0.111087,-0.239816,0.667009,0.371848,0.229225,0.432569,0.181285,-0.210220,-1.684409,-0.934922,-0.986319,-0.364592,-0.085570,0.573886,0.106788,0.514932,0.221429,-0.055985,-0.410023,-0.552673,-0.078190,0.036049,-0.074420,1.174764,0.494057,-0.742433,-0.172688,-0.487033,0.437152,-0.173216,0.474681,0.529805,0.522355,0.502457,0.274336,-0.773432,-1.912609,-0.742392,-0.761955,0.121384,-0.225825,0.147134,0.667693,0.353392,0.486695,0.048247,-0.671961,0.153558,1.132082,0.777691,1.716573,1.383962,0.456812,0.029900,0.623754,0.442627,0.936879,0.231504,0.816853,0.063662,0.947325,0.645894,0.081558,-0.378313,-0.635465,0.122156,0.242813,1.178734,1.248738,0.845828,0.585392,0.277202,-0.112005,0.645042,0.349705,1.189496,0.214622,0.312779,0.113904,-0.257263,0.617215,0.654134,1.153063,0.055874,0.640481,0.034695,0.336546,0.377789,0.219306,0.709647,0.730307,0.221835,-0.440608,0.543791,-0.002556,1.004361,1.191437,0.914380,1.368100,0.534717,0.098131,0.896529,1.357068,0.694441,0.470808,0.591123,0.443076,0.524407,0.704994,0.887443,0.781517,0.992679,0.557613,0.459545,0.724564,0.014435,0.372417,0.113865,0.808761,-0.062855,0.204870,0.160168,-0.462559,0.580023,1.290917,0.891959,1.164003,0.795216,1.582916,1.390460,0.514281,0.654574,1.634512,1.045037,0.884916,0.760236,1.178130,1.520817,0.875500,0.679924,0.347359,-0.064347,0.807371,0.001740,0.175237,0.495102,0.055661,-0.093079,-0.370715,-0.145229,-1.194683,-0.393416,-0.203309,-0.333668,0.862960,0.984870,0.167153,0.490631,0.482739,0.760890,0.489803,0.022130,1.191801,1.368266,0.870470,0.912920,1.086133,0.490137,0.260097,0.475881,0.156853,0.176397,0.541154,0.343272,0.836597,0.379358,0.831878,-0.213969,-0.349294,0.122974,0.441440,-0.733954,-0.184954,0.301616,-0.064503,0.246754,0.297236,0.516861,0.108780,0.309849,1.134234,0.621799,1.413556,0.655721,1.055593,0.487316,0.746636,0.740041,0.186821,0.100894,0.151067,0.009522,0.410749,0.767318,0.054808,0.481329,0.238594,0.302552,0.636743,0.881782,0.240185,0.256568,0.698659,0.562338,1.009729,0.083307,0.222525,0.423818,-0.046152,-0.357287,0.534949,0.929781,0.423244,0.427246,0.679312,0.576067,0.581591,0.670583,0.008179,0.917539,0.715476,0.366527,0.910947,0.387951,0.315974,0.842614,0.341381,0.147044,0.795728,0.362037,0.855144,-0.088525,0.398935,0.146843,0.266753,0.279242,0.826171,0.896621,0.246347,-0.020517,0.501811,0.289135,0.607532,0.075076,0.262947,0.003388},{0.142796,0.323557,0.440809,0.240761,0.494736,0.944792,0.938810,0.484268,0.085116,0.611194,0.425489,0.169958,0.785307,0.712893,0.333384,0.793847,0.211432,0.461776,0.001617,0.608600,0.310801,0.526841,0.734550,0.572649,0.088321,0.710654,0.057863,0.707053,0.186377,0.469344,0.953124,0.517045,0.240059,0.945462,0.408088,0.772730,0.697321,1.061579,0.726461,0.374396,0.370067,0.215524,0.831079,0.275554,0.228915,0.670469,0.418856,0.833397,0.663499,0.287062,0.611647,0.987365,0.187078,0.938505,0.143590,0.116581,0.033692,0.470962,0.003204,0.145299,0.189276,0.086876,0.568535,1.113958,0.564198,0.895068,1.236581,0.452761,0.608909,0.855832,1.293359,0.804595,0.786793,1.140281,0.609683,1.097326,0.197183,0.723967,0.642509,0.115169,0.678343,0.500656,0.596362,0.596606,0.311350,0.787957,0.694388,0.872164,0.449219,0.558100,0.988458,0.437644,0.484357,0.724447,1.838578,1.239986,1.442833,1.139612,0.587468,0.267670,0.280310,0.571144,-0.191709,-0.178813,0.551442,0.163758,0.144050,0.601539,0.809187,0.226961,0.358605,0.501389,0.871761,0.616352,0.678152,0.509988,0.641223,0.224684,0.919371,0.400748,0.991815,1.145765,1.036668,0.133257,0.857082,0.142679,0.129434,0.265065,0.070023,-0.299619,-0.641110,-0.043677,0.446609,-0.171613,-0.108534,-0.007378,-0.024563,0.664648,0.673889,0.893003,0.031434,0.049226,0.048036,0.149973,0.939357,0.336306,0.480672,0.166817,0.882670,1.026711,0.220521,0.481290,0.715022,-0.043703,0.629359,0.703470,0.121645,-0.706725,-0.411103,-0.443312,-0.483199,-0.204748,-0.061261,-0.684700,-0.430981,0.466274,0.181114,0.580500,0.771966,0.348399,0.868611,0.305361,0.256390,0.288448,0.339826,0.106899,0.632166,0.348257,0.258541,0.814033,0.939723,0.820920,0.553097,1.507505,1.189636,1.481937,0.496714,-0.720124,-0.918539,0.148536,-0.428459,-0.864814,-0.295926,-0.246803,0.226460,0.668076,0.622639,0.164299,0.028584,0.154541,0.575032,0.262667,-0.537730,0.405409,0.453153,0.035978,0.664352,1.819581,2.197978,1.180506,0.712850,1.473997,1.708798,0.568986,-0.067148,0.291077,0.343784,0.535577,0.049812,-0.465694,-1.074830,-0.324158,0.527386,0.944444,0.443648,0.125804,0.771114,1.117121,1.040750,0.408512,0.144768,1.001856,1.206474,1.520373,1.158717,1.294467,1.046470,0.800483,1.567632,1.336613,0.112004,-0.217439,-0.635069,-1.195545,0.055009,0.409345,-0.223365,-0.867396,-1.463904,-1.266070,0.280204,0.750367,0.828242,0.345603,0.168724,1.045313,0.904447,1.073671,1.936239,1.276621,1.653097,1.449437,1.510803,0.494319,0.973378,-0.355678,1.893338,0.399010,0.022894,-0.819130,-0.496305,-1.435552,-0.325064,0.436128,-0.661189,-0.856473,-1.206591,-1.118788,0.272279,0.260984,0.342845,0.748496,0.244965,0.849615,0.975237,1.359044,1.380123,0.934567,1.004112,1.175573,2.219191,1.473528,-0.089348,0.266218,1.552067,0.054852,-0.230064,-0.711028,-0.431776,0.551078,0.216085,0.909363,0.172856,0.210048,-0.329553,-0.493480,0.708739,0.584803,0.323862,0.421110,0.490700,0.857265,1.331524,1.296866,1.417760,1.002364,1.229536,1.501809,1.309075,-0.122217,-0.657502,0.668316,1.258212,0.844880,0.078691,-0.091201,1.092606,0.822919,1.280237,1.985214,1.482078,1.884998,1.107404,-0.020054,0.808015,0.500470,0.449721,0.990857,0.168490,0.909424,1.682749,1.595082,0.207325,0.574901,0.083399,0.603786,-0.973069,-1.503009,-2.855441,-0.600271,2.029987,1.752276,1.508058,1.843578,0.418078,1.265512,1.336224,2.500063,1.844092,2.032275,1.460929,0.144402,0.537409,0.508817,0.807215,1.010214,0.386077,0.808158,0.892137,0.046411,-0.013886,-0.759590,-1.225324,-0.608462,-0.484259,-2.114172,-1.498122,0.604802,2.478527,2.213409,2.464933,0.099677,-0.793965,0.821184,1.687632,1.753031,1.346389,1.920711,0.764260,0.431239,0.218055,1.031820,0.664177,0.663040,0.059149,0.384668,-0.396161,-1.195754,-0.444282,-0.909021,-1.613933,-1.783765,-0.995584,-0.306148,-0.605818,2.276350,3.255895,2.978482,1.863593,-0.683816,-1.023109,1.055471,1.114886,0.091267,0.768423,0.892992,0.371461,0.816112,0.405744,0.654427,0.710744,-0.008272,0.407263,0.676456,-0.663650,-0.930182,0.100661,-1.088391,-0.058951,-0.623309,0.220124,-0.827358,-0.191340,1.723209,2.967537,1.875644,0.339843,1.061932,0.760272,0.591452,0.365345,-0.782598,-0.419026,-0.370077,0.657356,0.833854,0.672865,0.726839,0.866054,0.224380,0.539671,0.223210,0.093789,-0.090468,0.591375,0.165441,0.032715,1.238009,0.408645,0.582466,1.390302,1.352137,2.756534,1.980614,1.959604,1.036772,-0.007141,-0.138782,-0.906034,-0.426575,-0.718790,-0.076860,0.061934,1.508367,0.761876,0.878973,0.552293,0.832878,0.129810,0.369204,-0.203674,-0.497448,-0.089766,1.202257,1.402055,1.813011,1.690405,2.525843,3.038494,2.511739,1.911662,0.860870,0.502741,-0.619473,-0.360206,0.011766,0.280109,-0.356846,0.069727,0.613730,0.775815,1.717377,0.458357,0.925044,0.502029,0.019837,0.685997,-0.462584,-0.155204,-0.514392,-0.096612,0.681002,1.163972,1.748908,1.674908,1.649279,2.487676,2.861029,1.827731,0.160528,-0.438250,0.747909,0.563877,0.162208,-0.412408,-0.236295,0.280674,0.897928,1.843269,1.249397,0.945629,0.747202,0.878506,0.269295,0.441201,-0.713427,-0.892086,-1.211822,-0.963844,-0.206171,0.425229,2.122471,1.849073,0.696445,1.198348,2.098485,1.346533,0.426733,0.127078,0.553345,0.074841,1.238096,-0.042635,0.662940,0.861142,1.068840,1.262037,0.407375,0.322521,0.577844,0.928404,0.225501,0.773679,-0.341986,-0.193053,-0.844288,-0.341858,1.426867,0.777761,1.622467,1.188511,0.235210,0.348787,1.507086,0.463863,0.711863,0.272456,0.641877,1.090102,1.192067,0.606649,0.881838,0.381166,0.941417,0.884529,0.335655,0.828740,0.575488,0.876003,0.882003,0.212721,0.772681,-0.270080,-1.117864,-0.032760,1.308731,1.032524,1.250164,1.284699,0.141208,0.190787,0.767491,-0.575440,0.785715,0.138488,0.452181,1.014849,0.132761,0.495757,-0.097500,-0.109248,0.479577,1.447431,0.257959,0.489986,0.070620,0.280618,0.395337,0.238071,0.120685,0.363344,-0.198620,0.024845,1.539432,1.483177,0.459048,1.225504,-0.272430,1.162038,0.340261,0.112478,0.207387,-0.336081,0.299665,0.085038,0.172386,0.307596,0.074948,0.431313,0.531556,1.072995,0.684514,0.876410,0.872860,0.575579,0.333354,0.143825,0.188874,-0.298331,-0.472173,0.299932,0.238012,-0.052383,0.006131,-1.228231,-0.311951,-0.009610,-0.087691,0.326167,0.534121,-0.002422,-0.028441,0.239495,0.306401,0.386087,0.571674,0.125499,0.378807,0.773289,0.797420,0.797440,0.090548,0.007355,0.742149,0.939485,0.460523,0.290299,-0.588254,-0.577581,-0.668913,-0.777553,-0.520799,-0.240026,-0.363879,-0.461047,-0.796852,0.578284,0.473077,0.675285,1.054216,1.069303,1.439125,0.915164,0.300012,0.037502,0.724836,0.678230,0.816214,0.982928,0.565081,0.694266,0.840602,0.730461,0.754841,0.905944,0.726401,-0.160031,-0.279402,-0.323074,-0.043805,-0.514638,0.172696,0.354545,0.536836,1.749824,1.247042,1.255765,0.847976,1.491679,0.791530,1.400799,0.332234,0.865707,0.086336,0.657099,0.109970,0.282480,0.530015,0.022645,0.707327,0.012604,0.977200,0.066824,0.537886,0.924528,0.805159,0.490001,0.669113,0.424262,1.111514,1.073072,0.452273,0.536249,1.518092,1.220860,0.722939,1.038798,0.778745,0.854063,0.833730,0.639205,0.970627,0.017792,0.171667,0.344279,0.585467,0.099979,0.796808,0.621448,0.993805,0.063967,0.613392,0.221790,0.561194,0.038020,0.389657,0.147252,0.835332,0.710330,0.862866,0.870189,0.504018,1.033523,0.173666,0.770263,0.139586,0.332845,0.354640,0.074129,0.567248,0.496170,0.756951,0.931791,0.580126},{0.483322,0.628925,0.926847,0.428083,0.442091,0.238838,0.656117,0.510514,0.542253,0.421522,0.082308,0.037385,0.351997,0.317991,0.584918,0.820215,0.109775,0.873470,0.329295,0.288949,0.224921,0.083193,0.677175,0.386364,0.292825,0.449171,0.919004,0.495437,0.901639,0.496658,0.110111,0.055940,0.413770,0.591225,0.212528,-0.167637,0.024361,0.249280,0.783611,0.788557,0.254012,0.446850,0.372869,-0.027768,0.476130,0.076604,-0.021228,0.295098,0.712938,0.534914,0.177859,0.580187,0.474044,0.045289,0.428022,0.925443,0.191382,0.534532,0.335398,0.181555,0.177526,0.242421,0.310592,0.484725,0.616448,0.425029,0.028292,0.081656,-0.033293,-0.643119,-0.054069,-0.477696,0.156719,-0.383101,0.257833,-0.349462,0.631619,0.428325,0.064655,0.272090,0.768265,0.267830,0.062563,0.246101,0.163610,0.992706,0.303140,0.848826,0.644764,0.750397,0.623651,0.187137,-0.203405,-0.454934,-1.077278,-0.743928,-0.365803,-0.843585,-1.011109,-0.235315,-0.500895,0.028301,0.150692,0.321299,0.653779,0.677729,0.707270,-0.078385,0.735737,0.602671,0.701667,0.067873,0.621326,0.059267,0.157170,0.007280,0.379220,0.823961,0.337170,0.279368,-0.232648,-0.005688,-1.065559,0.034175,0.099522,-0.169006,-0.145107,0.524275,0.625821,0.671126,1.101911,0.916867,0.518662,0.833150,0.736587,1.268510,1.078927,0.684173,0.884074,0.049327,0.246071,0.075869,0.214270,0.159751,0.694977,0.362389,-0.186986,0.045232,0.382106,0.304674,0.131717,0.896046,1.274315,1.153719,0.863698,0.571501,0.564118,0.969832,1.256751,1.047332,0.982983,0.383150,1.018406,1.773982,0.674366,0.061420,0.140959,0.760566,0.572466,0.488845,0.498144,0.718522,0.769437,0.645537,-0.375259,-0.033173,-0.554358,0.329792,0.522485,0.761030,0.997693,0.893434,1.135271,0.303505,0.324387,1.336105,0.709463,1.382036,0.948263,1.110324,1.207916,1.891942,1.401960,0.441332,0.522831,0.447613,0.769372,0.379712,0.411549,0.481880,0.193959,0.246276,-0.474621,-0.047215,0.257558,-0.062655,0.785856,-0.356608,-0.389077,0.493039,2.042724,1.678187,1.313607,1.015112,1.431564,1.275714,1.615403,1.117288,1.253222,1.841763,1.304354,1.135668,0.698618,0.635883,0.446303,0.861593,-0.105163,-0.434281,-0.842757,-0.338389,-0.100015,-0.150696,-0.806374,-0.212633,0.135488,-0.336536,-0.473645,1.220861,1.113085,0.703928,1.254904,0.956356,1.520637,2.013502,0.632562,1.042135,0.836023,1.727563,2.176845,1.558577,1.085087,0.412458,0.204138,0.502831,0.284091,0.291688,-1.097385,-0.581217,-0.419562,-0.497773,-0.247024,0.327455,0.879585,0.884945,1.240810,1.153813,-0.237763,0.047198,0.333026,0.908161,1.753517,0.670591,0.541322,0.062654,0.772659,1.190630,1.805858,1.667664,0.252438,0.847504,0.148778,0.462828,0.176735,-0.282370,-0.668127,0.000077,-0.253546,0.964700,0.675222,0.769860,0.915201,1.171726,1.598034,-0.588453,-0.990458,0.799357,1.083297,1.006766,0.839414,0.516735,-0.066420,0.018402,-0.278717,0.269927,1.317069,1.768832,0.459383,0.488762,0.086123,0.860187,0.481918,-0.047575,-0.449973,0.247084,0.181379,0.250213,1.142473,1.223361,1.349328,1.794041,1.744766,-0.635315,-0.514607,1.129282,2.016803,1.931395,-0.315288,0.775522,0.597839,-0.777829,-0.318423,-0.455703,0.369475,0.696904,1.192289,0.931538,0.617847,0.169373,0.551626,0.299916,0.053859,0.515903,0.607017,0.983836,1.568055,1.345484,1.422929,1.589511,2.164219,1.014064,-0.309985,0.207268,1.043149,0.085146,0.696394,1.043009,0.892932,-0.386503,-0.315716,-0.621549,-0.169301,0.737253,1.017489,0.402812,0.855922,0.318219,0.789634,0.688402,0.864867,1.074423,1.400541,1.733192,1.990876,1.454771,1.187534,2.727449,1.776639,1.043736,-0.196508,0.425876,0.684177,1.910005,1.259741,0.941043,1.060866,0.597089,0.094237,-0.987083,-1.340660,0.064890,0.625587,0.617725,0.975161,0.622529,0.011923,0.925990,1.493883,1.279560,0.584943,2.117531,2.553880,1.768308,1.224140,0.866047,1.959277,0.438938,-0.672209,0.078695,0.641922,1.760140,0.801685,0.510212,0.030711,0.178251,0.097483,-0.961147,-0.602621,-0.072265,0.591820,0.481812,0.323753,0.466229,0.359696,0.755578,1.712166,1.451804,0.157860,1.379790,1.813572,1.464574,1.122325,1.028607,0.911690,-0.824802,0.032523,0.052852,0.962605,0.284275,0.216276,-0.306480,-0.459512,0.050322,-0.184180,-0.878859,-0.423147,-0.235284,0.577999,0.237552,0.305338,0.406318,0.074199,0.985665,0.747879,0.510249,0.493587,1.066489,0.672565,0.466484,0.259108,0.666459,0.441451,-0.050554,0.131868,0.413277,0.280839,0.203907,-0.757224,-1.025153,-0.049218,0.065400,0.059255,0.479806,0.210109,0.267098,0.713955,0.210519,0.759941,0.067170,0.659991,0.501125,0.083740,0.840801,0.901915,0.528116,-0.072510,0.144815,-0.482072,-0.338162,-0.027828,-0.028278,0.897124,1.366849,1.295177,0.622792,0.410187,-0.428176,0.382432,0.144541,-0.310771,0.273201,-0.193314,-0.141365,0.324907,0.529623,0.054933,0.606647,0.289111,0.940037,0.611060,1.213348,1.398922,0.587023,0.432830,1.121414,0.445529,-0.097434,0.084340,0.418561,0.727115,0.455424,0.444299,-0.379662,0.244369,0.662120,0.693168,-0.217520,-0.624876,-0.055887,0.144300,0.553540,0.028523,0.077507,0.608509,0.081149,0.438306,1.012882,1.332904,1.477877,1.084120,0.907105,0.150022,-1.105239,-1.018187,-0.300921,0.034592,-0.544020,-1.152990,0.291740,0.337510,0.051754,0.087633,0.428965,0.039827,-0.169981,-0.620093,-0.265666,0.840880,0.275095,0.721780,0.204182,0.063021,0.784753,0.042868,0.506126,0.913410,1.608418,0.748874,-0.472254,0.420876,-0.072351,-0.485012,-0.295457,-0.446209,-0.913388,-1.092763,-0.023357,1.206013,0.509291,0.624797,0.549810,0.559440,0.233768,0.616788,0.719311,0.497674,0.111196,0.032386,0.418165,0.828272,0.498769,0.134633,0.538241,0.711520,1.513485,0.900276,0.289657,0.158454,-0.052329,0.115587,-0.513294,-1.076076,-0.577474,0.105862,-0.021994,0.462270,-0.503040,-0.060139,0.678173,0.754978,1.900822,1.889693,1.087133,0.237311,0.335622,-0.011392,0.361675,0.211890,0.977599,0.013171,0.479985,0.614398,0.281242,0.771830,0.098439,0.307130,0.829079,0.637146,0.964122,0.018933,0.259277,0.324343,-1.086961,0.266893,0.702563,1.136823,1.516029,1.895631,1.290117,2.075259,0.909173,0.331386,0.355435,0.913941,0.517838,0.856990,0.504166,0.656269,0.304621,0.876090,0.751267,0.410213,0.856680,0.889782,1.073360,1.470190,1.797426,-0.016661,-0.105987,0.125673,-0.365059,0.662856,1.160759,0.252052,1.221990,1.428685,1.505356,1.261328,0.623332,0.811624,0.933838,0.092306,0.003082,0.704794,0.884060,0.247023,0.844243,0.759934,0.029006,0.305320,0.680873,0.907407,1.311871,1.513739,1.195971,0.203081,0.404463,-0.203891,0.002077,0.553876,-0.509309,1.074209,0.668013,1.574448,1.648879,1.616512,0.594806,0.834004,0.832038,0.455570,0.622333,0.201483,0.696005,0.794550,0.405788,0.112888,0.433560,-0.050219,0.976869,0.256725,0.350420,1.047855,1.103177,-0.439689,-0.110534,0.579011,0.371976,0.154832,-0.298488,0.056613,0.337651,0.918210,0.889062,1.276209,1.134837,0.688603,0.300464,0.515947,0.770531,0.968230,0.158208,0.929960,0.016992,0.773453,0.263590,0.222866,0.546658,0.181791,0.958435,1.213264,0.555586,0.673180,1.173761,0.834478,-0.198140,-0.346081,-0.202408,0.383358,0.256735,0.296887,0.024469,0.272777,0.728676,0.076449,0.003754,0.706656,0.274087,0.652333,0.449263,0.243477,0.865902,0.803308,0.617634,0.671199,0.326979,0.025380,0.820314,0.509429,0.957332,-0.026962,0.297477,0.856769,0.508244,0.659389,-0.048397,0.393797,0.417632,0.880421,0.819023,0.839474,0.696423,0.651906,0.464217,0.544511,0.765099},{0.179296,0.827326,0.355327,0.423139,0.560472,0.737053,0.109073,0.785302,0.386944,0.169164,0.126988,0.642201,0.523764,0.318710,0.956175,0.458632,0.758415,0.775018,0.465255,0.210974,0.914365,0.312143,0.106449,0.726890,0.456526,0.191504,0.624470,0.682699,0.123753,0.392376,0.994324,0.915830,0.617359,0.670688,0.870412,0.214222,0.903271,0.879372,0.340830,0.209547,0.989423,0.288288,0.077012,0.440796,0.112191,0.816667,0.538706,0.185048,0.173138,0.176627,0.300519,0.241707,0.867946,0.392376,0.808557,0.495224,0.418165,0.834712,0.126316,0.836268,0.826563,0.371977,0.063110,0.950454,0.440852,0.794630,0.827872,0.363394,0.850768,0.705288,1.168439,0.059999,1.056420,1.245035,1.215230,0.892027,0.895283,0.500740,0.219176,0.442453,0.287630,0.619251,0.679006,0.236579,0.118503,0.013184,0.594012,0.898389,0.821490,0.117237,0.833603,0.087928,0.204008,-0.314564,-0.174952,0.509309,0.470600,0.614319,0.744813,0.048159,-0.047901,0.558518,0.403522,1.200008,0.586956,1.014118,0.403099,0.274785,0.748312,0.195585,0.694654,0.951018,0.445112,0.707846,0.234687,0.561987,0.855284,0.961688,0.457251,0.199206,0.553957,0.329498,0.212739,-0.416897,0.051639,0.628658,0.008610,0.635064,0.611594,0.509236,1.034370,0.733932,0.942780,1.205276,1.394036,0.909037,1.003000,0.664173,0.931374,0.154059,0.817682,0.389538,0.945799,0.698624,0.034704,0.606053,0.107822,0.153630,0.749533,0.712442,0.277136,0.412524,0.872323,0.481409,0.682092,0.403017,-0.093669,1.010843,0.771472,1.168319,0.357929,0.645615,0.977859,1.431768,1.226762,0.549715,0.233162,0.828178,0.103183,0.351329,0.681183,0.545028,0.073211,0.229401,0.390101,0.347809,-0.032772,0.630282,0.311855,0.483436,0.350059,1.215248,0.963226,0.818006,0.667675,0.225661,0.747008,0.901965,0.967957,0.645737,0.462802,1.105277,0.993390,0.536368,0.913782,0.173820,0.795526,0.048194,0.715678,0.300712,-0.066807,0.517840,-0.361696,-0.080021,-0.259536,0.701452,0.038528,-0.226865,0.029643,0.138803,1.577393,1.928636,0.481694,1.172788,0.071962,0.269264,0.328559,0.121712,0.428612,-0.133719,1.076687,0.964602,0.549992,0.719014,0.345378,0.924937,0.504132,0.281361,-0.267174,-0.462344,-0.175104,-1.268138,-0.344002,-0.840052,0.477919,0.154731,-0.398723,0.669711,1.086739,1.611608,0.320012,1.305381,-0.330913,0.337502,0.097530,-0.303732,-0.767886,-0.793243,0.206386,0.997394,0.341221,0.550650,0.359386,0.853525,0.353931,-0.108401,0.101685,-0.548521,-0.634155,-0.111884,-0.877504,0.088885,-0.382655,-0.119182,-0.134302,1.230989,0.769143,0.967948,0.283139,0.049661,0.019101,0.376788,0.024726,-0.406915,-0.858113,-0.407727,0.971352,0.334440,0.222261,0.853133,0.887051,-0.000482,0.274942,0.402787,-0.131926,-0.611756,-0.611353,0.634281,0.150815,0.465492,-0.380283,0.023161,0.359759,-0.207392,0.515037,0.745638,0.885004,0.276355,0.375802,-0.531995,-0.512103,-0.991806,-1.036799,-0.186851,0.439353,0.851388,0.577454,0.054763,0.514420,0.477694,0.151830,0.255095,-0.303870,0.533024,0.343178,0.712237,1.362195,0.347269,0.672407,0.877575,1.038058,0.022287,-0.569719,0.846323,0.929891,1.729941,0.181332,-0.145292,0.258913,-0.745084,-0.648636,-0.299681,-0.549881,0.553028,0.187557,0.316186,0.483139,0.720144,0.012182,0.139410,-0.219177,0.884190,1.493545,0.945668,1.564580,1.528870,1.801936,1.694740,1.690899,1.017418,0.084178,0.468319,0.793811,1.584413,1.446202,0.145456,-0.163989,-0.091972,-0.583029,-0.477161,-0.360744,-0.050829,0.369215,-0.008181,0.553545,0.039202,0.041544,0.786177,1.403297,1.142301,2.186394,1.864390,1.362524,1.313067,1.278601,1.877923,1.937925,0.795343,0.367168,0.922503,0.766772,1.741015,1.155056,-0.288781,0.158399,0.678988,0.581630,0.561756,-0.277072,-0.568196,-0.119218,-0.037010,0.829562,0.812749,0.374123,0.759544,1.064645,2.396041,1.845431,1.881466,2.364915,1.981399,0.729107,1.309220,1.050992,-0.585164,-0.843034,0.619699,0.898828,1.084078,1.236292,0.295885,0.772985,1.040831,0.600058,0.121512,-0.379669,0.347571,0.117854,0.583591,0.271817,0.927514,0.602244,0.570313,1.224730,1.474102,1.252537,1.409427,1.682247,0.598725,1.377212,1.215174,0.623278,-0.386256,-0.516173,-0.105558,0.477919,-0.007521,0.545855,-0.106146,0.324585,0.753226,1.030268,0.384661,0.080544,-0.388775,0.542354,0.469887,0.096133,0.348606,0.245610,0.882737,1.001552,0.733048,1.063655,0.809191,-0.056470,-0.000533,1.348603,1.597963,-0.234141,-0.512049,0.654125,0.176079,0.306179,-0.229650,0.856903,0.334968,0.461407,0.758718,0.724402,-0.164410,-0.151235,-0.185703,0.464066,0.264370,0.808313,0.038175,0.692254,0.844770,0.216964,0.802958,0.732911,0.742729,-0.464069,-0.435757,-0.084268,0.403435,-0.493871,0.140315,0.454519,1.116754,0.830346,0.598432,1.218135,1.247385,0.593727,0.284708,0.058278,-0.258348,-0.665192,-0.611074,0.586100,0.521769,0.067476,0.133518,0.687711,1.106346,0.512861,0.317046,0.684656,1.095983,0.522021,0.195293,-0.106240,-0.441310,0.414813,0.828459,0.893680,1.133492,1.966121,1.027038,1.126561,1.549694,1.363449,0.203624,0.413002,-0.054646,-0.342575,-0.029057,-0.036765,0.269397,0.106967,0.586108,0.930578,0.476387,0.730772,0.834447,0.692239,0.332325,0.397971,0.107991,0.717726,1.693035,0.375086,0.205976,1.047770,0.489654,2.093649,0.802230,0.480719,0.798244,0.851033,0.149530,-0.327201,0.075630,0.393032,0.263310,0.194017,0.720161,0.931913,0.444502,0.625681,0.850903,1.003351,0.405355,0.560288,-0.134869,-0.276387,0.691955,0.644811,0.918306,0.663390,-0.466937,0.441104,0.248615,1.272328,0.831720,1.123161,0.511635,1.130815,0.841561,0.297306,-0.154667,0.284814,0.462387,0.640157,0.324961,0.010376,0.658847,0.288530,0.974628,1.128910,1.296668,0.187276,0.284608,0.167839,0.533081,1.304238,0.792142,0.616189,0.007737,0.445200,0.943329,1.621829,0.616041,1.222869,1.220711,0.518374,1.000161,1.182024,0.519642,0.889677,0.468877,0.128791,0.331370,0.677908,0.743156,0.365728,0.232775,1.011777,0.564025,0.011774,-0.487472,0.743485,0.263577,0.106810,0.062286,0.375310,0.582354,0.404226,0.287829,0.623193,-0.188293,0.466866,0.362682,1.237922,1.400822,0.884904,0.365451,0.748058,0.652064,0.577607,0.166082,