#define RESOLUTION_X 320
#define RESOLUTION_Y 240

#define CENTER_X 160
#define CENTER_Y 120

#define CHAR_COL 80
#define CHAR_ROW 60

#define CENTER_COL 40
#define CENTER_ROW 30

#define SDRAM_BASE            0xC0000000
#define FPGA_ONCHIP_BASE      0xC8000000
#define FPGA_CHAR_BASE        0xC9000000

#define LEDR_BASE             0xFF200000
#define HEX3_HEX0_BASE        (volatile long*) 0xFF200020
#define HEX5_HEX4_BASE        0xFF200030
#define SW_BASE               0xFF200040
#define KEY_BASE              0xFF200050
#define TIMER_BASE            0xFF202000
#define PIXEL_BUF_CTRL_BASE   0xFF203020
#define CHAR_BUF_CTRL_BASE    0xFF203030
#define PS2_BASE              0xFF200100

#define PS2_IRQ               79

#define MPCORE_GIC_CPUIF       
#define ICCEOIR                0xFFFEC110
#define ICCIAR                 0xFFFEC10C

#define BOX_SIZE 5
#define CANVAS_SIZE 28

#define BORDER_LEFT 16
#define BORDER_RIGHT 302

#define BORDER_TOP 16
#define BORDER_BOTTOM 222

#define SENSITIVITY 0.20

#include <stdio.h>
#include <stdlib.h>
#include <string.h>
#include <math.h>
#include <time.h>

#define NUM_TEST 5
#define NUM_TRAIN 100

#define SIZE 784

#ifndef M_PI
    #define M_PI 3.14159265358979323846
#endif


/************************************************************************************
*                                                                                   *
*   Datasets                                                                        *
*                                                                                   *
*************************************************************************************/

double weightsOne[84][784] = {{0.812922,0.361766,0.459548,0.448225,0.590716,0.473800,0.484268,0.199713,0.134648,0.620746,0.185736,0.233009,0.928963,0.641293,0.689779,0.759117,0.073428,0.519974,0.642109,0.499313,0.930143,0.110294,0.212043,0.299844,0.397870,0.898129,0.879147,0.396374,0.246498,0.642598,0.659352,0.360607,0.402081,0.142247,0.927952,0.261916,0.600862,0.923943,0.489445,0.066936,0.281556,0.116132,0.092292,0.829733,0.202547,0.288209,0.842026,0.612335,0.578406,0.617361,0.220547,0.931304,0.260323,0.020569,0.481857,0.379223,0.821650,0.656819,0.466292,0.186435,0.802335,0.466659,0.911721,0.789166,0.344092,0.204750,0.749509,0.846477,0.304278,0.603496,0.727630,0.726380,1.117126,0.559010,0.481410,0.525187,0.754878,0.730563,0.132813,0.730292,0.183527,0.181590,0.532487,0.446974,0.387066,0.371258,0.940184,0.367570,0.116076,-0.016081,0.431451,0.662182,0.358126,0.840102,0.545380,0.330588,0.403724,-0.121155,0.076092,0.583128,-0.133535,-0.466905,-0.201889,-0.126302,0.358699,0.397172,0.060844,0.865777,0.774666,0.076331,0.986724,0.899991,0.951384,0.531266,0.032228,0.973983,0.760980,-0.033277,0.217904,0.368613,0.048510,0.050283,0.078602,0.311738,0.361816,1.418814,1.016593,0.424317,0.971132,0.629714,-0.618731,-0.110682,0.720361,0.288965,0.307733,0.778162,0.379306,0.391008,0.778458,0.215751,0.788781,0.717978,0.287454,-0.001174,0.288288,0.101884,0.862103,0.036825,0.775666,0.542328,0.446229,1.375151,2.165355,1.604506,2.409722,2.006598,1.413887,0.884857,-0.138884,1.249337,0.742753,1.329748,0.844233,0.336246,-0.007643,0.033125,0.117870,0.463549,0.031251,0.946813,0.906579,0.530253,-0.024568,0.263551,-0.156748,0.280560,0.405582,0.648055,0.303019,0.317673,0.508345,0.339186,0.974555,0.176900,0.252913,0.565574,-0.140129,0.368513,0.881915,1.903778,2.047591,1.642941,-0.307447,0.193562,0.655370,0.329957,0.590899,0.271993,0.870846,0.858519,0.062104,0.797375,0.792296,0.578274,0.233989,0.794544,0.736526,0.271886,0.387522,0.866753,-0.434894,0.235257,-0.021332,-0.306465,0.416061,0.069592,-0.107155,1.675980,2.337674,1.831533,0.308037,-0.466185,-0.294240,0.746513,0.762505,0.394606,0.929140,0.625463,0.165490,1.094709,0.745687,0.774947,0.143820,0.925288,0.139840,-0.170117,0.762460,1.289457,-0.236810,0.370404,1.129935,0.262196,0.087647,0.812712,0.148172,0.364698,0.701065,0.774044,0.233174,-0.729988,0.230593,0.417756,0.303842,0.649548,0.418093,0.729926,-0.025311,0.418024,0.898177,0.579406,0.298076,0.535557,0.679118,0.694819,0.455080,0.183085,0.610054,0.585424,0.844849,1.132294,1.393144,0.975917,0.137716,0.062618,0.025707,0.360025,-0.809053,-0.401999,-0.129732,0.465574,0.477676,0.515317,-0.007475,0.403712,0.758094,0.698505,0.913708,1.522013,1.026066,1.672174,2.182403,1.291261,1.742506,1.198282,0.306182,0.717432,0.024232,-0.104246,0.550866,0.362973,-1.166954,-0.305081,0.823300,1.060294,-0.135561,-0.533745,0.569573,0.125031,0.664754,0.899176,0.126166,-0.017204,0.418859,0.943115,0.461177,1.967356,1.276024,2.094287,1.383148,0.721128,0.524374,1.200981,0.599325,0.062881,-0.574528,-0.641796,-0.522738,0.177372,-0.311051,0.925154,2.078610,1.580917,0.657424,-0.515036,0.490328,0.423686,0.126072,0.340535,0.689027,0.642660,0.180648,0.736606,1.274160,1.427471,1.286168,1.528738,0.708019,-0.523887,0.404241,1.162134,0.395982,0.257625,-0.491246,0.623112,0.081083,1.263937,1.615873,2.573418,3.048887,3.379194,2.228693,0.276646,0.276517,0.989706,0.617908,0.560563,0.144286,0.624100,0.078971,0.391508,0.972215,0.970134,1.058073,1.426241,0.309628,0.593854,0.056326,0.481091,-0.340310,1.521697,1.083073,0.145417,0.489364,0.650657,1.369430,1.664099,2.215877,2.007995,1.694242,0.174309,0.342322,0.881440,0.249336,0.184689,0.154933,0.780475,-0.295218,0.409803,0.923840,0.116014,0.613591,0.590668,-0.292145,0.319824,0.427501,-0.229647,1.260757,1.387081,0.816454,0.685554,0.496946,0.310864,0.240853,0.219894,0.549227,0.882165,0.990495,0.731865,-0.002862,0.793191,0.420240,0.379405,0.667247,0.387288,-0.081639,0.432393,0.128078,1.268811,0.573842,1.245266,0.418283,0.393883,0.324039,1.116609,1.158237,0.374831,0.902786,0.464030,-0.225073,-0.527844,-0.327734,-0.809492,-0.037479,0.121503,0.163639,0.204499,0.777286,0.159725,0.183020,0.112278,0.900163,0.565321,0.143118,0.303181,0.335696,0.745873,1.694379,1.498451,1.087841,0.879350,0.758402,0.384950,0.131192,0.110847,0.244846,-0.245345,0.052172,-0.839046,0.058735,-1.098049,-0.466927,0.405833,0.802596,0.079793,0.767232,0.984824,0.871761,0.615962,-0.036905,0.511593,0.132895,-0.591931,-0.444532,0.637002,1.529611,1.751308,1.824483,2.318836,2.182803,1.445846,0.681191,-0.512393,-0.049218,-1.012203,0.044408,0.275274,0.305416,-1.206521,-0.487360,0.003471,0.120341,0.505432,0.937755,0.457821,0.342906,0.077181,0.538031,-0.009112,-0.548824,-0.185471,-0.337066,0.021607,0.936977,1.699365,2.311232,2.755313,2.540592,1.484830,-0.389018,-1.009312,-1.082264,-0.495638,0.340115,0.558475,0.151657,-0.605678,-0.247792,0.155085,0.075400,0.746453,0.544166,0.825963,0.670980,0.909609,0.908021,-0.023622,-0.527352,-0.109625,0.355209,0.491547,0.719781,1.581704,1.302876,1.511762,0.636317,0.573755,-0.417349,-0.852159,-0.133168,0.113157,0.882807,0.788178,0.726853,0.060065,0.830706,0.460064,0.645229,0.766672,0.586795,0.336318,0.642964,0.657573,0.345910,-0.270288,-0.744228,0.109323,0.625222,1.741473,0.747049,0.299090,1.767796,1.857701,1.236487,0.666295,-0.593175,0.476725,0.956327,0.730246,1.521663,1.001936,1.262663,1.372438,0.407182,0.237533,0.579986,0.824945,0.242645,0.532426,0.895505,0.922575,0.885031,0.239559,0.154784,0.250312,1.742078,2.278944,1.125441,0.539208,0.932227,1.800702,0.678825,0.809429,1.010324,0.812412,0.846029,1.905571,1.528789,0.826336,0.810597,0.765438,0.431167,0.960136,0.884238,0.106925,0.741136,0.873959,0.038240,0.427870,0.278085,0.525992,-0.466806,0.484549,1.111034,1.455548,1.191724,0.691180,0.858514,0.873915,0.536168,1.654862,1.923869,1.853020,1.582557,1.117669,1.380493,1.024184,0.671204,0.569602,0.229071,0.484915,0.677130,0.061877,0.902920,0.360088,0.607410,0.479415,0.357231,0.497364,0.187316,-0.549324,-0.425627,-0.265913,0.751702,0.787360,0.298957,1.018287,1.380227,1.876687,2.611498,1.507126,1.437333,1.654921,1.479866,0.670486,1.064390,0.689941,0.071370,0.789874,0.812352,0.516859,0.242479,0.441145,0.192999,0.984436,0.804550,-0.010972,0.232050,-0.126038,-0.675958,-1.794368,-1.301847,-0.584554,-0.710498,0.154309,-0.076772,0.112466,0.490716,0.895953,0.180907,-0.270048,0.416036,1.001072,-0.047420,0.216252,0.239342,0.212454,0.175359,0.232370,0.605267,0.930876,0.583789,0.386608,0.424467,0.264570,0.171646,0.162181,-0.193906,-0.743488,-0.783739,-1.329288,-1.501321,-1.701518,-1.137353,-0.854431,-0.875813,-0.618067,-0.266237,-0.654634,-0.579470,-0.157490,0.205232,0.575718,0.048898,0.459719,0.486483,0.865933,0.690155,0.129337,0.273476,0.522691,0.219855,0.824013,0.308286,0.111540,0.275881,0.637933,0.036398,0.179352,-0.526345,0.176964,-0.400831,-0.233524,-0.495766,0.023002,0.432057,0.392841,0.186413,0.424475,-0.010475,0.113432,0.379605,0.127886,0.917168,0.908780,0.118229,0.877621,0.172063,0.863430,0.687857,0.151555,0.552232,0.654759,0.775629,0.111062,0.584262,0.611673,-0.000899,0.345541,0.334304,0.278690,0.459442,0.597592,0.645252,0.661327,0.125404,0.523590,0.934959,0.068077,0.037999,0.051737,0.852077,0.046754,0.807703,0.762627},{0.865993,0.108005,0.855861,0.299387,0.081118,0.378918,0.116550,0.830378,0.949248,0.190130,0.039552,0.180639,0.958574,0.575291,0.228217,0.659719,0.362560,0.062471,0.636494,0.095767,0.065981,0.935026,0.017640,0.114139,0.050600,0.285531,0.781457,0.191229,0.270669,0.601367,0.915555,0.514847,0.210120,0.788659,0.110855,0.142086,0.348484,0.172578,0.863258,0.766847,0.841613,-0.094167,0.319384,0.698927,0.852871,0.688015,0.359610,0.085068,0.781064,0.761585,0.835274,0.808160,0.582080,0.968291,0.876492,0.552416,0.019837,0.541612,0.475021,0.864516,0.559386,0.062105,0.717357,0.629139,-0.055533,0.292269,-0.023339,0.168620,-0.098159,-0.443219,-0.285891,0.303647,-0.010471,0.094132,-0.369830,0.265260,-0.151104,0.349917,0.039953,0.134500,0.644373,0.807077,0.553087,0.185522,0.434370,0.447951,0.030885,0.193904,0.068561,0.336903,0.678299,0.235023,0.304573,-0.293074,-0.286421,-0.207773,-0.994955,-1.193551,-0.745054,-1.083511,-1.069392,-0.449168,-0.400818,-0.016863,0.638309,0.379572,-0.025874,0.675769,0.863729,0.365618,0.340408,0.374798,0.415387,0.856746,0.754845,0.153137,0.802083,0.673333,-0.316290,0.079808,0.039974,-0.258276,-0.947241,-0.745649,-0.473138,0.413290,0.899647,0.988606,1.021425,1.239496,-0.139217,-0.176698,1.205747,0.284807,0.279775,0.901182,1.050759,1.090930,0.128199,0.075240,0.104709,0.715049,0.188055,0.433489,-0.132113,-0.499301,-0.374574,-0.231529,-0.571543,0.396898,0.683878,1.520475,2.129936,1.733770,1.952770,1.554970,1.683967,1.687473,1.002832,1.064663,2.046738,1.664349,1.524676,1.870810,0.946394,0.477393,0.511569,0.654722,0.656850,0.439443,0.937038,0.109934,-0.024424,0.248980,-0.570144,0.369931,0.629602,1.576605,1.580635,0.894930,1.233612,0.859897,0.803470,0.152201,-0.228070,-0.256309,-0.826787,1.134037,1.474040,1.862272,3.143897,3.360147,2.342046,0.620361,0.255576,0.249475,0.965697,0.093464,0.950905,0.185531,-0.047255,-0.114344,0.977995,1.020569,1.654019,1.557134,1.350051,-0.287533,-0.729744,-0.138622,-2.159461,-0.639549,-1.020402,-1.227777,0.093203,0.727792,0.693368,2.291239,3.311503,4.209223,2.128121,1.303764,0.468361,0.968727,0.690540,0.775792,0.560283,0.000054,0.264189,0.293107,1.595013,1.441259,1.447258,1.433888,1.494148,0.626603,0.901584,0.764837,-2.015588,-1.358702,-0.420783,-0.740592,1.242677,1.562264,1.740354,2.139022,2.446015,3.449547,2.674848,0.838604,0.832726,0.991051,0.423902,0.306723,0.616588,-0.398955,-0.071674,1.164220,1.466227,1.394679,0.505359,0.885767,1.566649,1.279071,1.010425,-1.005570,-3.308028,-3.094147,-1.405603,0.189707,0.614649,1.300687,0.520686,1.416762,1.436014,2.722269,2.467423,0.603535,0.701507,0.026668,0.347179,0.823130,0.360222,-0.442128,0.770377,1.166954,1.094659,1.623132,1.572589,2.603956,3.491504,1.759759,1.965202,0.227619,-2.761676,-1.500843,-1.708279,-1.670385,-0.215166,0.384399,-0.450937,1.003220,1.368758,1.194652,1.361490,0.490894,1.065232,0.100820,0.214331,0.102363,0.806521,0.397548,0.135482,0.720531,1.080543,2.073616,2.967712,3.736253,3.235040,1.602300,2.528525,1.206634,0.166494,-0.707955,-1.358372,-1.363400,-0.487032,-0.076578,-0.054077,0.932611,0.975328,0.834260,1.509163,0.598018,0.758840,0.821735,0.011017,-0.011048,0.586800,0.438589,0.562966,0.864225,1.494870,1.911733,1.485915,2.142218,1.598178,0.843962,1.672875,1.132693,-0.486214,0.092314,-0.702412,-1.416256,-1.349637,0.516937,1.203234,1.846576,1.193279,0.639942,0.941626,1.019953,0.304792,0.746158,0.130650,0.261284,-0.004496,0.712962,0.169727,0.612448,1.839167,1.709680,1.665024,1.575342,0.268948,2.617937,1.655455,0.898924,0.062139,1.547014,0.456714,-0.235823,0.401013,1.434107,2.289691,1.651140,0.779389,0.633115,0.055776,1.041858,0.070316,0.348770,0.411725,0.819060,0.490666,0.213440,1.013406,0.852995,1.328919,0.513096,0.732135,0.938167,0.327834,1.877074,1.078132,-0.001695,0.809181,0.186084,0.557063,1.488006,0.687369,1.159300,0.090987,-0.086619,-0.251497,-0.139223,-0.190195,0.317106,0.031523,0.592955,0.880673,0.915438,0.804039,0.391988,0.523555,-0.006783,-0.132082,0.040676,0.310216,1.292494,0.310261,1.059614,0.767690,0.413187,-0.196024,0.584996,1.230339,1.645113,1.204911,-0.129678,-1.284385,-1.647902,-0.860228,-0.536349,-0.479177,0.099163,0.819751,0.434855,0.542833,0.126160,0.931843,0.071858,0.174654,0.048433,0.454216,1.112896,1.665346,1.897144,0.249745,0.513712,1.551145,1.577331,0.411589,1.064443,1.358447,1.129987,0.692588,-0.902590,-0.789816,-1.814165,-1.211964,-0.650025,-0.711224,0.531908,0.699486,0.591265,0.066836,0.654645,0.194457,-0.122027,-0.252747,-0.161042,-0.036404,1.340879,2.217605,2.441876,0.640446,1.721295,2.619813,1.526812,0.392739,-0.744431,1.544854,0.919840,0.042329,-0.459524,-0.118298,-1.453676,-0.656481,-0.658881,-0.425105,0.222335,-0.070041,0.828838,0.704611,0.969604,-0.000852,-0.345992,-0.336095,-0.224717,0.928744,0.593973,1.439061,2.135131,1.056491,1.917044,1.320442,0.357002,0.161713,-0.013965,-0.564462,-0.605924,-0.896141,-0.305999,0.082776,-1.082213,-0.813162,0.379134,-0.484464,-0.241788,0.717361,0.479298,0.291818,0.166065,0.735337,-0.239421,-0.862306,0.790852,1.376183,0.778856,0.122592,1.013911,0.218498,-0.955775,-0.426555,-0.776833,-0.973812,-0.467598,-0.821844,-0.508644,-0.385326,0.247816,-0.242752,-0.693928,0.025003,0.694725,-0.432508,-0.154715,-0.007928,0.747544,0.672109,0.097111,0.256046,-0.496900,-0.638240,0.310258,0.772283,0.731079,-0.447026,-0.798835,-0.366490,-0.500438,-0.774308,-1.040588,-1.726377,-0.383533,-0.037532,-0.059378,-0.104039,0.246455,0.536317,1.151999,1.287466,0.760004,-0.140451,0.433951,0.128416,0.989776,0.388806,0.604328,0.070519,-0.363200,-0.465338,0.228611,0.907022,1.803066,0.708316,0.347217,-0.000958,0.327379,-0.264675,-0.150797,-0.031171,0.529993,0.748196,1.005245,-0.247145,0.102714,0.037691,0.344744,0.845767,0.496637,0.415712,0.112744,0.900396,0.628468,0.988098,0.071017,0.460761,-0.251910,-0.480693,-0.300903,0.128452,0.641134,1.426198,0.383636,0.399985,1.485644,1.679234,1.520364,1.598729,2.403142,1.531736,1.653666,0.675796,0.963539,1.072859,0.947228,0.718677,0.289471,0.896497,0.466255,0.137754,0.194433,0.777093,0.460067,0.406808,-0.092249,-0.243511,-0.797135,-0.555488,-0.547039,1.570284,0.645573,1.280892,1.083750,0.986264,2.527126,3.051485,2.668760,2.853992,2.237879,1.310118,1.179862,1.944097,1.276004,0.306522,0.636651,0.165077,0.224575,0.901759,0.740898,0.380932,0.041963,0.114033,0.547562,0.285555,-0.291815,-0.682968,-1.150850,-0.517823,0.065520,0.237087,1.192101,0.735353,1.748850,1.327046,2.334025,1.486497,0.555578,0.834426,1.653249,1.210983,0.250852,0.690094,0.959801,0.846699,0.438048,0.782741,0.411481,0.942381,0.167333,0.738388,0.677846,-0.052414,-0.288866,-0.281289,0.071062,-0.437867,-1.074068,-1.334244,-1.491654,-1.300414,-0.859771,0.649886,0.930615,-0.025710,-0.113280,-0.457467,-0.308549,0.407790,-0.122176,0.820079,0.329086,0.460917,0.584381,0.739455,0.336680,0.307657,0.084140,0.645009,0.916437,0.854117,0.348065,0.497277,0.263618,0.471596,-0.494947,-0.160711,0.088837,0.012164,-0.374520,-0.283320,0.165859,-0.622858,-0.179134,-0.496436,0.156661,0.593004,0.391136,0.471460,0.090200,0.011664,0.135899,0.733543,0.586932,0.042512,0.264565,0.423231,0.198981,0.438307,0.554648,0.591167,0.080492,0.657789,0.724700,0.589649,0.818346,0.058104,0.419016,0.185503,0.318548,0.879589,0.463671,0.841109,0.743171,0.817582,0.641484,0.206132,0.946155,0.362011,0.700064,0.024751,0.400830},{0.621998,0.210822,0.286538,0.235328,0.253059,0.931303,0.231361,0.240425,0.244392,0.361248,0.457991,0.825556,0.262394,0.411079,0.260201,0.760063,0.512009,0.145604,0.144200,0.246529,0.756096,0.945097,0.222694,0.363445,0.998596,0.487045,0.642293,0.407788,0.637776,0.207678,0.700278,0.169866,0.756584,0.997711,0.821337,0.705858,0.113646,0.141274,0.962330,0.439739,0.212716,0.486854,0.861147,0.617096,0.299790,0.101217,0.294676,0.402517,1.039895,0.597388,0.137189,0.999744,0.959380,0.910031,0.307108,0.063448,0.367077,0.991577,0.251686,0.351304,0.069746,0.389203,0.980580,0.696775,0.400425,0.871423,0.690160,1.421168,0.845852,0.895929,1.438985,1.572929,1.058129,1.755420,0.625509,0.857823,0.971964,0.822691,0.831305,0.908617,0.021883,0.302835,0.115879,0.016663,0.546312,0.803858,0.364452,0.570534,0.188602,0.638777,0.839064,0.619719,-0.061698,0.458783,0.228946,0.627244,-0.129577,0.746153,1.083750,1.449876,0.740839,0.822866,1.255491,1.361347,1.731939,1.661088,1.037458,0.647983,0.384718,0.358240,0.502580,0.627155,0.693747,0.798273,0.952086,0.443189,0.512153,0.705769,0.539392,0.132955,-0.492089,-0.294810,-0.041759,-1.332113,-0.220048,-0.206691,0.529119,0.508302,0.502646,0.463478,0.637810,1.826659,1.836547,1.655365,1.837120,1.186561,0.481386,0.715630,0.525529,0.361222,0.824732,0.269997,0.604846,0.231017,0.239748,-0.175901,-0.866725,-1.155998,-0.082498,-0.547186,-0.288395,-0.725018,0.123763,0.090097,0.771788,-0.678987,-0.314378,0.572639,1.071600,1.171319,1.235592,2.268163,2.030485,1.588179,1.006663,0.171787,0.295682,0.234302,0.903226,0.675748,0.382469,-0.166688,-0.123639,-0.468640,-0.696914,-0.480604,-0.274148,-0.369957,-0.152923,-0.419829,0.259074,-0.412081,0.404030,0.455012,-0.760130,0.051420,0.462457,0.218546,1.132628,1.140092,1.375113,1.556784,1.089442,0.236517,0.072935,0.131226,0.873470,0.891555,0.884079,-0.056194,-0.213880,-0.906904,-0.968473,-0.039929,-0.608539,0.240795,-0.273099,0.346426,0.232800,0.688768,0.949247,1.173015,0.336137,-0.320709,-1.079640,0.017086,-0.016622,0.302395,0.129564,0.675357,1.521754,0.511821,0.679649,0.082836,0.613282,0.839373,0.662163,-0.199574,-1.070007,-1.120111,-1.109558,-0.868315,0.187849,-0.461922,0.302545,0.299602,0.852196,0.540722,0.984448,0.258384,-0.295028,-0.655480,-1.748346,-0.793323,-0.826998,-0.103771,-0.812919,0.286000,1.590800,1.353934,0.777650,0.353822,0.667348,0.455253,0.249826,0.147373,-0.500916,-0.962860,-0.595022,0.426151,0.068135,0.145612,0.563882,1.526839,0.626984,0.530183,1.222040,0.465416,-1.730875,-1.084781,-1.434533,-1.571738,-0.849910,-1.328751,-1.380436,0.522385,1.171037,0.975375,0.486439,0.399343,0.061190,0.796800,0.671420,-0.031230,0.086794,0.296886,0.069661,1.127807,1.640226,1.024463,2.187811,1.329931,1.709547,1.545350,0.989623,0.781435,-0.995027,-1.606322,-1.880297,-1.320200,-1.221309,-0.573297,-0.792172,0.777764,0.997191,0.359977,0.783234,0.639680,0.110965,0.932648,0.288176,-0.173910,0.386232,1.313956,1.157153,1.443680,1.966769,1.480700,1.410725,1.536801,1.688547,2.461393,1.321494,-0.158017,0.939913,-0.159207,-0.669483,-0.655108,-1.286236,-0.461316,0.270064,1.157141,1.017377,0.404308,0.782647,0.002779,0.501541,0.067274,0.045624,0.165475,0.513836,1.601447,1.902237,2.323175,1.221615,1.101748,0.886080,1.201139,2.103519,2.940887,1.288951,1.411762,0.820583,1.461872,0.598060,-0.551412,0.018511,1.147862,0.804532,1.763321,0.699509,0.022585,-0.096210,0.067012,0.519272,0.291543,0.558333,0.713325,1.052668,2.174355,1.844505,1.793653,1.623189,0.760523,1.375292,0.166997,0.794444,1.227549,0.748784,1.790861,0.894388,-0.079065,-0.522472,0.469053,0.024374,0.434796,1.071298,1.219755,0.479355,-0.420863,0.187643,0.220701,0.769341,0.658590,0.349710,0.424065,1.070632,1.303225,1.426950,1.207501,0.974692,1.515398,1.333692,0.822145,0.666793,0.437283,1.158405,2.036261,0.564032,-0.415425,-1.679573,-0.353334,-0.137520,0.754008,1.333760,1.145392,0.120328,0.403615,0.474975,0.508746,0.222846,0.556204,0.845533,0.343185,-0.238233,0.274132,0.341884,0.989483,1.300184,0.101914,1.037327,1.209216,0.786152,1.197088,0.672562,0.280216,1.197261,-0.230590,-0.752893,-0.332123,-1.029880,-0.306528,-0.350728,0.449969,0.392257,-0.181095,-0.307103,0.212054,0.937986,0.872371,0.729951,-0.135019,-0.732574,-0.461819,0.408180,0.785798,0.719516,0.683917,0.383181,2.412078,0.381129,0.113543,0.723344,0.197150,0.598697,-1.284825,0.010948,-1.100479,0.042063,-1.169709,-0.204768,0.413126,-0.422135,0.306490,-0.107580,0.730201,0.298563,0.633978,-0.094718,0.257954,-0.862673,-0.709412,0.266187,0.249827,-0.327759,0.531641,2.301478,2.457733,0.880198,0.982672,1.845938,0.923336,-0.518899,0.259424,0.696322,0.000405,0.651408,0.103012,-0.633822,0.145219,-0.198604,-0.333703,-0.165497,0.555798,0.114109,0.105716,0.090368,-0.167882,-0.777519,-0.486150,-0.318430,0.653797,0.258240,1.131405,1.154017,1.455842,2.305809,1.545654,1.639694,1.315966,0.170202,0.681698,1.129523,0.409381,0.867403,-0.204239,-0.228004,0.220602,-0.303212,0.135595,0.503359,0.348611,0.424940,0.734584,0.629120,-0.105893,-0.727287,-1.607593,0.388415,0.405353,0.690651,1.209029,2.006299,2.510863,2.220360,2.211201,1.783132,1.184434,0.799131,0.891473,0.570152,1.331501,0.777535,0.329826,0.737207,0.513230,0.322432,0.613835,0.553347,0.929416,0.355815,0.008656,0.000340,-0.068048,-0.310952,-1.110733,0.500504,0.798398,0.871269,1.048629,1.287676,2.654302,2.481177,1.076959,1.204030,1.182572,1.095542,1.521220,1.444432,1.487474,1.228390,1.067223,0.315719,1.242993,0.102750,0.454435,0.520322,0.937498,0.862728,0.489395,0.675074,0.320415,-0.550569,0.187674,1.027038,1.041294,1.769957,1.407943,1.878163,2.604281,2.784832,1.629415,2.081154,1.662445,0.702232,1.100802,0.866780,0.693563,0.412398,0.323999,0.921129,0.525468,0.830571,0.123933,0.939312,0.625965,0.715323,0.362926,0.247205,0.154723,0.249911,0.357578,0.028806,0.131029,0.678693,1.406149,0.748218,1.152466,1.385425,1.665319,1.195890,0.740240,0.202269,0.563048,0.349365,0.634004,0.795759,0.534573,0.298852,0.431900,0.391431,0.315230,0.895696,0.886349,0.560167,0.542314,0.834118,0.620330,-0.367638,0.275551,-0.490810,-0.872222,0.393347,0.121021,-0.427427,-0.651844,-0.038571,0.340946,0.158485,0.575212,-0.132703,0.960125,0.710383,0.501069,0.917927,1.034899,0.412639,0.944097,0.079049,0.298305,0.208086,0.591479,0.407086,0.612629,0.301535,0.687783,0.478718,0.033280,-0.545832,-0.711332,-1.357722,-0.168180,-0.218862,-0.542328,-0.589506,-0.733861,-0.468566,0.187026,0.139706,0.840813,1.316572,1.583331,0.783602,0.856725,0.791007,0.728868,0.791122,0.604145,0.951003,0.337962,0.383679,0.938749,0.864493,0.796220,0.733862,0.117198,0.370100,-0.154163,-0.442672,-0.058028,-0.220753,0.152501,-0.030253,0.239536,0.448228,0.406550,0.369515,1.243732,0.950589,1.254064,1.250258,0.556444,0.539587,0.709254,0.358545,0.378941,0.951327,0.616108,0.100803,0.943449,0.952422,0.536584,0.831787,0.928234,0.549715,0.242853,0.556172,0.054851,0.779621,0.760740,0.661523,0.427380,0.101977,0.521557,0.426643,0.294042,0.504926,0.747077,0.485636,0.227911,0.997633,0.336176,0.669090,0.007630,0.987823,0.161077,0.473281,0.020478,0.487442,0.580737,0.859004,0.703314,0.328116,0.055618,0.269131,0.279569,0.917951,0.974963,0.041294,0.905879,0.711976,0.039922,-0.040723,0.182467,-0.057808,0.776190,0.745370,0.698701,0.959820,0.076163,0.996979,0.998444,0.746574,0.705100},{0.339396,0.051027,0.140202,0.496658,0.166265,0.607990,0.428755,0.536180,0.982757,0.402600,0.166509,0.397504,0.851175,0.351006,0.675680,0.296213,0.094638,0.206946,0.383831,0.701956,0.530900,0.205512,0.663533,0.444929,0.331248,0.390393,0.329783,0.848048,0.722953,0.992370,0.452406,0.915311,0.553758,0.388592,0.633583,0.097943,0.057416,0.329993,0.440039,0.737066,0.939194,0.754127,0.020396,0.499986,0.552860,0.091536,0.940499,0.266751,0.186333,0.684279,0.598408,0.499313,0.739006,0.461531,0.957701,0.266610,0.081759,0.507645,0.824580,0.965013,0.148860,0.654439,0.821558,0.898524,0.445634,0.317641,-0.082930,-0.139644,0.630842,-0.118876,0.040761,0.301072,0.463440,-0.138809,0.242782,-0.138774,0.282638,0.278684,0.053721,0.078599,0.483962,0.686099,0.009888,0.979736,0.386120,0.105533,0.972503,0.268960,0.230654,0.461474,0.306467,0.834927,0.630150,-0.160756,0.379860,0.250423,-0.661471,-0.469747,-0.350139,0.281163,0.387738,0.715152,0.839527,0.653754,1.095432,0.215698,0.906119,0.617379,0.808601,0.405474,0.963795,0.889248,0.371075,0.758202,0.948119,0.280684,0.185615,-0.116547,-0.254247,0.088780,-0.458296,-0.953068,-0.375042,-0.444028,-0.073428,-0.099386,0.241627,1.394143,1.708787,1.421781,1.013665,1.153922,0.766265,1.224690,1.006119,1.210432,1.111436,1.150209,0.400472,0.297365,0.806330,0.466445,0.318491,0.070000,0.720914,0.524492,-0.299844,-0.718450,-0.962644,-0.570308,0.065831,0.210309,0.268066,0.564588,-0.597864,0.126737,1.296941,1.477010,1.916534,0.983874,1.698271,0.655008,1.280059,1.512333,1.771335,0.864242,0.406237,0.719752,0.127476,0.741447,0.595751,0.352696,0.000011,0.022121,-0.299239,-0.536847,0.538913,0.326661,0.676821,0.258768,0.841289,0.288011,0.237273,0.221510,0.659048,0.633285,1.718457,2.096286,1.804432,1.231734,1.186582,2.122972,2.425691,1.534475,0.928579,0.475508,0.272378,0.460542,0.477472,0.335934,0.163203,0.113477,-0.202160,0.682655,0.426700,-0.134845,0.996778,0.912516,0.326893,-0.496873,-0.236001,0.088347,0.569223,0.723340,1.656744,1.616878,1.774486,0.779966,0.930037,2.471116,2.204446,2.198183,0.470961,0.618885,0.067028,0.135705,0.212111,0.262396,-0.082952,0.524600,0.350403,0.838107,1.028099,1.214366,1.112491,2.074546,1.945386,0.833476,0.453661,-0.383827,0.910285,1.000102,1.883081,2.241679,1.309787,1.754538,2.002837,3.351245,3.892277,2.840783,1.391718,0.491428,0.999176,0.862449,0.192778,0.389508,0.257714,0.694957,0.378010,0.836779,0.552425,0.627418,1.062505,2.386495,1.101841,1.362359,-0.116269,-1.365080,-1.113221,0.088434,0.133823,0.515750,1.293397,1.852880,1.819808,3.583727,4.337488,2.893400,1.044835,0.551701,0.740501,0.231027,0.269153,0.063624,0.384714,0.534065,0.377374,0.863420,1.285622,1.040018,0.877893,0.894780,1.381366,2.145659,0.604077,-0.287901,-0.289028,-1.143583,-0.031671,-0.019846,0.761694,1.291313,1.557879,2.649764,3.610551,3.464356,1.371021,0.234224,0.232734,0.407353,0.517568,0.861001,1.073006,0.354160,1.722696,1.445023,0.679454,0.060774,1.055838,1.658245,2.024755,1.840277,1.775216,1.702485,-0.009002,0.215035,0.216857,-0.777333,-0.164898,0.024797,0.530669,0.793324,1.860724,2.254623,1.177255,0.131306,0.709555,0.427654,0.120036,1.153098,0.701689,1.256699,0.970315,1.454882,0.421856,-0.661327,1.022292,0.522282,0.637876,1.847217,1.263203,0.550521,-0.503056,-0.336711,-0.153471,-0.184516,0.422964,-0.870059,-1.093820,-1.150420,-0.184039,0.674303,1.042175,0.656879,0.481216,0.225087,0.148858,0.315389,1.218265,0.868822,0.181164,0.914417,-0.264311,-0.227496,0.243451,0.410258,1.086535,0.984839,0.259098,-0.933375,-0.705909,-0.889641,0.624805,-0.137831,0.168927,-0.396500,-1.416171,-1.860470,-0.803538,0.073212,0.714744,0.278246,0.831568,0.343060,0.369100,0.543475,0.291905,0.443065,0.439819,-0.106352,0.384242,-0.245339,-0.157980,0.356472,0.019315,1.158706,0.251449,-0.063316,-1.331563,-0.827645,0.419148,-0.019629,-0.103027,-0.656822,-0.138904,-1.072255,0.086976,-0.119421,0.030697,0.674703,0.869869,0.708489,0.696849,0.666971,0.582832,0.012758,-0.418485,-1.057335,-0.231320,-0.408726,0.086382,0.387818,1.048615,0.333107,-0.522416,-0.233270,-0.679295,0.023403,0.538557,-0.286590,-0.310734,-0.254887,0.033754,0.475188,0.273319,0.488813,0.255677,0.181521,0.681570,0.576989,0.314973,1.002535,0.219573,-0.305379,-0.350959,-0.318854,-0.677094,-0.590642,0.258797,-0.525296,0.846061,0.808452,-0.181592,0.467029,-0.409509,-0.192689,-0.146455,-0.296449,-0.064819,-0.460136,0.059556,0.570237,0.137365,0.475861,-0.065945,0.898276,0.621754,0.048902,0.925839,0.530231,1.133703,0.369595,0.968802,0.324163,0.514657,-0.029798,-1.141773,-0.456966,-0.749840,-0.989853,-0.506576,0.859137,0.766378,0.546548,-0.257051,0.265690,0.149671,0.296716,0.189905,-0.192573,0.373769,-0.387410,0.303037,0.891500,0.094577,0.072542,0.703848,1.077043,1.202922,0.951262,1.722570,1.185351,0.560876,-0.189911,0.229126,-0.044918,-1.246809,-0.638474,-0.491634,1.199373,0.875944,0.417463,-0.399323,0.079124,0.193935,0.542864,0.600012,0.057038,0.457226,-0.400367,0.873538,0.606028,0.663259,0.507551,1.038626,0.629405,0.969034,1.025442,2.437808,0.774410,1.071845,0.427178,-0.145135,-0.247550,-0.910959,-1.428271,0.077454,0.395094,-0.106705,-0.989602,-0.851930,0.716936,0.339993,0.180697,0.750754,0.731747,0.341627,0.199163,0.754219,0.338696,0.833430,0.129374,0.932324,0.223452,1.257058,1.796081,1.252339,1.077132,0.697206,0.892860,-0.050158,-0.611497,-0.783354,0.181495,0.104105,0.187317,-0.314118,0.010241,-0.567279,0.248370,0.069781,0.069308,0.751143,0.835545,0.268230,0.552718,0.095947,0.956908,0.354442,0.122227,0.264189,0.858937,0.792291,0.887758,1.555066,1.269224,1.031953,0.409328,0.051029,0.034013,0.288472,-0.341932,0.124063,0.003172,-0.350151,-0.208862,-0.985127,-0.243191,0.486538,0.876838,0.739424,0.877764,0.365492,0.230950,0.697101,0.906278,0.381726,0.974487,0.254247,0.492589,0.185380,0.112746,0.395801,0.261142,1.112318,1.099187,-0.405165,0.292532,0.647655,0.629938,1.173238,-0.011979,0.323301,-0.066872,0.366401,0.348818,0.246850,0.004765,1.334576,0.583677,0.186532,0.472223,0.271316,0.566912,0.344523,0.218848,0.221550,0.190545,0.230219,0.194441,0.406907,0.073057,0.487805,1.186204,1.643963,1.230718,0.117383,0.346393,1.286637,1.265727,1.103183,0.977787,0.471475,0.254456,0.024429,-0.160125,0.676213,0.230831,0.597640,0.800261,0.946402,0.223121,0.861995,0.081149,0.781362,0.956703,0.842124,0.557434,0.101705,0.817165,0.962380,1.084455,1.186499,1.894953,2.033303,2.057496,2.084821,1.287421,1.477284,1.439633,1.169235,0.878451,0.841717,0.201573,0.885142,0.846279,0.484801,0.401658,0.307197,0.422559,0.552416,0.422926,0.669835,0.959350,0.887195,0.208879,0.232519,0.377702,0.605685,1.172174,0.725207,1.911521,1.734216,1.704070,1.337123,1.248166,1.213306,1.721944,0.528254,0.979419,0.259114,0.893405,1.135043,0.497431,0.115379,0.907093,0.281081,0.919492,0.078341,0.980529,0.033570,0.406363,0.729406,0.587665,0.774512,0.702447,0.435839,0.051504,0.622789,1.082893,0.648074,0.325244,0.836737,0.779143,1.142821,0.843239,0.331898,1.042549,0.710022,0.811087,0.815141,0.707571,0.538867,0.691977,0.908322,0.924558,0.272103,0.364116,0.212897,0.205756,0.368694,0.691939,0.217016,0.358345,0.412506,0.826001,0.256684,0.721992,0.540244,0.866389,0.996216,0.300157,0.519116,0.548502,0.350861,0.673631,0.726991,0.148707,0.817690,0.141091,0.442610,0.541032,0.206885,0.880245},{0.684835,0.784997,0.479263,0.302316,0.944975,0.692740,0.888791,0.083529,0.347453,0.920682,0.877010,0.167241,0.751527,0.271228,0.257302,0.826624,0.716636,0.584399,0.872951,0.315744,0.610248,0.712912,0.381542,0.140660,0.983825,0.346171,0.323313,0.480026,0.403272,0.980316,0.128422,0.788018,0.772271,0.605853,0.212322,0.091739,0.496796,0.796027,0.874626,0.168768,0.464652,0.458529,0.953535,0.483819,0.168872,0.331270,0.297713,0.691454,0.895323,0.481874,0.735362,0.913301,0.207312,0.420209,0.467330,0.150975,0.478011,0.303781,0.083163,0.441939,0.364776,0.808557,0.699807,0.227784,0.512468,0.098440,0.353437,0.549560,0.370415,0.456563,1.083977,0.148847,0.885455,0.706482,0.124439,0.884651,0.175448,0.165794,0.291728,0.225401,0.540230,0.146505,0.822932,0.717490,0.806513,0.451216,0.591723,0.016235,0.496293,0.378598,0.082688,0.048708,-0.002779,0.355148,0.017892,-0.131784,-0.308673,0.069061,-0.385919,-0.038271,-0.636656,-0.401002,-0.006856,1.049104,1.257669,1.362270,1.054995,1.122090,0.948166,0.517621,0.987991,0.465560,0.815210,0.789300,0.115879,0.933762,0.918029,0.306959,-0.216296,-0.061756,0.474857,0.003430,-0.440281,-0.474833,-0.148909,0.064933,-0.485267,-1.593052,-0.456022,-0.825251,-0.222325,0.771366,1.104180,0.990829,0.945577,1.162464,1.061643,0.359752,0.025510,0.329163,0.784051,0.756981,0.002228,0.636350,0.131674,0.577362,0.148973,0.204401,0.013024,-0.319285,-0.115982,0.102378,0.460473,-0.072317,-0.992648,-0.349436,-0.527187,-0.089093,0.674130,0.751192,0.705915,1.014750,0.879505,1.477418,1.092297,0.662648,0.717603,0.401340,0.157384,0.307779,0.065054,0.467294,0.430771,0.481039,0.901986,0.624228,1.384677,0.401802,0.408036,0.906949,-0.440707,-0.875777,-1.875922,-1.610423,-0.829148,0.301538,-1.070308,-0.331558,-0.891339,1.062137,1.049530,1.912898,0.671047,0.893921,0.413717,0.529246,0.685080,0.855817,0.447711,0.639350,-0.118505,0.827189,0.945899,1.028262,1.205035,1.540731,1.175319,0.634587,-0.743556,-2.219749,-3.039107,-2.194252,-1.627846,0.197382,0.192312,0.118455,-0.728337,0.874872,1.314692,1.699208,0.373796,0.811738,0.025827,0.150845,0.739684,0.735893,0.526462,0.305666,0.798571,0.539315,1.092640,1.817810,1.242074,2.169027,0.934355,0.114666,-0.985735,-2.144642,-3.651783,-2.524238,-1.147975,0.418991,0.299340,-0.062707,-0.535530,0.257461,0.965189,1.136259,0.677682,-0.173021,0.819186,0.119583,0.636250,0.530677,0.237475,0.210740,0.646287,0.810719,0.569171,1.509304,1.501709,1.060505,1.993077,1.267287,0.182244,-3.095154,-3.913962,-3.532592,-0.403623,-0.122839,-0.208681,0.685789,-0.217388,0.596876,0.944923,1.091290,-0.197999,-0.482796,0.034026,0.903731,0.351512,0.382368,0.487867,0.716326,0.377174,0.940201,0.631690,0.219797,1.648999,1.832799,1.596930,1.332994,-0.043166,-2.479094,-4.079140,-2.747595,-0.382211,0.253404,-0.119609,-0.326376,0.593361,0.776792,0.581676,0.258751,0.125271,-0.054795,0.692060,0.325681,0.397168,0.722484,0.632580,1.075244,0.887726,0.284881,0.309746,0.748125,1.725351,2.974869,2.461044,1.385601,0.057173,-2.197793,-4.249277,-1.704487,-0.075275,-0.093277,-0.597868,-0.632673,0.586352,1.484323,1.256886,0.402309,0.659862,-0.471994,0.524418,0.941076,0.280251,0.255536,0.542176,0.562505,0.860096,0.849252,1.705210,2.458276,2.218220,2.055778,0.994423,0.497906,0.368625,-2.370866,-3.806278,-1.560313,0.053283,0.340798,-0.167738,0.413593,0.673937,0.999025,1.414120,1.442518,0.646448,0.634053,0.598098,0.930328,0.340831,0.734842,0.643681,0.211274,1.280064,1.951437,2.164930,1.823853,1.989018,1.510911,1.047359,1.003644,-1.160412,-4.068288,-3.983583,-1.803774,-0.968005,-0.948690,0.039758,0.687910,1.314013,1.671094,2.688176,2.032314,1.176488,0.086639,0.599484,0.186881,0.328532,0.813992,0.148163,0.406606,1.023595,1.961675,2.187552,2.078262,1.653753,0.961887,0.708870,0.598055,-1.143396,-3.816471,-2.946402,-2.570013,-0.904617,0.602894,0.825200,1.863908,0.851574,2.031728,2.681174,2.188680,0.399058,-0.298619,0.753011,0.429542,0.559130,0.774962,0.050304,0.294431,0.939521,0.916485,1.334005,1.648047,1.329201,1.423100,0.494777,-0.304794,-1.481625,-3.000211,-3.151824,-2.009144,-1.223809,0.839007,1.212978,1.786977,1.426987,1.304680,1.640804,1.344661,0.437840,-0.443715,0.353437,0.690909,0.994995,0.712699,0.432514,-0.301132,0.463064,0.236415,1.331018,2.257878,2.191290,1.587150,0.200283,-0.739931,-1.899261,-2.091744,-1.872663,-0.818884,-0.378764,1.650766,1.642032,1.035595,1.868439,0.806857,0.640128,1.137736,0.230052,0.360452,0.155071,0.493716,0.093204,0.378582,0.296134,-0.440235,-0.114246,0.530141,1.080744,1.602063,2.418930,1.886421,0.291971,-0.567700,-0.541247,-0.775913,0.255901,-0.214578,0.319579,1.279368,1.302590,0.636678,0.986255,0.670883,0.531915,-0.050714,0.598654,0.077029,0.423929,0.136818,0.764794,0.669881,0.596739,0.014552,-0.415687,-0.786884,-0.265365,0.404859,0.846296,0.729048,-0.398748,-0.222507,-0.457986,0.201607,0.609240,0.577007,0.826110,0.258234,0.265825,0.565605,0.911074,0.292117,-0.370885,-0.442492,0.045092,0.235780,0.541362,0.247013,0.289132,0.272141,0.196478,-0.236028,-1.014090,-0.085433,-0.075594,-0.402687,-0.051463,-0.384921,-0.418376,-1.103338,-1.163497,-0.369668,0.227064,0.263058,0.082594,-0.855994,-0.500452,-0.913080,0.107327,0.051604,-0.072599,-0.048746,-0.260176,-0.259620,0.511580,0.832272,0.527421,0.349687,0.693495,-0.421246,-0.454848,-1.130093,-1.398862,-0.672177,-1.567472,-1.948625,-0.846057,-0.575205,0.348979,-0.128259,0.342568,-0.110923,-0.237976,-0.509797,0.035072,-0.918207,-0.667613,0.153950,-0.276353,-0.194698,-0.393521,-0.042647,0.806640,0.170324,0.278207,0.916440,0.422880,-0.344112,-0.644235,-0.504914,-1.210343,-1.005622,-0.775204,-1.252887,-0.569366,0.981211,0.790684,-0.271660,-0.078608,-0.292491,0.597235,0.460511,-0.450223,-0.224064,-0.630894,-0.667831,-0.501294,0.011312,0.541440,0.677856,0.521384,0.518967,0.119816,0.664510,0.555281,0.758141,-0.078220,-0.261285,-1.091111,-1.242862,-1.090111,-0.536335,-0.268145,-0.300968,0.698381,0.513018,0.777363,0.963541,1.035492,0.152281,-0.135166,-0.032104,-0.209815,0.570040,0.324005,0.167791,-0.049442,0.766233,0.999605,0.345805,0.582476,0.789087,0.624629,0.475066,0.021466,0.119542,-0.026763,-0.666086,-0.425036,-0.717569,-0.514489,-0.413408,0.559981,0.436576,2.057000,1.476899,1.603608,0.682602,0.245417,0.125354,0.404261,-0.070074,-0.302693,0.376303,0.300232,0.119918,0.588074,0.313364,0.994324,0.857784,0.773036,0.300647,0.615619,0.698805,0.053795,-0.224000,-0.681418,-0.652815,-0.658813,0.003001,-0.131926,-0.212934,0.620944,1.122045,0.812158,0.644224,-0.094847,0.064630,0.046552,0.384856,0.091520,0.553474,-0.060936,0.424963,0.965936,0.793451,0.845180,0.086276,0.780331,0.130769,0.366337,0.479146,0.756704,0.673720,-0.154516,-0.098505,-0.424378,-0.330572,-0.422431,-0.075876,0.106899,-0.127567,0.153798,-0.098766,0.381529,-0.685900,-0.441674,-0.375485,0.073632,0.149772,0.765671,0.297830,0.436754,0.083529,0.011414,0.038179,0.891415,0.939081,0.308748,0.555226,0.458919,-0.001259,0.884481,0.640100,0.483667,-0.071188,0.449050,0.338212,0.479087,0.430142,-0.297395,0.357120,0.822802,0.715377,-0.041049,0.055015,0.591337,0.170821,0.065003,0.007263,0.571093,0.055361,0.686239,0.209967,0.887143,0.117801,0.117435,0.114376,0.489542,0.040440,0.287023,0.124020,0.163508,0.264378,0.399682,0.155246,0.908299,0.806995,0.210720,1.033213,0.596675,0.719077,0.072364,0.327926,0.323624,0.873562,0.261574,0.296121,0.532090,0.453383},{0.358165,0.469283,0.664907,0.974944,0.402692,0.400922,0.996612,0.633320,0.367565,0.984893,0.912534,0.571642,0.409988,0.362129,0.305307,0.356853,0.642262,0.641255,0.052797,0.170263,0.528520,0.520524,0.248238,0.742393,0.362255,0.292917,0.338603,0.562853,0.682821,0.815607,0.827387,0.397198,0.865871,0.444441,0.678387,0.595071,0.112028,0.436573,0.200067,0.481271,0.212281,0.260068,0.164131,0.795429,0.349804,0.806517,0.769396,0.715501,0.115037,-0.019950,0.896967,0.171055,0.215033,0.890133,0.555132,0.465346,0.590594,0.431776,0.403424,0.064413,0.664234,0.671377,0.003123,0.529733,0.525116,-0.085919,0.131368,-0.250222,-0.382298,0.255324,-0.393838,0.363703,0.200811,-0.200438,-0.319732,0.146451,0.240887,0.352023,0.574578,0.216944,0.008889,0.615440,0.566546,0.601337,0.474593,0.495651,0.288949,0.496564,0.066828,0.124946,0.643987,0.037487,0.072006,0.232772,-0.400733,-0.344674,-0.431987,-0.817502,-0.486882,-0.518931,0.600220,-0.035464,-0.524767,-1.121939,-0.492882,0.037805,-0.098058,0.096560,0.613848,0.399412,0.007005,0.857845,0.802179,0.719718,0.502182,0.686765,0.555832,0.765320,0.627016,0.824301,0.551280,-0.132594,0.043561,1.049443,0.154158,-0.783322,-0.772152,-0.003979,0.092818,1.094752,0.381821,0.240168,-0.352539,-0.238742,-0.461545,-0.516589,0.413060,0.494754,0.453254,0.895249,0.994415,0.088412,0.846950,0.491799,0.651750,0.762426,0.828572,1.129666,1.361837,0.927274,0.601712,0.196778,-0.914763,-1.170243,-0.774328,0.841251,1.563860,1.271666,1.772442,0.610655,-0.093789,-0.508093,0.125657,-0.183538,-0.018384,0.351122,0.838627,0.959806,0.916501,0.761807,0.094571,0.482996,0.963454,1.568233,1.750574,1.116816,1.389516,1.066868,0.972218,-0.597935,-0.264835,-0.209116,-0.702420,-0.696209,0.230601,0.618108,1.508978,1.180690,0.922105,0.457771,0.413836,0.459249,0.594103,0.024494,0.265175,0.816782,0.823603,0.623122,0.229121,0.527130,0.909599,1.215442,1.462372,0.860614,0.472222,0.217408,0.227131,1.170094,0.489841,-0.464544,-1.372604,-2.534730,-0.816240,0.769772,2.348588,2.243974,2.277482,2.100919,1.297049,-0.427794,-0.659770,0.080158,0.598708,0.253312,0.107154,0.367073,0.830684,1.487091,1.120298,1.255695,0.588942,0.853134,0.297634,0.361815,1.101621,1.421650,0.690558,-0.614009,-1.363663,-1.629647,-0.649700,1.952603,2.916248,2.419870,2.440940,1.836246,1.445651,-0.409904,-1.156785,0.551913,0.075719,0.321422,0.672597,0.820978,0.448671,0.617205,1.288538,1.090294,0.071119,0.331418,-0.572650,0.648742,0.243227,0.693708,0.076675,0.252460,-1.467907,-0.411679,1.862318,2.302483,3.365535,3.503717,2.076011,1.098799,1.004093,-0.532271,-0.704269,-0.161744,0.550845,0.457296,0.331462,0.093951,0.645016,1.427340,0.645782,0.050296,-0.918097,-1.810888,-1.535300,-1.651897,-1.570538,-0.929398,-2.586472,-2.890070,-2.157269,0.258173,1.613269,2.659119,2.946441,2.693062,2.354321,1.170507,-0.189094,-1.438967,-0.835193,0.679941,0.614260,0.199208,0.986267,0.395186,0.385734,0.502640,0.508295,-0.701942,-2.608457,-3.138174,-2.654475,-2.484450,-3.512797,-1.944032,-3.400368,-4.601814,-3.781819,0.041109,1.079026,1.695239,1.408999,1.477415,0.391467,-0.540036,-0.715656,-1.871077,-1.250271,0.415458,0.069775,0.388091,0.017029,0.292468,0.669713,0.340811,-0.305930,-1.745596,-3.261750,-2.491259,-1.768073,-2.891351,-2.295903,-2.024538,-3.563590,-4.652386,-4.781113,-1.606574,-0.433313,-1.064335,-0.312233,0.137223,-0.614466,-1.514528,-1.462313,-1.773098,-0.748133,0.726661,0.752659,0.374293,0.674490,0.745914,0.351658,0.800885,-0.316100,-2.044268,-2.508474,-1.189922,-1.064320,-1.896067,-1.485126,-0.122748,-1.503430,-3.406444,-2.321846,-2.513192,-1.272350,-0.126725,0.359012,-1.138875,-0.726938,-0.544103,-0.471549,-1.910677,-0.582730,1.359528,0.684123,0.364900,0.836116,0.513636,0.935619,0.283685,0.121780,-0.440955,-1.015347,0.043766,0.527579,0.214338,0.354065,0.371500,-0.460688,-0.470428,-1.015499,-1.898963,-0.408507,0.789944,1.345481,1.900632,0.698405,0.313838,0.453817,-0.322618,0.703050,1.442440,0.450428,0.485584,0.967559,0.404619,0.990580,0.351131,1.511216,1.050759,0.779955,1.847446,0.845111,1.019146,-0.670560,-1.363530,-1.259860,-1.664755,-1.120465,0.045851,0.844518,2.055728,2.675830,2.182202,1.156385,1.536354,1.236004,0.858210,0.846206,0.965478,0.492529,0.916580,0.632771,0.183279,0.255006,0.440386,1.827402,1.395761,2.303053,2.027543,1.382507,1.381684,-0.125052,-0.943216,-0.475934,-1.053227,0.199376,0.830135,1.265315,3.153341,3.310163,2.521446,2.245233,1.784074,1.224958,0.908325,1.376569,1.930182,1.006632,0.357850,0.396680,0.231841,0.799195,1.121057,2.576415,2.880820,2.198736,1.755163,0.940355,0.042309,0.043043,-1.035870,0.548527,0.756564,-0.097862,1.344071,1.144074,1.692729,1.644482,0.883997,1.210334,1.373774,0.491600,0.398296,1.541331,1.112819,1.065873,0.078921,0.464187,0.035432,0.313091,1.110201,2.568851,1.988390,0.781640,0.822570,0.224245,-0.655189,-1.019667,-0.586034,-0.153705,-0.420408,0.398231,0.331304,0.788756,0.488373,-0.723187,-0.689285,-0.362912,0.311148,0.051320,0.374378,2.030874,1.542373,1.073326,0.852052,0.899442,0.889868,0.990121,0.953196,2.143664,1.656408,0.765981,0.579656,0.353289,-0.410273,-0.413197,-0.584287,-0.544931,-0.289539,-0.580146,-0.039221,-0.990905,-0.618167,-1.477962,-1.502473,-1.310502,-1.120676,-0.416909,1.055101,1.486550,1.554995,0.422145,0.138990,0.768517,0.807884,0.614047,1.044748,1.864034,1.379888,0.121801,-1.013439,-0.674096,-0.245707,0.542785,0.258705,-1.356664,-1.323948,-1.395296,-1.189062,-1.654687,-0.902695,-1.091927,-0.797438,-1.539502,-0.540366,0.117786,1.028777,1.547259,0.712009,0.111450,0.366161,0.050172,0.279763,0.135393,0.361345,1.793626,0.613134,0.443440,-1.384361,-0.910517,-0.871326,-0.940205,-1.376824,-1.756665,-2.376765,-2.238821,-2.667312,-0.697018,-0.432716,-0.902549,-0.512412,-0.053992,0.461148,-0.056537,1.404070,1.212130,1.284140,0.710415,0.648427,0.657735,0.404736,0.927648,0.701733,0.993605,1.715242,0.938222,1.116751,0.392189,-0.142409,-0.102739,-0.271215,-0.637115,-1.588243,-1.829604,-0.372749,0.491133,-0.068112,0.152025,1.202599,0.399986,0.940039,0.844805,0.356497,0.324259,0.543229,0.179203,0.436171,0.415723,0.483932,0.449131,0.025296,1.157865,1.606326,2.059804,2.706031,1.658881,0.612446,-0.174312,-0.543142,-0.737423,-1.536407,-1.044460,0.217424,1.018631,-0.155750,0.328000,0.593765,-0.437114,0.361519,0.389357,-0.064354,0.578205,0.645561,0.679872,0.112003,0.335917,0.503067,0.172077,0.105157,0.507005,1.379993,1.661357,2.224945,1.657637,0.248484,-0.031190,0.214539,0.235648,0.062668,0.592706,-0.028638,-0.704042,-0.164874,-0.597331,-0.468606,-0.552233,-0.212477,-0.253427,0.069653,0.079140,0.954746,0.516778,0.119846,0.035524,0.264290,0.225016,0.173151,0.371136,0.778591,1.108107,0.643720,0.789394,1.428435,0.769405,0.825401,0.990096,0.189486,-0.225323,-0.112732,-0.653513,0.217284,0.325985,-0.723620,-0.739069,0.016244,0.472767,0.147987,0.609774,0.232911,0.451809,0.954802,0.641926,0.047151,0.264992,0.309956,0.621553,0.546505,0.826938,0.529113,0.738624,0.982186,0.997173,0.034946,0.395691,1.086899,0.995126,0.243927,0.014269,0.669736,1.046382,0.360177,0.025779,0.376310,0.420689,0.895145,0.117967,0.547349,0.726096,0.710013,0.027314,0.279336,0.377728,0.620380,0.475997,0.101091,0.637538,0.355054,0.132249,0.436959,0.157228,0.132852,0.365563,0.491461,0.916800,0.474702,0.473927,0.951978,0.258715,0.647789,0.920571,0.074655,0.707938,0.188435,0.518479,0.726188,0.366100,0.398968},{0.717460,0.186041,0.982238,0.065432,0.667592,0.004517,0.967437,0.446028,0.542711,0.252388,0.832636,0.338450,0.459627,0.563596,0.262429,0.464888,0.419050,0.891232,0.913572,0.701346,0.759453,0.863247,0.590197,0.176672,0.968139,0.882046,0.952757,0.771538,0.317606,0.886441,0.415815,0.049257,0.196478,0.974731,0.394172,0.156260,0.589041,0.727254,0.548262,0.724391,0.341930,0.304128,0.111450,0.041502,0.440413,0.732474,0.439774,0.805783,0.977884,0.484694,0.573696,0.923996,0.802332,0.406873,0.645375,0.843287,0.800104,0.906278,0.272469,0.774387,0.993744,0.056948,0.542034,0.414326,0.481512,0.967235,0.682702,0.606721,0.957078,0.846897,1.019353,0.891961,1.327157,0.884856,0.875828,0.424788,0.325073,0.634554,0.425452,0.744960,0.465026,0.504405,0.301248,0.856227,0.496994,0.575304,0.086062,0.572921,0.795580,0.454562,0.998743,0.439560,0.912729,0.053166,0.633545,0.797191,0.096494,0.560614,0.693363,0.590848,0.214038,1.275238,1.432503,1.391796,2.341205,2.089592,1.423323,0.960509,0.482380,1.010578,0.419108,0.890103,0.141209,0.277993,0.452620,0.908415,0.899739,0.169305,0.529381,-0.081619,-0.171811,-0.768965,-0.953066,-0.591198,-1.065568,-1.481974,-0.956013,-0.741182,-0.031038,0.497280,1.726025,1.542322,2.662191,2.264016,2.333900,1.990641,1.108832,0.867933,0.856236,0.849087,0.800806,0.026734,0.185980,0.239226,0.285782,-0.592172,-0.902613,-0.910982,-0.601821,0.314223,0.024672,-0.098812,-1.328056,-1.428542,-0.997439,-1.120569,-0.766711,0.977509,1.830631,1.303034,1.765991,1.443964,2.076936,2.705356,1.454406,1.300960,0.240806,1.012266,0.048921,0.325568,0.618518,0.607670,0.386740,-0.048448,-0.263277,0.133759,0.380497,0.066420,0.213547,-0.540478,-0.097933,-0.620796,0.430741,0.028749,-0.474392,0.446637,0.961746,0.862153,-0.183245,0.929252,0.876120,1.581680,1.528885,0.623678,0.676674,0.912017,0.214454,0.771928,0.474492,-0.035266,-0.116460,-0.506565,-0.317925,-0.478022,0.236610,-0.038954,0.077768,0.755434,0.182314,-0.290789,2.170253,1.115441,0.745257,0.869918,-0.139167,-0.039063,-0.245058,-0.244988,-0.509956,0.971032,1.561429,1.510604,0.997103,0.817397,0.049746,0.524762,0.029445,0.443604,-0.375523,-0.852248,-0.800980,-0.437977,1.234819,0.276332,0.101759,-0.078925,-0.302692,-0.130635,0.097214,-0.340959,-1.093266,-1.199539,-1.884301,-0.906297,0.392785,0.289338,-1.267631,0.654226,1.996089,2.445156,0.908933,0.118987,0.703970,0.626191,0.918707,0.477461,-0.506033,-0.762848,-0.733513,-0.217054,1.075181,0.616014,-0.169947,1.291653,0.379536,-0.275144,-1.494214,-1.477697,-2.559442,-2.205761,-2.067362,-0.707101,-0.255176,-0.323881,-0.008848,1.267904,2.971402,1.545679,0.932969,0.827212,0.213141,0.926295,-0.027574,0.117143,0.189252,-0.553508,0.475437,0.871578,0.941023,0.606410,0.583521,0.580326,0.595917,0.599622,-1.557042,-0.896696,-1.038929,-0.933000,-0.881029,-0.154167,-0.193852,-0.151555,-0.342878,0.359189,1.605600,1.484762,0.420407,0.513804,0.571429,0.354434,0.466978,0.116800,0.528087,0.592122,1.214929,0.450844,1.918078,-0.266611,0.918100,1.473855,2.764584,1.447419,-0.111752,-0.010977,1.060689,1.114211,0.508633,-0.379689,-0.680987,-1.208968,-1.768542,-0.382408,0.364439,0.579736,0.342625,0.290516,0.506455,0.869350,0.560107,0.503863,0.616638,1.121886,2.283783,2.193669,1.480867,1.012273,2.140966,2.703050,3.851310,2.039366,0.142878,1.114140,1.480432,1.184273,0.380815,-0.123853,-1.225912,-0.918251,-1.860768,-0.643334,-1.133486,-0.132494,0.280516,0.298192,0.935423,0.536410,0.222935,0.669731,1.795415,2.851879,2.416987,2.658164,1.510632,1.695463,3.276421,3.532122,3.102887,0.845557,0.176949,1.464589,0.916487,-0.072444,0.215569,1.152078,0.371680,0.347745,0.669057,-0.174711,-0.638438,-0.355649,0.512841,0.053183,0.400800,0.480069,0.182678,0.900184,1.481880,2.747208,3.206295,2.736540,1.879244,2.065759,2.866885,3.053908,2.107036,0.787905,-0.157309,0.179097,0.193342,0.011951,-0.171067,0.719405,0.880861,0.661160,1.163361,0.952953,-0.582911,-0.132954,-0.119196,0.984688,0.336528,0.564806,0.746471,0.359178,1.084892,0.808576,1.693067,1.624551,1.362678,1.337609,3.129454,2.615362,1.735972,-0.466886,-1.170444,0.080219,1.224144,1.531283,0.817697,0.579980,0.956882,1.705249,1.186979,1.245621,-0.043305,-0.185907,-0.420436,0.802608,0.507675,0.423375,0.752825,0.750532,0.186414,0.741451,0.801627,0.332844,-0.077732,-0.460824,0.401046,1.571070,0.691268,-0.591431,-0.676441,0.634535,1.360411,1.112695,1.889430,0.895043,1.716479,0.554020,1.174785,0.764877,-0.423967,-0.904691,-0.061632,0.368980,0.467849,0.463578,0.359507,-0.349091,-1.072265,0.044533,0.974237,0.592278,0.566265,-0.400316,0.331292,-0.307914,-1.089728,-1.094069,-0.085128,2.408684,2.097165,3.495834,2.539858,0.523101,1.748443,0.673416,0.070671,0.221520,-0.218891,-0.287333,-0.046963,0.565504,0.378063,0.769890,0.153149,-0.323047,-0.207835,0.259606,1.282205,0.554186,-0.632284,-0.270778,0.321115,-0.611793,0.195616,0.574038,1.721322,3.188082,3.552752,1.894993,0.497853,0.488948,0.679483,0.369297,0.086029,0.240709,-0.382323,-0.261866,-0.085427,0.851386,0.030366,0.408911,0.091255,0.176304,-0.064109,0.309786,1.080185,0.224098,-0.080459,-0.058762,0.456766,0.454724,1.148868,0.513111,2.641535,2.145001,1.463120,0.835743,0.346005,-0.124114,0.261588,0.709036,0.303866,0.162279,0.016855,-0.022471,-0.053701,0.587264,0.420606,0.130707,0.183066,0.650619,-0.506322,0.178228,-0.736419,-0.475041,0.143946,-0.088284,0.072757,0.202737,0.533426,0.502414,1.753023,1.508366,0.536586,0.789989,-0.154466,-0.306328,0.686364,0.587989,0.382324,-0.010433,0.295844,-0.042530,0.465676,0.123753,0.713523,0.739097,0.511304,0.185530,-0.098063,-0.214322,-1.043419,-0.984155,1.157401,1.465511,1.044220,1.317799,1.932170,1.694560,0.860924,0.819135,0.072543,0.393034,-0.071938,0.188487,0.849905,0.391710,0.307865,0.651254,0.485159,0.088687,0.828857,0.738762,0.944395,0.504746,0.789410,0.926832,0.286164,-0.457966,-1.953957,-1.004484,-0.419937,0.937030,1.067682,1.169223,1.490786,0.935567,1.069839,-0.233865,0.476472,-0.065212,-0.887974,0.710972,0.933680,1.150871,0.882723,0.736014,0.712275,0.158726,0.856093,0.279702,0.300546,0.591052,0.783151,0.974018,0.767683,0.030820,-0.468424,-0.991383,-0.171930,0.306832,1.045159,-0.388222,-0.482045,-0.709948,0.237805,-0.524701,-0.400160,0.287585,0.028493,0.865064,1.308448,0.774866,1.172781,1.264547,0.820673,0.310008,0.572520,0.566118,0.326945,0.852962,-0.001275,0.361702,0.420397,0.548572,0.799627,0.734311,0.507111,1.358429,1.033482,1.124183,0.233454,-0.530180,0.042804,-0.401945,0.319209,0.744889,1.126867,0.862402,1.086958,0.938654,1.679349,0.681578,0.399189,0.100811,0.592668,0.736991,0.899075,0.286569,0.045998,0.867712,0.106288,0.646437,0.385429,0.940425,0.760595,1.330812,1.042903,0.887262,0.474820,0.587708,0.747174,0.873944,0.384741,0.644417,1.028469,1.488222,1.076078,1.327420,0.912299,1.119363,1.019603,0.013160,0.239971,0.514389,0.307321,0.150975,0.254860,0.636578,0.218152,1.088340,0.993560,0.265318,0.872382,0.540129,0.790983,0.642358,0.970589,0.481863,0.676465,0.510290,0.339432,0.308653,0.302281,0.877014,0.310968,1.103164,1.034806,0.371846,0.575985,0.806360,0.422040,0.148564,0.296518,0.225074,0.757317,0.401685,0.660817,0.042731,0.565172,0.698790,0.537433,0.309684,0.171467,0.299400,0.886216,0.608877,0.821202,0.125760,0.710646,0.506857,0.813448,0.571884,0.935449,0.746920,0.308420,0.262568,0.404889,0.912778,0.495499,0.263619},{0.403974,0.167699,0.265114,0.478530,0.807184,0.957244,0.471633,0.416974,0.468245,0.093448,0.058107,0.611560,0.212414,0.399901,0.339061,0.425855,0.502701,0.123386,0.619190,0.823267,0.341288,0.282571,0.814051,0.129795,0.023743,0.602771,0.229072,0.322214,0.440596,0.450179,0.152928,0.872951,0.659352,0.667440,0.431827,0.707640,0.297346,0.245800,0.613459,0.146561,0.291313,0.969269,0.041649,0.882211,0.252543,0.952554,0.047827,0.791534,0.149409,0.667478,0.225606,0.404177,0.823847,0.062868,0.492294,0.928098,0.457747,0.829859,0.913938,0.310276,0.928670,0.898404,0.305582,0.574635,0.784485,0.754121,0.305623,0.454351,0.708440,1.332656,1.095959,0.867329,0.631916,0.941124,0.700519,0.390693,0.880590,0.864548,0.268124,0.761003,0.871608,0.177554,0.761345,0.685476,0.044710,0.833277,0.585040,0.330990,0.557007,0.734811,0.905475,0.114748,0.618204,0.531458,0.510632,0.739526,0.667126,1.528026,1.324263,1.300536,1.124177,1.688778,1.119342,1.406884,1.220446,0.938760,0.617155,0.740505,0.083821,0.575603,0.037605,0.833583,0.299783,0.218085,0.236641,0.195076,0.861245,0.419494,0.031257,0.638826,-0.028916,0.585917,0.015779,-0.143768,-0.157218,0.233762,0.995712,1.659260,1.486028,0.756760,0.938227,1.666033,0.797264,1.563204,0.609124,0.936908,0.935510,0.614926,0.254304,0.375756,0.318644,0.882046,0.120304,0.810383,0.567189,0.661846,0.129493,-0.398540,-0.489812,-0.133411,-0.710530,-0.550445,-0.984824,-0.958369,-0.957320,-0.094784,-0.558766,0.319126,1.152808,1.066219,0.510535,1.286442,1.530965,1.334606,0.802224,0.507198,0.828684,0.922485,0.544633,0.188326,0.549690,0.357949,0.706385,0.075988,-0.140482,-0.215840,-0.212587,-0.279005,-0.449281,0.152354,-0.385937,-0.580964,-0.702371,-0.027397,-0.367615,0.912728,1.275346,0.863119,0.797289,0.663368,0.139204,0.718772,1.065759,0.200626,0.153482,0.944414,0.823634,0.177280,0.187370,0.083312,0.614773,0.459218,-0.212087,-0.142925,-0.163122,-0.036746,-0.310878,0.628672,0.718481,0.054767,0.762739,0.916610,1.076664,1.642218,1.161421,0.573882,0.933184,-0.476332,-0.531942,-0.530879,0.949494,0.600903,0.667751,0.773010,0.505186,0.617048,0.768100,0.611921,0.033581,-0.000846,-0.403145,0.100441,-0.128895,-0.394608,-0.734809,0.613510,0.816107,0.382101,1.138711,0.935758,0.711034,0.189935,-0.029440,0.075365,-0.032978,-0.217570,-0.229067,-0.652818,0.923231,1.184479,1.276880,0.775011,0.453230,0.418515,0.698177,0.956570,0.076985,-0.450148,0.361470,-0.006433,0.535070,0.168280,-0.358948,0.692946,0.932585,1.239598,1.716280,1.319348,0.362404,0.376854,-0.340142,-0.638733,-0.607290,0.085996,-0.131925,0.245439,1.479875,1.220532,0.875831,0.288606,0.250191,0.273025,0.846309,0.208856,0.869476,-0.221322,-0.209141,-0.045711,-0.012225,-0.091153,-0.461854,0.158505,0.325540,1.846569,3.039982,1.871803,1.236419,0.670084,-0.026265,-0.522976,0.535694,-0.227388,0.158021,0.289227,2.194015,1.804079,0.822627,0.807814,0.538560,0.125705,0.396653,0.727126,0.943294,-0.077105,-0.201883,-0.086348,0.142443,-0.779786,-0.771623,0.258057,0.517104,1.935664,2.722672,1.901484,1.392699,1.165069,0.362230,0.102355,-0.115887,-0.044902,-0.708660,0.544957,0.410734,1.208299,0.727043,0.829247,0.743309,0.319024,0.895633,0.373414,0.284480,0.712830,0.796237,0.112532,-0.084126,-0.887861,-0.409429,-0.172345,0.790048,1.214647,3.005109,2.479121,1.077896,1.278392,0.763094,-0.634501,-0.445040,-0.998256,-1.537883,-0.715065,-0.547757,0.685302,0.578698,0.522772,0.078829,0.943417,0.381063,0.842244,0.386386,0.773956,0.193716,-0.240021,0.108751,-0.352140,-0.527371,-1.377574,0.027516,1.821090,1.420878,1.498694,0.363323,-0.112273,-0.096098,-0.444496,-0.750688,-0.007063,-0.366796,-0.866627,-0.117313,0.103965,0.034789,0.319278,0.164861,0.413057,0.366642,0.831076,0.719651,-0.448525,-0.151269,-0.092003,0.304522,-0.211630,0.324268,-1.272627,0.754027,1.412190,1.682271,1.579210,0.712705,-0.723084,-0.527122,-0.984612,-0.188977,0.477552,0.760875,0.195278,-0.150301,-0.242175,0.839623,0.760294,0.096866,0.570199,0.407514,0.012345,0.467325,-0.552417,0.185469,0.053522,0.149563,-0.215032,-0.350373,0.457417,1.638174,1.663329,1.510494,0.724572,0.427357,-0.558944,-0.318662,-0.055322,0.801719,0.797474,0.663143,0.920393,0.704849,0.013406,0.249989,0.834934,0.315622,0.478100,0.618943,0.919110,0.801455,0.149011,-0.504922,-1.276521,-0.964465,-0.763997,0.320169,1.098422,0.800569,1.431947,2.148479,0.687489,-0.566141,-1.417169,-0.724594,-0.261007,-0.164759,0.196252,1.018351,0.192531,0.874745,-0.126782,0.702283,0.807670,0.119388,0.284082,0.944808,0.629690,0.352286,0.235069,-0.301077,-0.827900,-1.069298,-0.940224,-0.066189,-0.604204,-0.979311,-0.116082,1.408081,1.051047,-0.339479,-0.551091,0.335395,0.288693,0.148756,0.732129,0.410974,0.851003,0.106057,-0.396588,0.039086,0.344066,0.162297,0.061647,0.583482,0.897878,0.424196,0.579186,0.481522,-0.031308,-0.832901,-0.491517,-0.151658,-0.696903,-0.508748,-0.109342,1.450928,1.180638,0.323028,0.381104,0.886618,-0.015165,0.413192,1.216396,0.368479,0.237162,0.359872,0.510576,0.073227,0.889774,0.782800,0.217319,0.583117,1.244043,0.825369,0.653846,-0.201362,0.561096,0.173629,0.916465,0.508377,0.759234,0.357051,1.316700,1.888563,1.171402,0.937707,0.801475,1.016257,0.808573,0.589883,0.648544,0.408437,0.575475,1.063489,0.014495,0.796950,0.808501,0.505905,0.343630,0.975898,1.035094,0.978123,0.180965,0.668621,0.395196,0.870114,1.098277,0.764935,1.261603,0.610320,1.733840,2.153802,1.202991,0.799846,1.673290,1.152635,1.053756,0.315730,-0.090334,0.238975,0.305529,0.707941,0.281937,0.723254,0.938566,0.563280,0.065432,0.630063,0.690005,1.476135,1.266452,0.780877,0.679728,0.850405,0.855218,0.642917,1.201502,0.576792,0.963658,1.613266,0.929250,0.378966,0.709185,0.497588,-0.085745,0.278112,0.409794,0.380592,0.382436,1.011403,0.547186,0.221575,0.618854,0.774346,0.737053,0.561229,0.774060,0.842222,0.784199,0.397165,-0.065739,0.869920,1.119787,0.648425,-0.197344,0.143692,0.296647,0.679728,0.109239,-0.202831,0.554180,0.630492,0.257678,0.166985,-0.236279,0.415076,0.956770,0.380289,0.903905,0.457573,0.671590,0.632557,0.579730,0.381692,0.334263,0.553161,1.688588,1.562439,0.079716,0.156252,0.095371,0.410520,-0.212314,0.363120,-0.162597,-1.075820,-0.095291,0.112678,0.583989,0.175905,-0.007961,-0.242690,-0.280464,0.692246,0.223161,0.645471,0.702886,0.940694,0.444960,0.940672,0.143834,0.111288,0.258569,1.134379,1.336122,1.394224,1.688202,1.045741,1.137584,0.980128,0.708868,1.256046,0.264334,0.466649,-0.134140,0.111999,1.456358,0.903725,0.094795,0.231013,0.489390,0.909147,0.481505,0.062726,0.456829,0.680870,0.771142,0.838282,0.601856,0.930647,0.063373,1.096489,1.042068,0.633443,1.090065,1.719576,2.087924,1.849732,1.491272,2.569246,2.207718,0.881531,0.735346,1.525136,1.685291,0.983838,0.782544,0.373385,0.542361,0.724137,0.957700,0.338923,0.849541,0.418720,0.003357,0.565966,0.831141,0.947874,0.046953,0.327315,0.361309,0.923623,0.419519,1.006211,0.291190,0.410525,0.711548,0.505685,0.458877,1.005084,0.824772,0.690483,0.602867,0.673354,0.732753,0.636362,0.754835,0.694698,0.407530,0.986259,0.303842,0.631520,0.859584,0.809381,0.756645,0.928648,0.659841,0.359081,0.178990,0.661245,0.726352,0.433679,0.271290,0.415187,0.172119,0.689737,0.637079,0.680272,0.374274,0.234993,0.150056,0.748794,0.665420,0.636535,0.436203,0.470222,0.739741,0.864315,0.681600,0.474349,0.291299},{0.967223,0.922117,0.521317,0.597217,0.453444,0.019257,0.259590,0.201209,0.460250,0.716025,0.496078,0.075716,0.395780,0.348755,0.138096,0.337199,0.882138,0.527268,0.132450,0.053896,0.501755,0.751732,0.031495,0.172857,0.097201,0.907346,0.342326,0.096988,0.186682,0.758354,0.315531,0.944151,0.307810,0.518662,0.335118,0.032559,0.758776,0.369120,0.532731,0.546417,0.415721,0.073082,0.899952,0.143927,0.724598,0.743180,0.202291,0.955908,0.536569,0.764247,0.675235,0.779544,0.573717,0.632008,0.805353,0.497940,0.510422,0.517960,0.912626,0.320017,0.293954,0.372997,0.900014,0.569025,0.917397,0.945017,1.033049,0.908569,0.486131,0.767867,0.590126,1.299684,0.859267,0.544086,1.156738,0.509258,0.951217,0.510554,1.032404,0.251282,0.185029,0.720662,0.979919,0.396039,0.978362,0.344310,0.592883,0.257147,0.236973,0.604882,0.931116,1.047191,0.288271,0.986560,0.258469,0.808544,1.700503,1.063068,1.179861,2.153064,1.542373,1.398162,1.608017,1.909849,1.513708,0.877743,1.000053,0.187414,0.100156,0.126162,0.932903,0.531846,0.028474,0.444319,0.672536,0.502710,0.423189,0.762937,0.722263,0.685006,0.894227,0.955511,1.061925,1.458376,1.568028,2.077050,2.001039,2.273063,1.677443,0.631560,1.054020,1.685335,1.715416,0.674161,0.386247,0.450547,0.776651,0.880905,0.228088,0.265266,0.040223,0.833522,0.143559,0.482570,1.082282,1.165750,1.166729,1.123246,0.649471,0.466707,0.823904,-0.836950,-0.912667,-0.805082,0.131452,0.956959,1.952007,0.346077,0.391366,1.268530,1.132765,0.658044,0.019420,0.536846,0.384295,0.135084,0.156532,0.178803,0.364177,0.623068,0.673199,0.551542,0.913840,1.190831,1.822523,1.196737,0.803461,0.452174,-0.636054,-0.835234,-1.297282,-0.857351,-0.726175,0.302603,0.975390,1.045460,1.103415,-0.303841,0.994473,0.166682,-0.312670,-0.225482,0.595283,0.858841,0.816914,0.267109,0.681570,0.348283,0.643539,0.592961,1.434108,1.261163,1.382278,1.652673,-0.352968,-0.077325,-1.415011,-1.143887,-1.254246,-1.546687,-1.165190,0.081929,-1.135869,0.422941,0.304962,-0.285251,0.240086,-0.337711,-0.278405,-0.207908,0.073462,-0.163584,0.531818,0.836594,0.038118,0.065279,0.222740,1.081345,1.472689,1.651650,1.545014,0.765745,0.183742,-0.822029,-1.914535,-1.744801,-0.556765,-0.442267,-0.802769,-0.035512,-0.073458,-0.072014,0.472251,-0.464327,-0.049178,0.078689,-0.147463,-0.906143,-0.722088,-0.093738,0.980199,0.085426,0.395123,0.435901,0.953572,1.127352,1.995184,0.786164,0.192569,0.513550,0.226703,-1.099990,-2.449396,-2.771787,-1.200818,-0.254677,0.949573,1.246510,1.099155,-0.098985,-0.293815,-0.263603,0.643489,0.280937,-0.298511,-1.458476,-0.472190,-0.003397,0.183842,0.052180,0.041841,0.493361,1.086229,0.800583,0.874596,0.124289,-0.583740,-0.541750,-1.709646,-2.458635,-2.903912,-2.501604,-1.359381,0.746889,1.183730,1.427459,2.038662,1.591556,0.389864,0.871736,1.088081,0.669736,-0.313095,-1.085491,0.021152,0.571748,0.648112,0.332680,0.713065,0.867711,0.901122,1.141112,0.327557,0.066298,-1.076778,-1.043684,-1.986696,-1.257615,-0.794838,-0.391389,0.479032,1.842238,1.957218,2.514065,1.785498,1.139962,0.732686,0.552925,1.072318,-0.068232,-0.201311,-0.021774,0.405321,0.037288,0.574789,0.330793,0.755547,0.614231,0.448332,0.388846,0.427400,-0.400518,-0.326419,-0.548938,-0.885076,-0.745005,0.094036,0.370187,1.141102,2.281122,3.352142,2.355475,1.868462,1.225638,0.642517,-0.516249,-0.418245,-0.247960,-0.484677,0.428662,0.180525,0.520180,0.758932,0.764990,0.186987,0.347993,0.225344,0.325334,0.343794,0.000820,-0.983270,-0.627954,-0.688394,0.450788,-1.195065,-0.932579,0.613814,1.452577,1.495945,2.427632,2.365042,1.086327,0.569570,-1.456919,-0.202274,0.347435,-0.793395,0.434521,0.045740,0.643763,-0.015514,0.917706,0.991302,0.898167,0.182838,0.308611,-0.215960,-0.606419,-1.198351,-1.297266,-1.471611,-1.461879,-1.707584,-2.107976,0.598558,0.665803,1.831277,2.754000,1.283269,-0.383324,-0.836109,-0.015382,-0.451782,0.969124,0.061116,0.827206,0.005473,0.366644,-0.134655,0.289529,0.493820,0.370957,0.155863,0.850961,0.114321,-0.064325,-0.998224,-1.467804,-1.083221,-0.759737,-1.485195,-0.526547,2.060771,3.209631,4.408030,2.020347,0.574504,-1.048452,-0.027078,1.065310,1.008855,1.869551,1.340508,1.076373,0.279497,0.251377,0.098013,0.239101,0.160802,0.205303,0.626839,0.377019,0.755125,-0.209908,-1.023979,-0.758007,-1.418817,-0.624393,-0.993845,0.078023,1.192365,2.751232,3.109278,1.190292,-1.463291,-1.671862,0.385210,1.460551,0.539306,1.396078,1.936997,0.748483,1.011882,-0.353644,-0.124079,0.660274,0.665944,0.410614,1.137693,1.110475,0.560109,0.058820,-1.005815,-0.584815,-1.114235,-2.394945,-2.233697,-0.649582,-0.743994,1.554098,1.154730,0.944555,-0.297939,0.111355,0.858998,1.855052,0.184835,0.716848,1.788177,0.726397,-0.368438,-0.433364,0.788732,0.437424,0.568560,0.812189,1.116289,1.261276,1.256580,-0.281700,-0.909347,-1.546598,-1.396651,-1.300549,-1.916147,-0.671970,-0.862326,0.115639,-0.066010,0.630654,1.454326,0.748314,1.558220,1.284792,-0.059698,0.950501,0.886223,-0.465040,-0.173572,-0.219694,0.344658,0.520037,0.446791,0.072700,1.016529,1.392228,1.067446,0.713300,-0.240747,-0.963668,-0.443160,-0.974921,-1.114902,-1.712100,-1.958835,-1.082740,-0.313706,1.434777,2.067028,2.034447,1.484826,0.439184,0.013640,0.122617,-0.010771,-0.760813,-0.702649,0.021286,0.393731,0.146430,0.829676,0.218471,0.219817,1.520172,0.968393,0.903606,0.320322,-0.016595,-0.053685,0.858880,0.117187,-0.295969,-1.352001,0.195626,1.009735,0.913299,2.451961,1.665803,2.390357,0.476292,0.331737,0.629207,0.059946,-0.960569,0.098153,-0.033791,0.850170,0.346904,0.771477,0.398999,0.043686,1.156152,1.266361,0.466121,0.590447,0.194521,0.599797,-0.117393,0.500077,0.470305,0.414293,0.941713,1.696797,2.579951,1.575788,2.210032,2.233652,0.845860,0.778504,-0.711672,-1.233623,-0.884650,-0.443319,0.098773,0.541401,0.627338,0.412885,0.461989,0.637332,1.071893,1.035508,1.508352,0.294956,0.203333,-0.532261,-0.069288,0.008443,-0.316573,-0.200785,0.215943,1.012607,1.404450,0.563315,0.548062,0.842186,0.866063,-0.174460,-0.754892,-0.256104,0.077107,0.394010,0.685534,0.738251,0.885556,0.371899,0.225837,0.875667,1.045633,1.113062,1.286162,1.675869,0.781571,-0.435494,-0.416492,-0.137650,0.495921,1.240039,1.979279,0.613084,1.456017,0.545476,0.971789,0.248078,-0.199164,-1.303674,-0.605616,-0.658021,-0.001549,0.044342,0.589779,0.489770,0.465133,0.308603,0.137425,0.734775,0.445168,0.709764,1.612166,1.802225,2.082848,1.983525,1.256742,1.062628,1.422657,1.548512,1.327261,1.695694,0.601098,0.818273,-0.174565,-0.164825,-0.314749,-1.193113,-0.960080,-0.326764,0.368234,0.402095,0.497088,0.540646,0.264534,0.507584,0.903073,0.830144,0.800709,0.172739,0.443512,0.667577,1.456962,1.458705,1.976259,1.247514,0.978994,1.136780,1.815291,1.669654,0.519194,0.286701,-0.673339,0.327321,0.166921,-0.372583,-0.155407,0.642987,0.524671,0.751645,0.809697,0.721145,0.047487,0.821741,0.031983,0.042085,0.863002,0.907107,0.847678,0.476301,-0.004791,0.759419,0.500451,-0.052099,0.270703,0.117554,0.570800,0.583576,0.660487,0.645822,0.871273,0.744142,-0.018438,0.175831,0.864670,0.840403,0.543977,0.167789,0.709799,0.875881,0.685110,0.820978,0.765221,0.249519,0.227546,0.353618,0.233293,0.968249,0.499959,0.187378,0.178249,0.698740,-0.000084,0.427237,0.718025,0.930146,0.833205,0.817016,0.355670,0.771990,0.283583,0.526285,0.007203,0.840961,0.749697,0.217200,0.727531,0.249367,0.548173},{0.489822,0.357463,0.557329,0.408124,0.427808,0.382580,0.786767,0.338572,0.180486,0.291086,0.165014,0.081881,0.732808,0.868203,0.280099,0.243660,0.704520,0.817713,0.840083,0.639668,0.282968,0.800531,0.684408,0.886715,0.727165,0.335765,0.203528,0.769005,0.317789,0.181555,0.822962,0.411115,0.978454,0.174963,0.688838,0.743522,0.793710,0.037902,0.340305,0.602487,0.809281,0.616366,0.079710,-0.020626,0.312973,0.426853,0.751574,0.613006,0.176530,0.345070,0.299835,0.179097,0.410443,0.694906,0.873928,0.590686,0.125767,0.623981,0.839778,0.497515,0.793431,0.027131,0.618927,-0.022077,0.711277,0.060101,0.441026,0.002916,-0.109742,-0.489791,-0.390732,-0.158243,0.040273,0.128166,-0.155411,0.315914,0.411633,0.747598,-0.138120,0.325458,0.100563,0.372859,0.913907,0.523362,0.472762,0.239784,0.746757,0.337540,0.088253,-0.023158,0.374148,0.726598,0.387284,0.041056,-0.759700,-0.342513,-1.127299,-0.998551,-1.009753,-0.283113,-0.389488,0.434119,0.673237,0.012975,0.862553,0.326230,0.791542,0.747890,0.428807,0.532865,0.887940,0.525681,0.986175,0.136387,0.752373,0.221253,0.762303,0.302245,-0.450166,-0.267406,-0.642774,-1.113823,-0.484253,-0.015130,-0.316382,-0.566978,0.541970,1.164144,1.384583,1.105173,1.049895,1.263310,1.326541,1.225338,1.080771,0.733405,1.435832,0.600680,0.470675,0.915082,0.459944,0.054506,0.766839,0.491701,-0.275675,-0.187900,0.072038,-0.041402,-0.007634,0.234078,0.352263,0.948151,1.123924,-0.153605,0.797346,1.239442,2.156258,2.949948,2.777476,1.942945,2.262360,1.570113,2.343140,2.511707,1.869750,1.229148,0.794894,0.313012,0.063875,0.115238,0.019765,-0.039121,-0.087905,-0.046726,-0.593309,0.612824,0.780162,0.187846,0.639549,-0.400563,0.557845,-0.483840,0.550872,0.110973,-0.777042,0.583331,0.401300,1.724686,1.135075,1.856579,3.134911,3.145855,2.498765,1.163877,0.703631,0.147477,0.508103,0.689544,0.303303,-0.105009,-0.818124,-0.068681,-0.353719,0.165204,0.562755,0.201393,-0.708591,-1.217406,-1.579282,-0.693534,-1.198075,-1.210975,-0.371790,-0.622815,0.460452,1.185916,0.643146,1.334352,2.301708,3.231113,2.865951,2.230161,1.324693,0.164821,0.513122,0.442617,0.023521,-0.436293,-0.355338,-0.082940,0.460300,-0.047221,0.309487,0.860051,0.491548,1.026648,0.067218,-0.816380,-1.682407,-1.809463,0.522680,0.454309,0.977351,1.585163,1.462416,2.057316,1.758760,3.750843,4.052812,2.423704,1.106622,0.449783,0.381390,0.769518,0.095568,-0.488591,-0.422941,0.465801,-0.286695,0.256351,0.254725,0.274335,0.814503,0.576170,0.492266,-1.237402,-4.247339,-2.975951,-0.571797,-0.233443,1.139477,1.130656,1.483339,1.585754,2.255082,3.178717,4.156938,2.610896,1.221371,0.381969,0.158055,0.032426,0.656100,-0.316839,-0.301552,0.300259,-0.338831,1.021461,1.710926,1.688030,2.001284,1.325855,1.137017,-0.628904,-3.132368,-1.223125,-0.938635,-0.899988,0.429011,0.268935,-0.558973,0.395664,1.176198,1.590217,3.276224,2.580673,0.987051,0.424855,0.984680,0.568488,-0.129826,0.113976,0.416401,-0.026612,1.085338,0.656221,1.471882,1.088019,0.854588,0.471133,2.855534,0.364906,-1.228343,-0.439627,-0.018146,-0.626519,-0.702138,-1.203696,-1.401338,-1.158467,-0.707675,0.050315,1.679923,1.485436,1.192129,0.699974,0.229408,0.817569,0.416633,0.160031,0.349111,0.583963,1.398624,1.133417,0.243999,0.886790,1.087293,2.579709,3.751245,2.170480,-0.833148,-0.273406,-1.408219,-2.083268,-1.465634,0.163799,-0.037767,-0.980896,-1.097537,-1.445003,0.201334,0.670297,0.615904,0.369212,0.093966,0.893371,0.310260,0.380756,0.192352,0.195876,1.726982,2.096998,1.293879,1.264331,1.268877,4.129546,3.879133,1.438810,-0.942842,-0.877460,-1.554236,-0.952339,0.318232,0.361181,0.939281,-0.542386,-0.001828,-0.867363,-0.193668,0.697522,0.408057,0.916172,0.088656,0.431392,0.553019,0.749348,0.606374,1.628740,1.376538,0.824305,1.915162,1.607809,1.237673,2.475810,1.829443,0.657317,-0.292788,-0.245329,-0.663611,-0.140262,-0.314399,0.441489,0.426369,-0.016746,-0.381481,-0.348111,-0.148847,0.336132,0.561879,0.976603,0.212104,0.511634,0.119993,0.853470,0.312577,0.362458,0.263529,0.358439,1.085092,1.894991,0.654456,1.840020,1.542547,0.479573,-0.014693,-0.450047,0.442893,-0.110441,0.395948,0.129308,-0.555471,-0.887709,0.009134,0.101138,0.379436,-0.061401,0.803752,0.752137,0.180548,0.321936,0.898771,0.601664,-0.399123,-0.072587,0.214313,0.171596,0.494111,1.252730,0.517677,-0.038979,0.679985,1.230322,0.635283,0.829860,0.644527,-0.203168,0.334444,-0.653203,-0.031355,-0.444298,-0.044514,0.377359,-0.307522,-0.049134,0.470829,0.286338,0.548967,0.165337,0.691914,0.754040,0.230013,0.516229,1.182188,1.698624,1.535228,0.494003,-0.152625,-0.386914,-0.075233,-0.854238,0.279026,0.648193,1.257294,0.887676,0.311976,-0.281263,0.191092,-0.150802,-0.367968,0.424676,0.126871,-0.263084,0.132344,0.843176,0.069063,0.760765,0.832093,-0.053103,0.629619,1.494396,2.635278,1.998154,0.741450,1.514586,-0.476038,-0.592707,-0.646040,-0.121162,-0.043642,0.834390,0.796499,-0.783633,-0.758920,-0.096451,0.745648,0.167471,0.409632,0.686775,0.368519,0.051796,0.872806,0.367478,0.127079,0.302535,0.307397,0.829938,0.587062,1.553538,2.604357,1.723460,1.333885,0.867695,0.104358,-0.557144,-1.110463,-1.732338,-0.562563,-0.217835,0.042967,-0.556669,0.172263,0.383071,0.831715,0.497025,0.390042,0.746860,0.187657,0.182465,0.446874,0.337125,0.605426,0.276327,0.684653,0.059694,0.498902,1.675515,1.568339,0.814130,0.688698,0.055337,0.321055,0.122794,-0.883460,-1.653705,-1.103777,-0.053692,0.609863,0.941383,0.539979,-0.060739,0.116001,0.949946,1.316270,0.766795,-0.302146,0.000939,0.859696,0.051241,0.012055,0.374035,0.703090,0.256641,0.797805,0.879536,1.273494,1.362883,0.609106,0.039680,0.140265,0.446719,0.205423,-0.432025,0.022382,0.074059,0.414319,1.307951,0.228979,0.694021,1.404511,1.162475,1.969682,1.311191,0.699610,0.330837,0.196347,0.737693,0.221015,0.752892,0.158348,0.755793,0.774103,0.258557,-0.050338,0.251966,0.855834,0.992079,0.184279,1.273996,0.567980,1.231254,1.616073,1.258735,1.078844,1.158464,1.426459,2.123152,1.183872,1.641923,1.623052,0.925972,0.077774,0.584231,0.243207,0.798822,0.668111,0.736961,0.582593,0.384765,0.706744,-0.226377,-0.601495,-0.224390,1.196342,1.600797,2.154301,1.537544,0.928328,2.080234,2.672422,2.190304,2.333737,1.517881,1.698825,1.859384,1.498262,1.378681,0.603226,0.913403,0.097694,1.003551,0.621988,0.415510,0.345439,0.245918,0.054982,0.975196,0.070745,-0.149760,-0.916531,-0.369584,-0.268335,0.754957,0.948618,1.569411,1.869835,2.014387,2.202007,2.311436,1.436589,0.933820,1.476627,1.295707,0.737660,-0.003497,-0.044893,0.284019,0.557495,0.191464,0.954808,0.300485,0.438429,0.252266,0.580708,0.457152,0.201365,-0.159713,0.005813,-0.442634,-0.842970,-0.204654,-0.093788,-0.275669,-1.102023,0.513258,0.075783,0.409414,-0.192057,-0.385799,-0.147695,-0.065623,-0.085429,0.522697,0.152109,0.585676,0.948646,0.048088,0.746389,0.782342,0.949370,0.285836,0.472060,0.698596,-0.002549,0.356632,0.575930,0.477238,0.165431,-0.220364,-0.059205,0.240300,-0.179293,-0.552324,-0.226181,-0.360517,-0.466499,-0.009150,-0.324914,-0.330154,-0.407443,-0.064432,0.778606,0.980267,0.864330,0.969573,0.850368,0.945769,0.150731,0.448592,0.157872,0.697470,0.148045,0.867588,0.093706,0.643387,0.705929,0.937441,0.328057,0.863448,0.273906,0.429605,0.311991,-0.012005,0.761008,0.315602,0.607127,-0.081391,0.390316,0.363895,0.265841,0.105514,0.785974,0.739555,0.784845,0.047700},{0.212653,0.907437,0.603595,0.626362,0.366222,0.795740,0.838740,0.378643,0.261483,0.077425,0.819727,0.771905,0.628771,0.656349,0.028108,0.262215,0.900143,0.359996,0.177404,0.680410,0.166509,0.640400,0.169591,0.986938,0.048067,0.641072,0.085086,0.927366,0.847713,0.334605,0.862087,0.619343,0.916044,0.058229,0.820182,0.600276,0.635879,0.223188,0.700696,0.417778,0.850182,0.390860,0.260225,-0.039874,0.469076,0.885372,0.578861,0.667681,0.427834,0.234043,0.994979,0.940141,0.382061,0.763787,0.192602,0.628925,0.317179,0.264138,0.877865,0.701976,0.632452,0.901425,0.637680,0.547406,0.908776,0.267445,0.795031,0.784953,0.209953,0.898501,1.140468,0.472757,0.273425,1.159304,0.285092,0.331364,0.384572,1.088435,0.241095,0.983537,0.506393,0.416905,0.069033,0.956359,0.642445,0.832728,0.138768,0.225739,0.594489,0.394156,0.621293,0.043384,0.667438,0.403057,0.849431,0.694798,0.195156,0.036642,-0.010991,0.787749,0.632198,0.471636,1.446634,0.826064,1.148245,1.298182,0.936313,0.986166,1.172856,0.217171,0.099718,0.178167,0.364910,0.874447,0.267037,0.433066,0.042080,0.465446,0.190779,-0.268707,0.080676,0.296465,0.801352,-0.121649,0.049226,-0.370738,-0.231311,-0.177943,0.677833,1.091622,1.132495,0.868182,1.108619,1.742264,1.528794,1.401343,1.105190,0.584882,0.329232,0.603752,0.698935,0.837611,0.143803,0.452359,0.337123,-0.025394,-0.705443,-0.042324,0.505407,0.740600,1.446664,0.454771,-0.018463,-0.563511,-0.624341,-0.294178,0.422953,1.039399,0.996993,-0.069719,0.147686,1.051586,1.930107,2.577861,1.334752,1.071248,0.732733,0.242238,0.420759,0.492662,0.662165,0.512283,-0.047898,0.157510,-0.693036,0.236227,1.010535,1.642328,0.184641,-0.091787,-0.983375,-2.311874,-1.318062,-1.109214,-1.908766,-1.633451,-2.347723,-2.028693,-1.227231,-0.768462,1.435003,2.762496,2.444903,1.281508,0.599904,0.284372,0.337596,0.881157,0.670099,0.210588,-0.257583,-0.103103,-0.202673,0.612912,1.760505,0.899987,0.404258,-0.995184,-1.885918,-3.127222,-2.254751,-2.506634,-2.542074,-1.320416,-2.134196,-1.757042,-1.997540,-1.204717,0.009191,2.462130,2.755960,1.674894,1.290187,0.552338,0.680715,0.605247,0.362729,-0.370186,-0.483168,0.486722,-0.130703,0.438929,1.343700,1.908654,0.304736,-0.013376,-2.227573,-3.330143,-3.122915,-2.878325,-1.259612,-0.614440,-2.016938,-1.374036,-0.495766,0.086175,0.268015,2.249845,4.012991,2.816957,0.563780,0.759024,0.265664,0.528324,0.290877,0.192176,-0.268601,-0.243881,0.166263,0.815091,2.062750,0.808173,0.291155,-0.296238,-2.149993,-4.825597,-6.076659,-5.048047,-2.015638,-2.185482,-1.903505,-1.335630,-0.715498,0.073147,0.210041,1.757712,2.774563,2.656736,0.865177,0.732348,0.764580,0.551038,0.666709,0.006450,-0.346116,0.239122,0.506724,1.361041,2.199052,1.653074,1.236974,0.551561,-1.490749,-4.284729,-5.931317,-3.701445,-2.653791,-3.157784,-2.232643,-1.586312,-0.909806,-0.459664,-0.480991,0.161982,1.411712,2.198469,1.089036,0.419743,0.932676,0.154523,0.334241,-0.219902,-0.441885,0.554832,0.392171,1.127466,1.883483,1.299754,1.900447,-0.064809,-0.061277,-3.111437,-3.688448,-1.802876,-1.009213,-3.005948,-2.467183,-2.613993,-3.018663,-1.568325,-2.315458,-1.429894,-0.155680,0.521598,0.533366,0.344977,0.134220,0.266327,0.020007,-0.287858,-0.070676,-0.018471,0.534450,1.694324,1.077277,0.984911,1.278782,1.555619,2.180479,-0.000266,-1.561340,-0.418386,-0.420167,-1.804011,-1.686743,-1.020550,-1.332144,-1.956446,-1.682688,-1.484009,-0.841430,0.631643,0.544501,0.241084,0.010895,0.627870,-0.090508,0.608250,-0.730865,0.847280,1.238834,1.849657,2.032748,2.091303,1.307801,3.692730,2.693283,0.789770,-0.609149,0.866905,-0.584711,-0.260089,-0.214956,-0.115072,-0.050302,-0.324163,0.161069,-0.357704,-0.593009,-0.257902,0.662121,0.343356,0.636341,0.669263,0.284680,-0.053431,0.604880,1.012909,1.083262,1.738344,2.635637,1.775207,2.568353,2.935652,1.892738,1.092606,1.189217,0.648961,1.009984,0.362832,-0.676141,0.485658,0.319049,-0.582694,1.239407,0.639643,0.318007,0.504573,0.248006,0.124468,0.000946,0.464079,0.242946,0.549519,0.322868,-0.165054,0.164771,0.874207,1.439123,2.235060,1.925588,2.417187,1.818927,1.520576,1.086961,1.172746,1.700859,0.338649,0.074670,0.249357,-0.930050,-0.376897,-0.318065,0.751942,0.022833,-0.139631,0.481039,0.544668,0.170446,0.627454,0.945396,0.537774,-0.956992,-0.218211,0.636256,0.513335,-0.110348,0.812255,0.185855,0.883295,2.169679,1.714382,0.750757,1.775515,0.816354,0.531084,-0.020494,-0.645806,-0.338442,-0.704518,-0.050151,0.375837,0.407676,0.567851,0.366807,0.728778,0.962065,0.634338,0.791707,-0.103978,-0.896526,-0.917896,1.054987,1.091566,-0.042072,-0.581358,-0.368639,0.311682,0.536382,1.028668,0.926750,0.721142,1.049181,1.790979,0.179231,0.189752,0.859731,-0.102949,-0.417954,0.143135,0.649414,0.469307,0.575124,0.358539,0.481948,0.609577,0.553442,0.341915,-0.373918,-0.815227,0.835841,1.655403,-0.042133,-0.205860,-0.191633,0.432434,2.159503,2.619315,1.252464,-0.057000,1.560586,-0.072261,-0.466794,-0.279823,0.468595,-0.134016,-0.163877,0.826311,1.153588,-0.152018,0.615697,0.830675,0.367718,0.960979,0.602586,-0.161900,-0.679379,-0.603604,0.085683,0.678534,0.327819,-0.109468,0.928520,1.609433,2.563424,1.820204,1.987098,0.246176,-0.320424,-0.158362,0.346510,-0.247228,0.423294,0.638249,1.370962,1.512632,0.569647,0.116651,-0.013860,0.364985,0.079958,0.898918,0.951990,0.373278,-0.720800,-0.571330,-1.315378,-0.018565,0.186900,0.016148,0.406482,1.570908,2.162797,0.345431,0.576800,0.494689,0.363832,-0.014880,0.521240,0.109173,0.063636,1.106905,1.382898,1.705140,0.289855,0.140065,0.846300,0.045015,0.086001,0.244057,0.048722,0.664405,-0.629350,-0.983465,-1.489278,-0.916042,-0.449807,-0.662967,0.255043,0.989337,1.756846,1.015390,0.395151,0.443277,-0.280965,1.422377,1.274559,0.847289,1.178704,1.924588,2.080866,1.450707,0.534866,0.428177,0.543381,0.683065,0.280435,0.520890,0.097786,0.789521,-0.320245,-1.220409,-2.189459,-1.622420,-1.134340,-0.289413,-0.462644,-0.296245,0.804801,1.785927,0.819916,-0.195660,1.062846,0.486617,0.855148,1.408717,1.034726,1.609526,1.488204,1.148914,0.857360,0.670689,0.857071,0.017121,0.485214,0.877255,0.347477,0.452511,0.769282,0.071650,-1.586560,-1.847312,-1.138060,-0.652636,-0.916164,-1.238643,-0.767600,-0.466248,0.527526,0.485378,1.298965,0.527651,1.579223,1.820282,2.055994,0.874685,0.441431,1.011810,0.294070,0.960685,1.002698,0.282174,0.374065,0.656819,0.161786,0.883381,-0.170058,0.512688,-0.455511,-0.598863,-1.114077,0.132082,-0.780873,-0.328410,-0.474164,0.250326,0.305378,0.386803,0.527747,0.150343,0.819028,0.700945,0.695437,-0.318387,0.775119,0.557680,0.854150,0.918215,0.318937,0.128300,0.664144,0.205603,0.553728,0.848142,0.728616,0.297005,0.211776,-0.446600,-0.205715,-0.130378,-0.926996,-0.436470,-0.307695,0.234608,0.212352,1.046361,0.010799,-0.101556,-0.122076,-0.770533,-0.596760,-0.372657,0.486011,0.328718,0.242658,0.899250,0.546664,0.978118,0.919187,0.837825,0.033540,0.559729,0.234277,0.092965,0.575530,0.132913,-0.468126,0.187106,-0.750851,-0.344912,-0.167459,0.301674,-0.528030,0.098951,-0.757202,-0.203456,-0.549851,-0.278555,0.607151,0.315570,0.287765,0.705988,0.351996,0.428816,0.049013,0.565600,0.807672,0.436140,0.796716,0.546831,0.591601,0.673214,0.720692,0.519068,0.097205,0.601007,0.676640,0.710634,0.628506,0.075327,0.264188,0.221464,0.748351,0.582251,0.743697,0.306714,0.891826,0.582517,0.520784,0.450937,0.520035,0.525773,0.687551,0.875637},{0.159795,0.655995,0.939268,0.820612,0.343974,0.688955,0.156102,0.005768,0.931364,0.546800,0.576312,0.203619,0.648170,0.452297,0.912870,0.707053,0.807520,0.294748,0.253792,0.254494,0.698508,0.289438,0.464064,0.448927,0.415082,0.914060,0.245674,0.202246,0.667196,0.201392,0.512406,0.236549,0.398541,0.490738,0.235115,0.173010,0.657918,0.487713,0.412853,0.229342,0.539684,0.860953,0.324973,0.166396,0.889347,0.214991,0.774351,0.047059,0.947478,0.781233,0.231036,0.453618,0.851039,0.407544,0.085971,0.545122,0.568651,0.142552,0.445784,0.085604,0.144078,0.655477,0.703761,0.430394,0.485560,0.187015,0.871528,0.456866,0.582795,0.437653,0.436479,-0.014507,0.243325,0.265543,0.578185,0.612192,0.927979,0.482544,0.699624,0.440212,0.329618,0.564027,0.124973,0.062471,0.166173,0.742790,0.941282,0.290299,0.751948,0.412370,0.211456,0.375718,0.992171,1.554000,1.170283,0.908553,0.915340,1.467740,0.245159,-0.170861,0.854543,0.542693,0.041124,-0.046838,0.172237,0.447969,-0.105156,0.763576,0.256348,0.944857,0.724861,0.799646,0.514939,0.763970,0.431349,0.885897,0.507680,0.897691,0.571656,0.597157,1.167348,0.922947,1.233437,1.522165,0.637658,0.539704,-0.704496,0.141096,-0.047652,0.280349,0.967952,0.066794,0.477271,0.899359,0.747100,0.855812,0.851805,0.219038,0.558283,0.414635,0.130436,0.719443,0.695853,0.095173,0.798204,0.143895,0.591500,0.754411,1.664577,1.404168,1.541815,1.086102,-0.366482,-0.774637,-0.399850,0.461268,0.263296,0.802789,0.803593,0.236120,-0.162216,0.814927,0.741687,0.564629,1.006518,0.360393,0.106215,0.103515,0.057497,0.043220,0.246619,0.597524,0.909732,0.498409,0.667583,1.128659,1.548205,1.765268,0.853433,0.509472,-0.148520,0.089742,-0.276786,0.469687,-0.214508,-0.131442,0.855125,0.157434,0.347529,0.115963,0.021808,0.314605,1.140239,0.319761,0.749901,0.470207,0.143864,0.646132,0.515719,1.089659,0.625232,1.119187,1.559785,0.762676,1.626355,1.097625,0.994213,1.577688,2.019891,1.233609,0.439229,-0.332471,0.050524,0.815819,1.537336,1.200507,0.545598,0.801436,0.859223,0.219572,0.774319,0.938577,0.557258,0.587187,0.864421,0.805620,0.957610,0.372630,1.003941,1.133634,0.694838,0.599561,1.665766,0.776365,2.184882,1.987265,1.892044,0.458595,2.043555,0.641646,0.796768,1.483222,1.440723,0.842441,0.792645,0.896917,0.737940,0.013163,1.192000,0.956961,0.396743,0.778664,0.528611,0.926107,0.897093,0.774888,0.554599,0.973097,0.445254,0.076463,0.625446,0.542948,1.079098,1.763334,1.722463,1.931844,1.712313,0.695749,0.333409,0.598029,0.716165,0.430633,0.483755,-0.541070,0.247021,0.054923,0.608648,1.234297,0.292803,0.706940,0.247749,0.046194,0.700556,0.373487,0.788441,-0.015252,-0.684945,-1.379219,0.013926,-0.051806,-0.996230,-0.071468,-1.299097,-0.224778,-0.726067,-0.432162,-0.923982,-0.997869,0.022586,-0.848459,-0.314084,-1.561602,-1.510547,-1.285534,0.611203,1.165078,0.782178,0.051891,0.450789,0.599876,0.261793,0.527097,-0.206545,-0.620949,-1.751477,-2.543489,-2.342505,-2.023512,-2.147935,-2.169018,-2.684126,-3.583231,-2.712316,-1.894991,-1.111019,-0.842057,-1.063325,-1.227474,-1.896458,-2.330756,-2.426904,-1.367187,-0.911172,0.808744,0.980641,0.468640,0.347667,0.474201,0.133359,0.470854,0.031125,-1.280899,-3.223184,-3.306220,-2.602422,-3.024550,-2.742151,-1.907936,-3.010294,-4.576569,-4.342555,-2.721876,-1.526175,-1.388519,-0.747065,-1.736186,-2.658876,-2.735950,-1.742031,-1.783471,-0.696031,0.283631,0.385583,0.959357,0.150792,0.568179,0.956191,-0.188499,-0.961839,-2.311256,-2.907994,-3.357679,-2.900537,-2.358208,-2.421048,-2.011170,-2.766843,-2.278442,-1.837882,-2.257740,-2.319166,-0.874559,-0.405157,-1.466913,-1.964330,-1.245453,-1.868481,-1.614620,-0.772735,0.522010,0.603191,0.518964,0.409406,0.427408,0.379673,-0.188106,-0.195357,-2.271776,-2.800739,-2.405345,-1.244050,-1.135702,-0.452415,-1.531278,-2.437363,-0.884991,-0.894518,-1.493192,-1.616149,-0.915396,-0.507501,-0.547975,0.087920,-1.161055,-1.108297,-0.822556,-0.234654,0.449623,0.571770,0.199299,0.298929,0.547659,0.474877,0.741590,0.283656,-1.826575,-1.806188,-1.986899,-1.172161,-0.306648,-0.591981,-1.525218,-1.184218,-0.423783,-0.440394,-1.581039,-0.693209,-0.695296,-0.280247,0.265057,-0.557873,-0.124812,-0.583179,-0.449763,-0.056594,1.008649,0.619250,0.407940,0.209265,0.031846,0.550734,0.783759,0.357027,-0.624795,-1.319299,-1.036598,-0.932462,-0.478525,-0.006933,-0.801940,-0.619724,-0.596250,-1.288301,-1.100580,-0.980694,-0.553359,-0.199774,1.371085,-0.078395,0.213164,0.308320,-0.112267,1.243635,1.800396,0.842870,0.376707,0.475661,0.758994,0.723967,0.560315,1.316871,0.227612,-0.008610,-1.323702,-0.602223,-1.013948,-0.946828,-1.573272,-1.421587,-0.893279,-0.334906,-0.649419,-1.191931,0.170061,0.743732,0.111806,-0.392619,1.414798,0.799637,0.773851,1.969216,1.855238,1.055450,0.902941,0.595843,0.148656,0.518515,0.831202,1.236498,1.025327,0.241198,0.123266,-0.492384,-1.005268,-1.061821,-1.960085,-0.926567,0.424166,0.435151,-0.170588,-0.275189,0.723813,0.528570,0.099269,0.385225,0.269077,0.870535,1.421449,2.262892,1.273390,0.583102,0.437363,0.777276,0.872739,0.554561,0.474735,1.743037,0.729372,0.863289,0.769555,0.565836,0.159670,-0.112750,0.408742,0.467178,1.552071,0.910492,0.744771,0.239510,0.432616,-0.132813,-0.353824,0.045661,0.460881,0.603557,1.975623,1.586998,1.251329,0.240041,0.777320,0.158147,0.571366,0.196266,0.662619,1.662756,1.109979,0.804913,0.717263,1.678065,1.401658,1.038658,1.956306,1.909790,2.019031,1.662627,1.547503,1.108841,0.621814,0.828341,0.566622,0.102166,0.348456,1.229509,1.511078,1.252858,1.018150,0.914758,0.737693,0.546220,0.006592,0.142616,0.976191,1.096841,1.260591,0.485699,-0.176844,0.889745,1.091822,1.096969,0.921265,0.876925,1.552547,1.170196,1.448626,0.947370,0.879894,0.245775,0.019272,0.352403,1.055209,1.760568,1.070478,1.581442,1.219320,0.734641,0.081362,0.018555,0.640034,0.386587,0.594453,0.915330,1.103102,0.361903,0.915322,0.370835,1.648194,0.893669,1.439572,1.310894,0.451586,0.374488,0.850416,0.846354,0.522619,0.703655,0.400740,0.559374,1.015794,1.196183,0.634842,1.052251,0.876517,0.556975,0.999756,0.226722,0.092563,0.873293,0.044309,0.707036,0.966527,1.246408,1.215184,0.591713,0.967709,0.332440,0.163673,-0.132622,-0.597480,-0.048339,0.493605,0.393683,0.442243,-0.144020,0.075910,0.200618,-0.090528,0.436568,-0.074532,0.394693,0.995280,0.106466,0.373547,0.750633,0.458022,0.324488,0.762922,0.228962,1.109451,1.234316,0.778125,0.539932,1.277451,0.526025,0.723214,0.933143,1.271775,0.815424,0.932992,0.385673,0.436681,0.496406,0.085081,-1.171452,0.086121,0.031780,0.578177,0.409586,0.628853,0.254162,0.288247,0.345042,0.938444,0.255152,0.360533,0.574886,0.259752,0.959012,0.516209,1.383926,1.112295,0.796290,1.905949,1.513437,1.182973,0.818886,0.990870,0.984029,0.539275,0.494830,-0.422224,0.158366,-0.403822,0.095774,0.046328,0.652992,0.998631,0.247750,0.164892,0.422254,0.770898,0.008728,0.003691,0.699821,0.599637,0.011340,0.353605,0.427211,0.669445,1.155890,0.227731,0.177148,0.972166,1.164508,0.578382,0.843789,0.657234,0.502457,0.978313,0.722460,-0.046578,0.894520,0.646829,0.063295,0.958769,0.389752,0.197272,0.615131,0.913999,0.638997,0.262795,0.504288,0.422669,0.391092,0.217178,0.895837,0.203886,0.693481,0.621603,0.643973,0.501147,0.925521,0.623117,0.385159,0.721259,0.259587,0.095766,0.337852,0.821992,0.500123,0.299236,0.620655,0.138493,0.831965,0.314920},{0.763604,0.462569,0.517350,0.537919,0.500931,0.299051,0.059603,0.164098,0.639027,0.508744,0.537187,0.475997,0.269155,0.444881,0.357524,0.214728,0.798425,0.663076,0.477340,0.543901,0.114353,0.697439,0.749840,0.632801,0.028993,0.708487,0.555315,0.389843,0.169012,0.259957,0.371044,0.377850,0.362194,0.820215,0.428746,0.422629,0.854811,0.654727,0.173229,0.100435,0.438325,0.434861,0.521485,0.095601,0.355549,0.436123,0.739963,0.546256,0.997734,1.003200,0.245264,0.538092,0.119205,0.376690,0.333781,0.906400,0.459914,0.676290,0.823725,0.210411,0.411167,0.693228,0.754556,0.233338,0.605774,0.406657,0.392916,0.623158,0.110981,0.271113,0.831896,0.545183,0.207792,0.090491,-0.120355,0.902675,0.676975,0.855511,0.808642,0.177227,0.844655,0.711984,0.560137,0.812769,0.912351,0.021241,0.031556,0.807160,0.076678,0.787833,0.455836,0.460902,0.156265,0.078802,0.024745,0.335606,-0.077247,0.531228,0.149724,0.289383,0.625408,0.801468,0.567564,0.927956,0.488917,0.805902,0.681274,0.661680,0.664188,0.348633,0.618481,0.772698,0.569689,0.560808,0.508866,0.205937,0.190133,1.053822,0.425569,0.692726,1.120070,0.270634,0.271738,0.566904,-0.282593,0.611565,1.173005,1.145774,0.348063,0.171684,0.625860,1.469231,0.891299,0.655448,0.741085,0.283303,0.675230,0.823572,0.879490,0.537383,0.004639,0.605731,0.736778,0.245088,1.020421,1.102748,0.619778,0.621453,0.167828,-0.359008,0.142934,-0.506917,-0.324356,0.996635,1.135403,1.579371,0.989272,0.742008,0.972930,1.438670,1.188201,1.520180,1.165740,0.224377,0.655206,-0.052046,0.944900,0.650272,0.067568,0.641692,0.612731,0.303976,0.246181,0.367618,0.953663,0.042384,0.044953,-1.175030,-0.254112,-0.897388,0.308901,0.867468,0.512631,0.251316,1.120815,1.493322,1.687538,1.495400,1.603939,1.723907,0.861341,0.361251,-0.302777,0.184411,0.151529,0.199165,0.465102,0.981960,0.512929,0.277825,1.110156,0.357016,0.009891,-0.878542,-1.573735,-0.954896,-1.106543,-1.009918,0.206044,1.362426,1.580768,1.944022,1.976911,2.425996,1.738190,1.110298,1.098214,0.160178,0.228861,-0.251720,-0.739631,-0.153366,0.025260,0.934768,0.516391,0.816370,0.789573,0.922276,0.544033,0.230644,-0.175925,-1.130091,-1.542606,-1.442522,-1.569857,-1.736452,-0.831634,-0.081098,1.347471,1.938434,2.330762,2.248100,2.143386,0.620519,0.836610,0.104161,-0.522545,-0.565032,-0.815278,-0.242157,-0.246657,0.166582,0.902768,0.416167,0.258120,0.313854,0.602370,-0.214556,-0.162354,-0.770336,-0.781606,-0.206387,-1.717028,-2.310360,-1.572883,-0.183202,0.908744,2.365906,3.557586,2.710524,1.307786,0.609301,0.424039,-0.536987,-1.595798,-1.480858,-1.550090,-0.278854,0.403189,0.156874,0.839656,0.977334,0.169611,0.521013,0.464634,-0.013063,0.299213,-0.645234,-1.194963,-1.454510,-2.161871,-1.507733,0.379135,0.843084,1.300879,1.874575,2.804711,3.878287,1.762922,1.153847,0.300577,-0.339213,-1.214646,-1.079798,-0.013447,-0.346761,0.062805,0.193227,0.372143,0.050392,0.441176,-0.167765,0.428603,0.758845,0.893892,-0.224857,-0.774285,-0.190501,0.523748,0.831395,1.042784,1.123720,1.035021,1.894066,2.478133,2.473038,2.563555,1.145296,0.603132,-0.028969,-0.718343,0.343372,-0.130717,0.015888,0.755945,0.947739,0.280465,0.219579,-0.070960,0.444120,0.261450,1.189516,1.621312,1.339276,0.455233,1.999089,1.785669,1.946909,3.373881,2.217138,1.783872,1.356297,1.532215,2.880983,1.931291,0.438213,0.266620,0.077817,0.679987,1.294998,0.516025,0.174946,0.704906,0.700873,0.353679,0.805387,0.617859,0.755005,0.379979,1.385007,2.525761,1.383154,2.131148,1.670027,2.126493,1.860526,2.317075,1.133789,0.985864,0.795408,1.433478,1.963418,0.763925,-0.202803,-0.097063,0.194188,0.983196,1.337671,0.557447,-0.003580,0.735843,0.587262,0.403607,0.908687,0.733167,0.318266,1.188085,2.947095,2.672973,1.683119,1.821401,2.201097,0.258710,0.965080,1.815579,0.777049,-0.199189,0.475907,1.184264,0.992179,-0.305041,-0.427615,-0.109456,0.391009,0.415895,1.259341,0.225051,-0.469501,0.156528,0.847610,0.859157,0.210981,0.633945,0.334822,0.726738,2.531220,1.559498,1.405381,0.544354,0.274027,1.266579,2.010241,1.624414,-0.475953,-0.395147,0.019510,0.953104,-0.754223,-0.985143,-0.313094,1.060384,0.917609,1.616039,1.346402,0.479839,0.014847,0.154082,0.603010,0.283944,0.754911,0.526482,0.188648,0.334725,1.328156,0.741674,0.908953,0.683869,-0.190843,0.764991,1.278927,-0.279330,-0.613874,0.047684,-0.095816,-0.853879,-1.548745,-0.782160,0.430097,0.590181,0.836912,1.342401,1.236835,0.466450,-0.803414,0.267491,0.099295,0.662191,0.486724,0.502894,0.477264,0.154391,0.932077,0.076246,-0.182173,-0.346015,-0.340654,-0.286651,0.057051,-1.194687,-1.166656,-1.078960,0.953865,0.521713,-0.516668,0.266169,0.695199,1.131533,0.096241,0.762834,0.029871,-0.130189,-0.318023,0.003909,0.293510,0.795251,0.381024,0.939014,0.454789,0.394299,0.176904,-0.607578,-0.425306,0.120149,-0.429851,-0.055645,-0.856744,-2.440710,-2.496862,-0.588428,1.094345,0.992739,-0.056362,1.004472,1.360381,1.110400,0.813962,0.030196,-0.877132,-0.746067,-0.033121,0.895967,0.414374,0.653737,0.779050,0.560981,1.348370,0.621681,0.870590,-0.574680,-0.603896,-0.492397,-0.916482,-0.767538,-0.592869,-2.116355,-0.792549,0.328990,0.496487,1.145512,1.354085,1.661255,1.238720,1.355062,0.895338,-0.104126,-0.960203,-0.262561,-0.118402,0.449921,0.452117,0.028199,0.875089,0.951547,1.218597,0.338838,0.105480,0.517150,-0.466188,-0.371262,-0.276902,0.252874,0.390064,-0.635220,-0.147492,0.128153,-0.157081,1.554974,1.926652,1.811209,1.218044,1.472639,0.683686,0.274671,-0.547620,-0.793975,0.475014,0.262516,0.079714,0.322520,0.528428,0.183536,0.906954,0.844721,0.982915,0.776069,0.214902,0.665858,0.793573,0.370591,1.008657,-0.228943,-0.180482,0.221742,1.165882,1.283529,1.549013,0.952648,1.687724,1.215539,0.280599,-0.042466,-1.010564,0.211693,0.622522,0.009431,0.560411,0.833460,0.072268,0.547875,0.376341,0.248501,0.768175,1.654563,0.563296,0.134934,1.320029,1.002645,1.362098,0.268178,0.518257,1.063200,0.858378,0.403541,1.360320,1.088927,0.781654,1.069139,-0.189963,0.127325,0.512490,0.407175,0.374425,0.053786,0.184454,0.360515,0.635426,0.392695,0.219962,0.853417,0.813398,1.618349,1.174356,0.965974,1.478129,2.610173,1.854724,1.936555,1.757227,0.383947,0.047558,-0.040744,0.682442,0.429994,1.020312,0.756064,0.675118,0.545817,0.523383,0.599163,0.104002,0.061052,0.445235,0.489425,0.762871,0.732162,0.328890,0.694942,0.365923,0.682343,1.767162,1.139445,0.951171,1.155899,1.248854,0.437456,0.344416,-0.049026,-0.663319,-0.502101,-0.165361,-0.238128,0.146340,0.653312,0.952865,0.805433,0.907636,0.099256,0.869458,0.202080,0.736717,0.393353,0.370159,0.960423,0.064745,0.198740,0.763426,0.782618,0.371494,0.800375,0.311204,0.671667,0.422284,0.262278,-0.128109,-0.651332,-0.989877,-0.262619,-0.122468,0.035180,0.623791,0.726166,1.180653,1.081838,0.255431,0.361331,0.376612,0.636429,0.757561,0.495407,0.131077,0.791040,0.266293,0.502949,0.240827,0.450467,0.349486,0.260200,0.538548,-0.014351,0.531079,0.532437,0.547824,-0.214545,0.267563,0.814977,0.563702,-0.193705,0.204945,0.566992,0.921292,0.840390,0.902320,0.193038,0.080813,0.839228,0.346934,0.835994,0.749840,0.112888,0.467177,0.301767,0.912794,0.709958,0.529062,0.599192,0.743151,0.475988,0.843718,0.668779,0.876025,0.416132,0.805527,0.780169,0.455258,0.219474,0.814995,0.450725,0.556725,0.010857,0.186423,0.166143,0.999176,0.985046,0.970855},{0.489456,0.086947,0.589801,0.429060,0.666280,0.794580,0.075014,0.182501,0.679067,0.235786,0.416181,0.853969,0.517676,0.417224,0.302988,0.869015,0.902799,0.531327,0.179937,0.959044,0.964141,0.870724,0.039003,0.408460,0.561388,0.165990,0.120334,0.577319,0.872890,0.607532,0.177648,0.730430,0.026368,0.544694,0.472296,0.724622,0.259461,0.761775,0.097180,0.458573,0.296941,0.512516,0.972089,0.978848,0.810851,0.088816,0.756257,0.620723,0.534866,0.827698,0.469378,0.567862,0.053041,0.728385,0.795770,0.039705,0.291421,0.120182,0.778191,0.184315,0.895257,0.287576,0.108572,0.494480,0.310458,0.626215,0.725296,0.299910,1.045220,0.964396,0.216079,1.197598,0.406370,0.534471,0.421003,0.486193,0.407171,0.906800,0.159286,0.385108,0.672245,0.497415,0.276742,0.906644,0.563677,0.276070,0.617115,0.071893,0.027786,0.381975,0.314180,0.311703,0.579775,0.605503,0.754505,0.597879,1.065073,0.739729,0.950011,0.483309,0.215955,0.826613,1.014846,0.653132,0.171742,0.129608,0.090201,0.265979,0.815985,0.470260,0.913805,0.677175,0.070833,0.796319,0.436995,0.947233,0.909329,0.457830,0.718805,0.861574,0.738474,0.364451,0.639099,-0.348052,0.688645,0.265279,-0.203888,0.192690,0.095447,-0.303356,0.220744,0.251964,-0.112356,0.744117,0.409199,0.216328,0.165841,0.139563,0.729756,0.325465,0.073611,0.896512,0.098056,0.210886,0.864410,0.008254,0.137075,-0.156251,0.168247,-0.164072,0.449233,0.124215,1.164625,1.667734,0.599866,0.356349,-0.731882,-0.401378,-0.593749,-0.005979,0.071906,-0.281007,0.405724,0.306683,0.266717,0.590889,0.987023,0.263629,0.640065,0.877002,0.674297,0.144024,-0.269897,0.207237,-0.025786,-0.167248,-0.958438,0.027514,0.663262,0.907350,1.918077,2.060506,2.015506,1.514183,0.934621,0.617006,1.017066,0.733279,-0.011657,-0.336317,-0.947178,-0.990422,0.050157,0.244304,0.325932,0.515336,0.028993,0.336188,0.671543,0.740461,-0.241634,-0.631332,-0.470144,-0.605584,-0.692233,0.660775,0.907875,1.358207,2.200640,3.121563,3.106482,3.028570,2.900363,1.851284,0.311829,0.693146,0.355378,0.218726,-1.214467,-1.252683,-0.637652,0.247228,0.161883,0.336769,0.867229,0.068095,0.374546,-0.143744,0.131826,-0.959828,-0.524106,-1.152754,0.293405,0.312421,0.003986,0.091455,0.513998,1.048094,2.462592,1.972364,1.704566,0.264690,-0.247765,0.513258,-0.226378,-0.137796,-1.538204,-0.501427,-0.128271,0.186105,-0.079303,0.780762,0.997650,0.824638,0.074193,0.311763,-0.867666,-0.115042,0.143826,0.015260,0.645810,1.075380,0.986635,0.902664,0.846790,1.351772,2.139898,2.668196,0.826960,0.681922,0.085445,-0.024186,-0.736935,-1.575809,-0.828591,-0.292628,-0.582972,-0.523462,0.691315,0.834208,0.243049,0.392094,0.123417,0.601375,-0.060287,-0.028549,0.920824,0.524924,0.734332,0.986597,0.855673,1.042988,0.290915,0.709751,2.220903,1.020696,0.598201,1.425717,0.190927,-0.342644,-0.471369,-0.615825,-0.662384,0.861382,0.035154,-0.428831,0.612728,0.388677,0.094363,0.981033,0.426592,0.236225,0.416277,1.419644,1.685738,0.874783,1.019873,0.124015,0.974555,0.878297,0.686955,1.226524,1.593272,0.536392,0.957570,1.942900,1.206503,0.578393,1.182434,1.618191,0.841539,1.504884,0.524824,0.375726,-0.061661,0.739487,0.501633,0.140002,0.392769,0.830289,1.179396,2.132026,1.769123,1.067156,0.871876,1.330386,1.601173,0.116815,-0.479764,1.101850,1.673414,0.554343,0.975789,1.942390,1.348342,1.925498,0.416499,1.276037,1.688132,2.043134,0.872396,0.671791,0.701288,0.782340,0.711447,0.775854,0.393817,1.005246,1.600106,2.155016,1.940852,1.059178,1.187417,0.369597,1.764885,-0.782157,0.044286,0.987372,1.368421,0.663428,0.908896,1.557664,1.159204,1.202035,0.455408,0.305606,0.860295,0.742719,0.341585,0.370206,0.475500,0.622994,0.460433,0.675862,0.155879,0.204160,1.263944,1.601426,1.467685,1.455709,0.845802,1.243744,0.905627,0.218214,0.596292,1.247858,0.641020,0.594437,0.868308,0.079593,0.169423,-0.610793,0.361597,0.398963,0.382657,0.266022,0.483520,0.371405,0.879497,0.159790,0.374126,0.918596,0.027367,0.595661,0.927864,1.309532,1.835044,1.087625,0.411351,-0.279909,1.406455,0.633657,-0.058734,-0.141928,-0.680860,-0.292359,-0.108086,0.402038,-1.072053,-1.120761,0.126844,-0.352544,0.306012,0.437671,0.483626,0.424815,0.733840,0.571245,0.914701,0.338324,0.537987,0.052333,0.685979,1.162568,0.971263,0.076380,0.274154,0.468441,0.926029,1.215122,-0.742511,-1.864069,-1.270808,-0.844383,0.484999,0.023034,